svm_type c_svc
kernel_type rbf
gamma 0.5
nr_class 3
total_sv 2139
rho -0.57242922483038394 -0.94076894805149036 -0.92601216608175252
label 1 2 3
nr_sv 1189 741 209
SV
0.42762350538484217 0.058928277027080256 1:13 2:26 3:40 4:156 5:40 6:23 7:25 
0.42753216143287914 0.058909149616229617 1:8 2:21 3:59 4:159 5:35 6:26 7:13 
0.42795391690284124 0.058901904210315104 1:19 2:11 3:39 4:223 5:34 6:29 7:25 
0.42753175413042521 0.05886087239701987 1:14 2:27 3:85 4:200 5:36 6:18 7:23 
0.42792715312326252 0.058861637652233456 1:5 2:9 3:7 4:48 5:35 6:20 7:22 
0.42753634382918715 0.058743670792965663 1:11 2:9 3:11 4:39 5:26 6:25 7:25 
0.42789518466273851 0.059302040345641238 1:6 2:19 3:21 4:40 5:31 6:38 7:25 
0.4275085934823738 0.058787124576100358 1:13 2:26 3:41 4:167 5:43 6:23 7:25 
0.42787406036954723 0.058805047313774284 1:8 2:21 3:68 4:166 5:35 6:26 7:13 
0.42741001714323862 0.059337810681419689 1:19 2:11 3:34 4:250 5:33 6:29 7:25 
0.42784644857897908 0.058778299155400782 1:14 2:27 3:113 4:197 5:36 6:18 7:23 
0.42785804299874686 0.058752429319017863 1:5 2:9 3:7 4:46 5:32 6:30 7:23 
0.4276663640830608 0.058751871510796805 1:11 2:9 3:9 4:52 5:29 6:34 7:16 
0.42769342611385608 0.059242430889670905 1:21 2:35 3:43 4:45 5:27 6:30 7:25 
0.42778313978583116 0.059251098038314021 1:13 2:26 3:40 4:183 5:43 6:23 7:25 
0.4274651644664621 0.059256453689790267 1:8 2:21 3:66 4:184 5:35 6:26 7:13 
0.42744908069947141 0.059262042592189035 1:19 2:11 3:36 4:270 5:33 6:29 7:25 
0.42750309818306803 0.058734863538335014 1:14 2:27 3:107 4:229 5:36 6:17 7:23 
0.42746071299533495 0.058742851094988335 1:5 2:9 3:7 4:60 5:36 6:21 7:26 
0.42757808113870038 0.058738340330959093 1:11 2:9 3:10 4:55 5:33 6:28 7:25 
0.42792364827125989 0.058796267828907622 1:7 2:24 3:33 4:41 5:28 6:39 7:28 
0.42735676812107043 0.058812292832408686 1:13 2:26 3:40 4:198 5:43 6:23 7:25 
0.42782847881506253 0.058801065521389473 1:8 2:22 3:72 4:193 5:35 6:26 7:13 
0.42778587702214416 0.059004628358566902 1:19 2:11 3:40 4:287 5:34 6:29 7:25 
0.42750347162298824 0.059314016632868671 1:14 2:27 3:124 4:237 5:36 6:17 7:23 
0.42743911032884524 0.05941523530036158 1:5 2:9 3:7 4:54 5:40 6:39 7:22 
0.42760763299986887 0.059415191036962189 1:11 2:9 3:14 4:54 5:38 6:29 7:17 
0.42749116756341105 0.05941261144868798 1:5 2:28 3:22 4:46 5:33 6:40 7:33 
0.42736219385654156 0.059411755071947403 1:13 2:26 3:40 4:212 5:44 6:23 7:25 
0.427422190363069 0.059482573156490137 1:8 2:21 3:81 4:202 5:35 6:26 7:13 
0.42739794283642651 0.059472854422584431 1:19 2:11 3:39 4:312 5:33 6:29 7:25 
0.42739534099079163 0.059478278605394619 1:14 2:27 3:132 4:255 5:36 6:17 7:23 
0.42734842617201058 0.059408604459637471 1:5 2:9 3:7 4:62 5:34 6:35 7:27 
0.42798645764498117 0.059480245983686009 1:11 2:9 3:16 4:58 5:43 6:30 7:24 
0.42787301361574587 0.059495098246591271 1:36 2:45 3:41 4:45 5:31 6:31 7:25 
0.42792600360026772 0.059490355604135181 1:13 2:26 3:40 4:229 5:43 6:23 7:25 
0.42731571759056541 0.059232149589875938 1:8 2:21 3:86 4:214 5:35 6:26 7:13 
0.42739240694763697 0.059317513396461186 1:19 2:11 3:39 4:335 5:33 6:29 7:25 
0.42761361724976987 0.059342400733760126 1:14 2:27 3:132 4:282 5:36 6:17 7:23 
0.42761435816394117 0.059284265690063787 1:5 2:9 3:7 4:67 5:41 6:38 7:32 
0.42746977555540011 0.059343771613221519 1:11 2:9 3:13 4:74 5:40 6:28 7:28 
0.42736943560990098 0.059342376285332454 1:8 2:24 3:29 4:49 5:40 6:48 7:42 
0.42749272761378343 0.05936624650760508 1:13 2:26 3:40 4:238 5:51 6:23 7:25 
0.42750769423704282 0.05933061997539002 1:8 2:22 3:77 4:239 5:35 6:26 7:13 
0.42737916526950176 0.059258252732416195 1:19 2:11 3:38 4:358 5:35 6:29 7:25 
0.42735676812107048 0.059256474091886613 1:14 2:27 3:143 4:297 5:36 6:18 7:23 
0.42750853418461593 0.059268738386842046 1:5 2:9 3:7 4:66 5:44 6:35 7:33 
0.42731479245813969 0.059013886201489618 1:11 2:9 3:18 4:76 5:46 6:24 7:20 
0.42740978901909771 0.059367010402801346 1:27 2:41 3:47 4:56 5:32 6:39 7:36 
0.42716775740805474 0.059338564479834321 1:13 2:26 3:40 4:260 5:46 6:23 7:25 
0.42740886341742768 0.059366576486443723 1:8 2:22 3:86 4:248 5:35 6:26 7:13 
0.42750035524125379 0.059315190668653872 1:19 2:11 3:44 4:377 5:34 6:29 7:25 
0.42735809361033228 0.059196061758094776 1:14 2:27 3:158 4:310 5:36 6:18 7:23 
0.4275815502267179 0.059254750890039842 1:5 2:9 3:7 4:69 5:40 6:42 7:34 
0.42745320470586795 0.059282412816918484 1:11 2:9 3:14 4:74 5:48 6:26 7:23 
0.42797470055052605 0.059236536343460378 1:28 2:41 3:46 4:54 5:44 6:37 7:46 
0.42754283474877458 0.0591346027321899 1:13 2:26 3:40 4:277 5:46 6:23 7:25 
0.42751302716505635 0.05918284319480871 1:9 2:21 3:102 4:250 5:35 6:26 7:13 
0.42752887867941852 0.059264815326514453 1:19 2:11 3:45 4:400 5:34 6:30 7:25 
0.42735724575219008 0.059279071891273905 1:14 2:27 3:151 4:346 5:36 6:18 7:23 
0.42753725018128602 0.05930206079167688 1:5 2:9 3:7 4:81 5:48 6:38 7:32 
0.42793330950230207 0.059328339390790574 1:11 2:9 3:14 4:79 5:54 6:44 7:31 
0.42753412339319719 0.059209675967314246 1:30 2:47 3:38 4:58 5:49 6:46 7:36 
0.42756219812299634 0.059112706330061382 1:13 2:26 3:40 4:292 5:48 6:23 7:25 
0.42754341000710944 0.059178027324214177 1:9 2:21 3:100 4:271 5:35 6:26 7:13 
0.42753485449039225 0.05918599340615166 1:19 2:11 3:43 4:429 5:34 6:29 7:25 
0.42741363950718669 0.059343215401259142 1:14 2:27 3:173 4:355 5:36 6:17 7:23 
0.42756316079079593 0.059076965015669392 1:5 2:9 3:7 4:76 5:55 6:48 7:29 
0.42753133709278374 0.059017207281993833 1:11 2:9 3:15 4:96 5:47 6:42 7:36 
0.42759735250450037 0.058989988656015957 1:28 2:31 3:45 4:55 5:54 6:42 7:43 
0.42810293219837486 0.058782362319098003 1:13 2:26 3:40 4:316 5:43 6:23 7:25 
0.42736598679398041 0.058782545500345451 1:8 2:21 3:100 4:291 5:35 6:26 7:13 
0.42800247367542449 0.058762995013459662 1:19 2:11 3:44 4:451 5:37 6:29 7:25 
0.42801889660823444 0.05874304994710472 1:14 2:27 3:183 4:375 5:36 6:17 7:23 
0.42797470055052617 0.059262495834151774 1:5 2:9 3:7 4:91 5:48 6:54 7:34 
0.42780084587885614 0.059286556124239775 1:11 2:9 3:15 4:111 5:59 6:37 7:30 
0.42774738247037114 0.059302211514157377 1:34 2:52 3:53 4:57 5:50 6:49 7:46 
0.42767970299259034 0.059332256144101925 1:13 2:26 3:40 4:327 5:50 6:23 7:25 
0.42766057514169581 0.058737604973903235 1:8 2:22 3:109 4:301 5:35 6:26 7:13 
0.42762427143225307 0.058746545192136679 1:19 2:11 3:44 4:480 5:35 6:29 7:25 
0.42760198305333474 0.059121980698683518 1:14 2:27 3:188 4:400 5:36 6:18 7:23 
0.42759327420210586 0.058988002204889534 1:5 2:9 3:7 4:75 5:58 6:51 7:43 
0.42759928781452322 0.05915312167307657 1:11 2:9 3:19 4:94 5:61 6:43 7:36 
0.42764047480818829 0.058914861895078663 1:31 2:50 3:55 4:69 5:38 6:49 7:52 
0.42758784240967423 0.059087735963240906 1:13 2:26 3:40 4:350 5:46 6:23 7:25 
0.42759906099146267 0.059094385163411534 1:8 2:22 3:106 4:324 5:35 6:26 7:13 
0.42754843323174624 0.059141459238021221 1:19 2:11 3:48 4:505 5:33 6:29 7:25 
0.42752506544695512 0.059297698046958836 1:14 2:27 3:199 4:419 5:36 6:19 7:23 
0.42749496706494128 0.059316756053453989 1:5 2:9 3:7 4:93 5:67 6:52 7:33 
0.42751964349829658 0.059290594792881901 1:11 2:9 3:16 4:103 5:50 6:54 7:45 
0.42750593839623252 0.059506196317413773 1:41 2:60 3:56 4:62 5:57 6:43 7:53 
0.42745048505081568 0.059521485748681491 1:13 2:26 3:40 4:370 5:45 6:23 7:25 
0.42738713032727665 0.059508157436517162 1:8 2:22 3:110 4:341 5:35 6:26 7:13 
0.42739195865635177 0.059473040981359193 1:19 2:11 3:43 4:535 5:35 6:30 7:25 
0.42739158517358483 0.059522566763252904 1:14 2:27 3:211 4:441 5:36 6:18 7:23 
0.42741929679315488 0.059370496966555386 1:5 2:9 3:7 4:95 5:62 6:51 7:43 
0.42738542210382319 0.059293527356704234 1:11 2:9 3:21 4:114 5:51 6:54 7:43 
0.42731571759056552 0.05935613577727461 1:42 2:53 3:59 4:60 5:49 6:59 7:55 
0.42720080419047363 0.059452268763139693 1:13 2:26 3:41 4:391 5:43 6:23 7:25 
0.42716800105183217 0.059259001794903288 1:9 2:21 3:103 4:369 5:35 6:26 7:13 
0.4271717837221623 0.059356122159411939 1:19 2:11 3:43 4:567 5:34 6:29 7:25 
0.42714670555882794 0.05936909186405942 1:14 2:27 3:230 4:454 5:36 6:19 7:23 
0.42718839421534432 0.059372660288304735 1:5 2:9 3:7 4:101 5:65 6:53 7:49 
0.42762236980138207 0.059479064279842231 1:11 2:9 3:21 4:100 5:58 6:50 7:51 
0.42759735250450043 0.059523521299825577 1:35 2:49 3:62 4:63 5:62 6:60 7:53 
0.42756219812299651 0.059342525975785987 1:13 2:26 3:41 4:408 5:46 6:24 7:25 
0.42754334460193166 0.059291138882016037 1:9 2:22 3:119 4:373 5:35 6:27 7:13 
0.42752910690000501 0.059289221788707491 1:19 2:11 3:44 4:594 5:35 6:29 7:25 
0.42755870526536066 0.059285430606090816 1:14 2:27 3:233 4:487 5:36 6:18 7:23 
0.42753133709278379 0.059294524391659442 1:5 2:9 3:7 4:103 5:73 6:57 7:51 
0.42753047985576742 0.059284938509728935 1:11 2:9 3:14 4:114 5:74 6:54 7:44 
0.42753936339198473 0.059260712214468991 1:38 2:63 3:70 4:70 5:56 6:61 7:61 
0.42753059880531796 0.059134602732189845 1:13 2:26 3:40 4:424 5:52 6:24 7:25 
0.42753485449039225 0.059148378314542505 1:8 2:22 3:122 4:394 5:35 6:26 7:13 
0.42754148360668215 0.059172972469409668 1:19 2:11 3:46 4:622 5:36 6:29 7:25 
0.42753646430011399 0.059210487568630177 1:14 2:27 3:238 4:516 5:36 6:19 7:23 
0.4275297357421371 0.059276253611971863 1:5 2:9 3:7 4:110 5:65 6:67 7:53 
0.42758870584286368 0.059076965015669392 1:11 2:9 3:24 4:133 5:74 6:42 7:44 
0.42759555438468638 0.05916439870852791 1:31 2:70 3:64 4:78 5:57 6:56 7:61 
0.42753148244063627 0.059107337236191215 1:13 2:26 3:41 4:452 5:46 6:23 7:25 
0.4275274356680922 0.059178027324214288 1:8 2:22 3:113 4:426 5:35 6:26 7:13 
0.42752758962468901 0.059094385163411534 1:19 2:11 3:56 4:643 5:35 6:30 7:25 
0.42753021670670216 0.059112706330061326 1:14 2:27 3:256 4:535 5:36 6:18 7:23 
0.42752749254799771 0.059209675967314246 1:5 2:9 3:7 4:128 5:80 6:59 7:43 
0.42753245027252063 0.059216222280487452 1:11 2:9 3:20 4:135 5:79 6:54 7:56 
0.42756583077046106 0.059377046281949342 1:43 2:67 3:64 4:81 5:62 6:68 7:62 
0.42752822907713484 0.059113015643451505 1:13 2:26 3:41 4:471 5:48 6:24 7:25 
0.42739801366822849 0.05895052055634098 1:8 2:21 3:135 4:429 5:35 6:26 7:13 
0.42745955198968499 0.058940078598811507 1:19 2:11 3:55 4:679 5:34 6:29 7:25 
0.42740934604626735 0.058860048841218982 1:14 2:27 3:265 4:562 5:36 6:19 7:23 
0.42740591695827906 0.058846014738241637 1:5 2:9 3:7 4:113 5:82 6:77 7:45 
0.4273940669973586 0.058762099011457791 1:11 2:9 3:21 4:138 5:91 6:55 7:52 
0.42736333336433296 0.058767291628902318 1:44 2:66 3:68 4:80 5:62 6:73 7:63 
0.42735587682643611 0.058739823749384468 1:13 2:26 3:40 4:493 5:51 6:23 7:25 
0.42735724575219003 0.058734720150496078 1:8 2:22 3:149 4:439 5:35 6:26 7:13 
0.42737976276341832 0.058738340330959038 1:19 2:11 3:58 4:706 5:36 6:30 7:25 
0.42739447350011467 0.059482573156490137 1:14 2:27 3:272 4:594 5:36 6:19 7:23 
0.42737640005749056 0.059338283807706504 1:5 2:9 3:7 4:117 5:100 6:64 7:53 
0.42740584175175794 0.059471735934989889 1:11 2:9 3:30 4:155 5:75 6:58 7:57 
0.42735676812107043 0.059410414018804536 1:47 2:70 3:72 4:86 5:73 6:63 7:66 
0.42738530179661055 0.059381517457475885 1:13 2:26 3:41 4:515 5:51 6:23 7:25 
0.42736394157142465 0.059262495834151663 1:8 2:21 3:130 4:484 5:35 6:26 7:13 
0.42735621994280415 0.059324769056160798 1:19 2:11 3:53 4:744 5:37 6:30 7:25 
0.42737786662471994 0.059315004435803842 1:14 2:27 3:282 4:624 5:36 6:18 7:23 
0.42743041810044163 0.059502894748521329 1:5 2:9 3:7 4:129 5:72 6:84 7:55 
0.42745150919468244 0.059251459259652584 1:11 2:9 3:23 4:161 5:88 6:64 7:58 
0.42760868952239633 0.059342525975785987 1:51 2:76 3:77 4:90 5:73 6:64 7:65 
0.42746311300680995 0.059354455697869957 1:13 2:26 3:40 4:537 5:55 6:23 7:25 
0.42747514709554052 0.059074356308941312 1:8 2:21 3:132 4:507 5:35 6:26 7:13 
0.42748314656498887 0.058950520556340924 1:19 2:11 3:51 4:784 5:34 6:30 7:25 
0.4274877774718383 0.059187478699702256 1:14 2:27 3:304 4:642 5:36 6:18 7:23 
0.42754145451238112 0.059164398708527799 1:5 2:9 3:7 4:131 5:96 6:72 7:60 
0.42754605423798808 0.059266882343502747 1:11 2:9 3:26 4:154 5:73 6:69 7:72 
0.42760258475128249 0.059076965015669392 1:9 2:42 3:47 4:86 5:77 6:84 7:80 
0.42760214873750935 0.058864093371117365 1:13 2:26 3:40 4:561 5:56 6:23 7:25 
0.42768687558407437 0.058846014738241692 1:9 2:22 3:162 4:502 5:35 6:26 7:13 
0.42773482802414503 0.058758209066130884 1:19 2:11 3:56 4:814 5:36 6:30 7:25 
0.42778313978583116 0.058748929265956651 1:14 2:27 3:314 4:673 5:36 6:19 7:23 
0.42782882209700102 0.058777554270588672 1:5 2:9 3:7 4:136 5:99 6:85 7:59 
0.42784644857897908 0.05891030732901742 1:11 2:9 3:20 4:165 5:107 6:77 7:66 
0.42788023782290252 0.059276253611971752 1:54 2:72 3:84 4:97 5:71 6:77 7:72 
0.42789532412723036 0.059328806366315434 1:13 2:26 3:40 4:588 5:53 6:24 7:25 
0.42803548942423675 0.059305691250825576 1:8 2:21 3:173 4:520 5:35 6:26 7:13 
0.42794592876419857 0.059260677240252135 1:19 2:11 3:58 4:851 5:35 6:29 7:25 
0.42761966779571398 0.0591516637492987 1:14 2:27 3:320 4:710 5:36 6:19 7:23 
0.42758351145545148 0.059298833511716831 1:5 2:9 3:7 4:138 5:99 6:84 7:69 
0.4275290839845271 0.05917971970214192 1:11 2:9 3:27 4:166 5:103 6:87 7:68 
0.42754334460193166 0.05914425890922681 1:55 2:79 3:88 4:101 5:85 6:77 7:74 
0.42749393903531113 0.059154839238654222 1:13 2:26 3:40 4:608 5:60 6:24 7:25 
0.42754266922289064 0.059109374596391151 1:9 2:21 3:152 4:568 5:35 6:26 7:13 
0.42735196596566849 0.059155033168085402 1:19 2:11 3:55 4:890 5:37 6:29 7:25 
0.40718723550460734 0.056497875067641035 1:13 2:26 3:331 4:723 5:35 6:18 7:23 
0.42734842617201052 0.059479064279842231 1:5 2:9 3:7 4:151 5:105 6:93 7:59 
0.42735193727267151 0.058788422665493334 1:11 2:9 3:28 4:191 5:100 6:76 7:67 
0.4273543005279834 0.059256468759799563 1:57 2:83 3:90 4:100 5:94 6:92 7:75 
0.42752766589713714 0.059327696773956273 1:13 2:26 3:42 4:644 5:50 6:23 7:25 
0.4279136561960557 0.059380577458713446 1:8 2:21 3:170 4:580 5:35 6:26 7:13 
0.42791964826197065 0.059352029201765466 1:19 2:11 3:58 4:927 5:36 6:30 7:25 
0.40712810339428412 0.056561862633061011 1:14 2:26 3:330 4:722 5:34 6:17 7:22 
0.42771983262751473 0.059376135496751747 1:5 2:9 3:7 4:151 5:124 6:87 7:71 
0.42750887000500581 0.05935572523165128 1:11 2:9 3:29 4:189 5:106 6:77 7:70 
0.42735393259067328 0.059343344049951952 1:62 2:82 3:96 4:110 5:85 6:82 7:81 
0.42773306025792296 0.059578889068969187 1:13 2:26 3:41 4:666 5:57 6:23 7:25 
0.42760524280797124 0.059722254953818998 1:9 2:22 3:168 4:610 5:35 6:26 7:13 
0.42752749254799777 0.059495098246591271 1:19 2:11 3:59 4:967 5:36 6:30 7:25 
0.42762335303208671 0.059273529066815434 1:12 2:27 3:329 4:720 5:30 6:17 7:22 
0.42794954433711369 0.058999649001920507 1:5 2:9 3:7 4:164 5:115 6:101 7:65 
0.42806239315734057 0.059149561364659264 1:11 2:9 3:26 4:210 5:107 6:82 7:74 
0.42743076102074384 0.058777573475988387 1:60 2:90 3:97 4:108 5:94 6:90 7:84 
0.42756316079079598 0.058771991439298565 1:13 2:26 3:42 4:702 5:49 6:23 7:25 
0.42736432785744127 0.059055634736660478 1:8 2:21 3:169 4:642 5:35 6:26 7:13 
0.4274535126413947 0.059104478453238518 1:19 2:11 3:65 4:1005 5:35 6:29 7:25 
0.4275658959708718 0.059411754695933183 1:12 2:23 3:330 4:720 5:30 6:14 7:18 
0.42739286072744787 0.05882363612260777 1:5 2:9 3:7 4:170 5:132 6:98 7:67 
0.4274688196792627 0.059381822182992761 1:11 2:9 3:31 4:201 5:130 6:93 7:74 
0.42735572964922786 0.059415191036962078 1:51 2:59 3:95 4:113 5:112 6:94 7:96 
0.42738713032727649 0.059251098072795161 1:13 2:26 3:40 4:729 5:54 6:23 7:25 
0.42753751000380391 0.05934572426049145 1:9 2:22 3:173 4:668 5:35 6:26 7:13 
0.42743915811385269 0.058788691079378397 1:19 2:11 3:62 4:1048 5:37 6:30 7:25 
0.42749186568676412 0.059260712153653694 1:11 2:20 3:323 4:716 5:33 6:17 7:21 
0.42735569653543753 0.05934337443303106 1:5 2:9 3:7 4:188 5:121 6:92 7:74 
0.42734988783345029 0.059290452798037518 1:11 2:9 3:36 4:222 5:118 6:88 7:79 
0.42736160518761862 0.059260712275283622 1:68 2:93 3:107 4:124 5:93 6:100 7:89 
0.42737342894630925 0.058746545192136734 1:13 2:26 3:42 4:756 5:56 6:23 7:25 
0.42753664611817105 0.058748929265956706 1:8 2:22 3:189 4:686 5:35 6:26 7:13 
0.42759957379619096 0.05874036996553994 1:19 2:11 3:61 4:1094 5:37 6:30 7:25 
0.4275627151189193 0.059010386697865236 1:11 2:20 3:327 4:716 5:29 6:15 7:19 
0.42750528747020916 0.058733984278758811 1:5 2:9 3:7 4:185 5:125 6:108 7:75 
0.42776261917706682 0.058908845927399978 1:11 2:9 3:32 4:227 5:116 6:104 7:86 
0.42753148244063632 0.058914861895078663 1:62 2:96 3:112 4:141 5:109 6:103 7:99 
0.42762047493153393 0.058944496990716577 1:13 2:26 3:41 4:790 5:54 6:24 7:25 
0.42789518466273857 0.059017207281993722 1:9 2:21 3:191 4:718 5:35 6:26 7:13 
0.42756171617779237 0.059343399133544694 1:19 2:11 3:65 4:1138 5:37 6:29 7:25 
0.42735197264891162 0.059459354575595147 1:10 2:16 3:321 4:711 5:26 6:14 7:19 
0.42798060438651692 0.059352025069802361 1:5 2:9 3:7 4:200 5:129 6:109 7:80 
0.42735465156777985 0.059351884008803146 1:11 2:9 3:32 4:248 5:120 6:101 7:80 
0.42754800545039484 0.059323031194835896 1:72 2:92 3:123 4:129 5:109 6:104 7:94 
0.42787309892557651 0.059296001569368817 1:13 2:26 3:40 4:822 5:56 6:24 7:25 
0.42762428790163359 0.059323197509243641 1:9 2:22 3:215 4:727 5:35 6:27 7:13 
0.42802451494074095 0.059274114382770304 1:19 2:11 3:67 4:1183 5:37 6:30 7:25 
0.42748392683928171 0.05927907189127396 1:11 2:11 3:39 4:801 5:221 6:16 7:26 
0.42802014982103664 0.059289678537258528 1:5 2:9 3:7 4:198 5:150 6:115 7:72 
0.42762512278094517 0.059277675480123193 1:11 2:9 3:37 4:239 5:138 6:101 7:89 
0.42744401718311681 0.059159707030881026 1:71 2:103 3:122 4:134 5:110 6:114 7:104 
0.42752923843446511 0.059167598555688927 1:13 2:26 3:40 4:853 5:59 6:24 7:25 
0.42739334473975293 0.0591698875795868 1:9 2:22 3:216 4:764 5:35 6:26 7:13 
0.42735234776240666 0.059172983989949635 1:19 2:11 3:69 4:1230 5:37 6:30 7:25 
0.42739423420229694 0.05915743670181961 1:9 2:18 3:323 4:714 5:28 6:15 7:16 
0.42756583084276667 0.059149399267497127 1:5 2:9 3:7 4:204 5:143 6:131 7:84 
0.42764583555620694 0.059169194789152835 1:11 2:9 3:39 4:261 5:139 6:104 7:83 
0.42768881079856014 0.059164108306538621 1:74 2:107 3:125 4:137 5:106 6:118 7:108 
0.42749404617453307 0.059145572165345439 1:13 2:26 3:42 4:884 5:62 6:24 7:25 
0.42750887000860577 0.059221818262609416 1:9 2:22 3:230 4:786 5:35 6:27 7:13 
0.42756206879698905 0.059206520832054833 1:19 2:11 3:69 4:1241 5:37 6:28 7:25 
0.42773266363315765 0.059261266859700901 1:7 2:13 3:321 4:711 5:20 6:13 7:18 
0.42715398432103396 0.059231161578116531 1:5 2:9 3:7 4:206 5:151 6:111 7:100 
0.42748967287416123 0.059200308484885333 1:11 2:9 3:41 4:264 5:150 6:106 7:94 
0.42750721029868977 0.059198010542974799 1:74 2:107 3:123 4:148 5:120 6:123 7:113 
0.42800893874149787 0.059327623905407745 1:13 2:26 3:42 4:926 5:57 6:23 7:25 
0.42756556689438407 0.059298070046864604 1:9 2:21 3:234 4:823 5:35 6:26 7:13 
0.42731398124345377 0.059189156509510975 1:19 2:10 3:67 4:1239 5:35 6:26 7:23 
0.42752778844752348 0.059443717173077282 1:7 2:13 3:50 4:845 5:153 6:15 7:22 
0.42735002988183995 0.0593022823355287 1:5 2:9 3:7 4:230 5:164 6:122 7:89 
0.42735535240092964 0.059251594805679764 1:11 2:9 3:42 4:277 5:153 6:113 7:99 
0.42736628850567276 0.059251700639291638 1:83 2:113 3:134 4:149 5:117 6:125 7:113 
0.42738174716876892 0.059376135496751803 1:13 2:26 3:42 4:954 5:66 6:24 7:25 
0.42753133709278368 0.059376134555377991 1:9 2:22 3:241 4:856 5:35 6:26 7:13 
0.42727705344390315 0.059271547794676527 1:18 2:10 3:66 4:1239 5:36 6:29 7:25 
0.42756705784443755 0.059458242108737513 1:7 2:13 3:322 4:707 5:25 6:13 7:7 
0.42755090201073043 0.059513099085620191 1:5 2:9 3:7 4:228 5:165 6:138 7:92 
0.42719257989188603 0.059522439736235055 1:11 2:9 3:45 4:285 5:160 6:118 7:97 
0.42740613799091898 0.059337810603881769 1:83 2:117 3:135 4:149 5:131 6:132 7:120 
0.42735202074609274 0.059451138625777944 1:13 2:26 3:42 4:998 5:62 6:24 7:25 
0.42776169484349896 0.059435150862976127 1:9 2:22 3:254 4:885 5:35 6:26 7:13 
0.42748047097320269 0.059175432638332692 1:17 2:8 3:65 4:1236 5:36 6:26 7:21 
0.42804085772274747 0.059459038392868369 1:8 2:9 3:53 4:847 5:151 6:15 7:21 
0.42751303587604922 0.059359000658260552 1:5 2:9 3:7 4:224 5:186 6:137 7:101 
0.42752794784695769 0.059382140142957507 1:11 2:9 3:49 4:292 5:163 6:120 7:108 
0.42778442973230213 0.059318472907173403 1:85 2:119 3:141 4:157 5:132 6:135 7:124 
0.42786555328034509 0.059261129621205499 1:13 2:26 3:41 4:1041 5:62 6:23 7:25 
0.42735117523789168 0.058949927909884514 1:8 2:22 3:256 4:926 5:35 6:27 7:13 
0.42745137138228556 0.059010388030076244 1:17 2:8 3:66 4:1235 5:32 6:26 7:21 
0.42787080430155777 0.059263301485778019 1:5 2:17 3:316 4:703 5:18 6:9 7:13 
0.42751302716505646 0.059013886983252939 1:5 2:9 3:7 4:257 5:179 6:136 7:104 
0.42749137974149448 0.059013886886056743 1:11 2:9 3:49 4:296 5:171 6:131 7:109 
0.42739103595044531 0.059469925843291693 1:78 2:88 3:118 4:159 5:147 6:136 7:138 
0.42740173629128758 0.059542536222140952 1:13 2:26 3:41 4:1078 5:66 6:24 7:25 
0.42735340675396227 0.059251098072795216 1:9 2:21 3:257 4:970 5:35 6:27 7:13 
0.42735805868496968 0.059286556124239886 1:16 2:8 3:51 4:1245 5:36 6:22 7:22 
0.42803810433228195 0.059361769145062193 1:6 2:16 3:399 4:627 5:17 6:10 7:15 
0.42777466323984914 0.059329854482972899 1:5 2:9 3:7 4:274 5:171 6:148 7:112 
0.42753106637359872 0.059343790873614577 1:11 2:9 3:48 4:318 5:178 6:134 7:113 
0.42716204418177572 0.059411178862777525 1:86 2:116 3:141 4:155 5:132 6:135 7:123 
0.42751964349829669 0.059498083012157754 1:13 2:26 3:42 4:1119 5:68 6:24 7:25 
0.4275986204540726 0.059391360326772447 1:8 2:22 3:271 4:1004 5:35 6:26 7:13 
0.42735497409822043 0.059283389875102677 1:14 2:8 3:61 4:1230 5:31 6:24 7:17 
0.42741459499268941 0.059273655527501634 1:5 2:10 3:322 4:700 5:17 6:10 7:12 
0.42753133709278374 0.059400022214671278 1:5 2:9 3:7 4:275 5:184 6:155 7:114 
0.4275295423734079 0.059253608240572242 1:11 2:9 3:50 4:335 5:181 6:139 7:120 
0.42278620820093477 0.058643727499237963 1:83 2:116 3:140 4:154 5:130 6:133 7:123 
0.42735340675396222 0.059263418706585635 1:13 2:26 3:42 4:1165 5:68 6:24 7:25 
0.42750599025152936 0.059294274802314417 1:9 2:22 3:288 4:1034 5:35 6:27 7:13 
0.42750786531453627 0.059293107725240435 1:11 2:8 3:48 4:1242 5:34 6:20 7:16 
0.42739014764753724 0.059308860622686976 1:6 2:10 3:393 4:630 5:20 6:13 7:13 
0.42753716907792161 0.05924905485572457 1:5 2:9 3:7 4:275 5:200 6:151 7:120 
0.26494910584878628 0.036100800313215574 1:11 2:9 3:51 4:344 5:190 6:143 7:123 
0.42736871456771303 0.059239266822579628 1:83 2:113 3:140 4:156 5:131 6:132 7:124 
0.42758192477914747 0.059196211561942158 1:13 2:26 3:41 4:1217 5:66 6:23 7:25 
0.42785214551780965 0.059202520516993595 1:8 2:22 3:309 4:1065 5:35 6:27 7:13 
0.42759659734329392 0.059234171087005794 1:15 2:8 3:66 4:1229 5:21 6:21 7:15 
0.42774594423822387 0.059287516168487431 1:8 2:6 3:28 4:793 5:209 6:11 7:14 
0.42790287048203257 0.059285427241546118 1:5 2:9 3:7 4:298 5:197 6:171 7:123 
0.26596955736456163 0.037484711759746638 1:11 2:9 3:51 4:344 5:191 6:143 7:123 
0.42266396946160256 0.058623914376371156 1:82 2:115 3:138 4:155 5:130 6:134 7:122 
0.42785211350280206 0.05926071221446888 1:13 2:26 3:42 4:1263 5:68 6:24 7:25 
0.42798652012471439 0.059158628595912199 1:9 2:22 3:317 4:1109 5:35 6:27 7:13 
0.42791532327862519 0.059220004979692431 1:15 2:7 3:61 4:1230 5:25 6:21 7:18 
0.42787406032563968 0.058762099005198409 1:4 2:13 3:314 4:699 5:19 6:11 7:11 
0.42777451894449309 0.058846653618946865 1:5 2:9 3:7 4:303 5:226 6:186 7:109 
0.40618649045640237 0.056438716939207934 1:11 2:8 3:49 4:343 5:191 6:141 7:120 
0.41925469813959243 0.058176476482809159 1:83 2:111 3:138 4:152 5:130 6:133 7:123 
0.42745879083228644 0.059353759635016212 1:13 2:26 3:41 4:1313 5:71 6:23 7:25 
0.42746183690376266 0.059356044968200516 1:9 2:22 3:320 4:1161 5:35 6:27 7:13 
0.42755942226519295 0.058765896356143599 1:12 2:9 3:60 4:1232 5:25 6:20 7:16 
0.42745319792078984 0.058767290165144592 1:8 2:8 3:318 4:701 5:16 6:8 7:12 
0.42734905275936186 0.058734720150496134 1:5 2:9 3:7 4:303 5:231 6:181 7:137 
0.42629753414646882 0.058592158567771668 1:8 2:8 3:50 4:344 5:190 6:143 7:122 
0.42733889038509471 0.059337668902048502 1:83 2:115 3:136 4:154 5:128 6:133 7:119 
0.42740949655644539 0.059287098690005424 1:13 2:26 3:41 4:1368 5:69 6:24 7:25 
0.42734836366290058 0.059256776044753712 1:9 2:22 3:325 4:1214 5:35 6:27 7:13 
0.42748404625032593 0.058777573475988276 1:13 2:8 3:51 4:1225 5:29 6:21 7:13 
0.42753716907792139 0.059407019805229611 1:9 2:12 3:356 4:648 5:11 6:8 7:9 
0.42753109585858012 0.059397338723389204 1:5 2:9 3:7 4:337 5:217 6:194 7:138 
0.39847275002261917 0.054736306537564443 1:10 2:8 3:49 4:343 5:191 6:140 7:122 
0.40819474057105537 0.056700231132910228 1:82 2:111 3:136 4:151 5:129 6:133 7:122 
0.4275291069914669 0.059471735934990055 1:13 2:26 3:42 4:1424 5:70 6:23 7:25 
0.42758314379712392 0.059378466309759403 1:9 2:22 3:338 4:1261 5:35 6:27 7:13 
0.42714670555876155 0.059478884216710548 1:15 2:4 3:61 4:1228 5:22 6:15 7:19 
0.42750528714555774 0.059344293489988653 1:5 2:6 3:32 4:786 5:204 6:11 7:11 
0.42716800105183217 0.059722295305682016 1:5 2:9 3:7 4:334 5:243 6:196 7:143 
0.4275189526763235 0.059292897590687954 1:8 2:9 3:44 4:348 5:188 6:144 7:121 
0.38261781382180116 0.052597089396590302 1:83 2:111 3:137 4:151 5:127 6:132 7:122 
0.42738239566350333 0.059656739587632401 1:13 2:26 3:42 4:1480 5:72 6:24 7:25 
0.42738174716876892 0.059305691250825576 1:9 2:22 3:355 4:1307 5:35 6:27 7:13 
0.4275472804137081 0.058824088073241576 1:8 2:6 3:37 4:1240 5:26 6:13 7:18 
0.42752758962441928 0.059280154610779956 1:9 2:5 3:24 4:791 5:208 6:6 7:11 
0.42749496706494133 0.059312367931696586 1:5 2:9 3:7 4:355 5:243 6:202 7:148 
0.42264080972727658 0.058206412549631825 1:10 2:5 3:49 4:341 5:190 6:141 7:121 
0.39586428484641661 0.054958308604898254 1:83 2:110 3:138 4:150 5:127 6:131 7:123 
0.4276054924638813 0.059375565745435344 1:13 2:26 3:42 4:1540 5:75 6:23 7:25 
0.42756504111686228 0.059376169340727092 1:9 2:22 3:368 4:1359 5:35 6:27 7:13 
0.4275363438291872 0.059138491066652699 1:5 2:6 3:56 4:1220 5:21 6:18 7:12 
0.42808800018434401 0.059169887579586689 1:5 2:11 3:390 4:621 5:17 6:9 7:11 
0.42803221070945086 0.059274114382770193 1:5 2:9 3:7 4:365 5:262 6:213 7:138 
0.42373349974439639 0.058171671643607425 1:10 2:7 3:50 4:342 5:188 6:141 7:122 
0.42741339882311236 0.059154923643406798 1:83 2:107 3:135 4:148 5:130 6:132 7:120 
0.42810757521060538 0.059270083406778029 1:13 2:26 3:42 4:1605 5:74 6:24 7:25 
0.42565560856521956 0.059135549109798125 1:9 2:22 3:376 4:1397 5:33 6:26 7:13 
0.42754135617168049 0.05934339913354475 1:10 2:8 3:59 4:1221 5:18 6:9 7:24 
0.42753751000380386 0.059351985863250523 1:3 2:5 3:38 4:840 5:143 6:12 7:11 
0.42773266363345236 0.059191196474757679 1:5 2:9 3:7 4:386 5:272 6:219 7:157 
0.42810251023629503 0.059279410408423217 1:7 2:7 3:44 4:345 5:185 6:144 7:121 
0.42739658597058539 0.059542536025983861 1:81 2:112 3:136 4:148 5:127 6:132 7:120 
0.42753068530200483 0.059059278224177614 1:13 2:26 3:41 4:1669 5:79 6:24 7:25 
0.42582634147479775 0.05863492321232644 1:9 2:21 3:375 4:1395 5:31 6:27 7:13 
0.42753109585857968 0.058877598484821159 1:12 2:4 3:33 4:1237 5:24 6:11 7:14 
0.42760734259850697 0.059343790827855569 1:5 2:3 3:30 4:786 5:204 6:6 7:13 
0.42754377250050218 0.05874036996553994 1:5 2:9 3:7 4:405 5:273 6:223 7:165 
0.4267849283357098 0.059237883557157256 1:6 2:8 3:49 4:340 5:188 6:142 7:121 
0.42775528765870641 0.059458179960462709 1:70 2:81 3:111 4:152 5:141 6:132 7:134 
0.4275289099477616 0.059343344049951952 1:13 2:26 3:42 4:1738 5:80 6:24 7:25 
0.42753245027252035 0.05907696501566928 1:8 2:20 3:376 4:1392 5:28 6:20 7:13 
0.42755741674930259 0.059366076924404376 1:7 2:4 3:42 4:1228 5:25 6:14 7:14 
0.42737926586127167 0.059001634145509463 1:4 2:4 3:311 4:699 5:14 6:6 7:6 
0.42760734292266478 0.059222373476313095 1:5 2:9 3:7 4:420 5:299 6:229 7:160 
0.4110810681357161 0.056616036137357661 1:8 2:7 3:51 4:341 5:190 6:140 7:121 
0.4261691747937324 0.059136203754580452 1:82 2:106 3:135 4:151 5:126 6:129 7:121 
0.42769005544580324 0.059256340180896816 1:13 2:23 3:42 4:1752 5:80 6:24 7:25 
0.42732928541715431 0.059231161578116587 1:9 2:18 3:368 4:1388 5:34 6:25 7:13 
0.42786555328034531 0.059262910079321052 1:10 2:6 3:49 4:1217 5:24 6:10 7:9 
0.42749137974149437 0.059523521299825577 1:4 2:8 3:258 4:750 5:16 6:8 7:9 
0.42806106758626356 0.059459361232928498 1:5 2:9 3:7 4:428 5:308 6:248 7:169 
0.42723460180880485 0.059471782256111327 1:8 2:4 3:51 4:340 5:187 6:141 7:121 
0.42754135617167854 0.05916482595069178 1:82 2:106 3:127 4:145 5:122 6:121 7:120 
0.42735179909261389 0.059448302060969738 1:13 2:24 3:38 4:1752 5:80 6:23 7:22 
0.42750739755369738 0.059505558524514446 1:5 2:10 3:24 4:1356 5:396 6:28 7:24 
0.42735568575245858 0.059338382464201256 1:8 2:4 3:220 4:1054 5:14 6:12 7:9 
0.42749350188895674 0.059465189354841297 1:6 2:4 3:22 4:788 5:206 6:9 7:6 
0.42735598881279313 0.059287254116819788 1:5 2:9 3:7 4:458 5:318 6:251 7:177 
0.41594741144390601 0.057113845072709231 1:9 2:8 3:48 4:341 5:190 6:140 7:121 
0.42627051624517098 0.059107254039712065 1:81 2:107 3:134 4:149 5:128 6:129 7:120 
0.42741250586352353 0.059363609404704643 1:14 2:21 3:39 4:1753 5:77 6:22 7:25 
0.42742846323232009 0.059290594792881957 1:5 2:13 3:22 4:1358 5:400 6:27 7:17 
0.42735393205616112 0.059316755978101876 1:10 2:4 3:41 4:1230 5:24 6:15 7:9 
0.42787591072711689 0.059287050027544363 1:4 2:5 3:22 4:790 5:203 6:8 7:11 
0.40610986325891824 0.056386033460656182 1:5 2:9 3:7 4:462 5:324 6:258 7:180 
0.41419160461236626 0.057162461557434874 1:7 2:5 3:50 4:341 5:190 6:140 7:122 
0.42753130743511236 0.05921030422968443 1:71 2:81 3:107 4:153 5:135 6:133 7:132 
0.42748967287416123 0.059253167272768081 1:20 2:21 3:38 4:1794 5:30 6:18 7:21 
0.42709083688031158 0.059210784476745104 1:6 2:17 3:369 4:1388 5:27 6:24 7:9 
0.42752779919562617 0.05922237347631315 1:10 2:5 3:385 4:893 5:15 6:8 7:7 
0.42761664379838543 0.059283754547788559 1:4 2:8 3:313 4:693 5:8 6:9 7:7 
0.40089773851257526 0.055586444815263147 1:5 2:9 3:7 4:461 5:324 6:256 7:179 
0.42759442892477378 0.059329273158653606 1:7 2:3 3:44 4:343 5:187 6:143 7:120 
0.42791365619575944 0.059185993406109139 1:68 2:80 3:104 4:151 5:140 6:131 7:130 
0.42752752300616248 0.059333468083909657 1:9 2:24 3:34 4:1751 5:69 6:20 7:22 
0.42749269735024958 0.059180620632178715 1:6 2:18 3:371 4:1388 5:25 6:21 7:9 
0.42788023782290252 0.059108518360042495 1:9 2:6 3:31 4:1223 5:22 6:20 7:13 
0.42775022865026019 0.05886087239701987 1:0 2:4 3:245 4:752 5:10 6:3 7:5 
0.42032962341709362 0.058316098064528754 1:3 2:8 3:6 4:460 5:324 6:257 7:180 
0.42739292503654835 0.059013886104293423 1:4 2:5 3:39 4:343 5:186 6:145 7:117 
0.42792679573071912 0.058743001750163171 1:72 2:82 3:110 4:153 5:139 6:128 7:135 
0.42782787417653684 0.058869944732169666 1:12 2:21 3:34 4:1749 5:73 6:17 7:20 
0.42729292152863346 0.059396981714877894 1:8 2:22 3:365 4:1386 5:19 6:19 7:7 
0.4277330602579229 0.05942283598438225 1:9 2:7 3:387 4:884 5:8 6:6 7:10 
0.42797509795144573 0.059485560233934698 1:1 2:6 3:37 4:835 5:142 6:3 7:9 
0.4274430270585578 0.059366695693284233 1:6 2:8 3:31 4:571 5:283 6:227 7:205 
0.42679444290004737 0.059243085645553695 1:6 2:7 3:46 4:340 5:189 6:141 7:122 
0.4273694356098991 0.059057704798568811 1:77 2:102 3:123 4:143 5:123 6:121 7:122 
0.42755370193319958 0.058945765864210575 1:5 2:6 3:277 4:726 5:9 6:8 7:6 
0.43885106621212261 0.059281763390809372 1:3 2:6 3:6 4:461 5:322 6:252 7:178 
0.4271677534104889 0.059352024524664482 1:3 2:7 3:37 4:345 5:182 6:147 7:115 
0.45483320601645338 0.058463214943696162 1:4 2:7 3:6 4:461 5:322 6:256 7:178 
0.42768881079856019 0.059343771613221519 1:2 2:1 3:44 4:349 5:185 6:142 7:118 
0.42749497577950968 0.058746687857400226 1:7 2:8 3:19 4:123 5:21 6:11 7:8 
0.42756777805677532 0.059317513396461019 1:39 2:55 3:51 4:73 5:47 6:39 7:44 
0.42735311482627458 0.059108518360042495 1:6 2:10 3:35 4:64 5:51 6:27 7:36 
0.40978556000580718 0.056128975028986894 1:0 2:1 3:0 4:180 5:4 6:3 7:1 
0.41892579045673339 0.057991693139478162 1:0 2:0 3:4 4:250 5:2 6:1 7:1 
0.42739465523472647 0.058770376335116503 1:0 2:3 3:15 4:180 5:2 6:7 7:6 
0.42752363242723262 0.05924841491417665 1:0 2:1 3:2 4:197 5:4 6:3 7:6 
0.42758088429761665 0.059360400164914173 1:7 2:5 3:12 4:198 5:7 6:3 7:5 
0.42629131626029759 0.059194304814752408 1:0 2:0 3:0 4:238 5:2 6:4 7:5 
0.23594367661081805 0.022591651919485811 1:0 2:0 3:1 4:249 5:1 6:2 7:1 
0.40485842882381479 0.05620341196453027 1:0 2:0 3:2 4:258 5:1 6:4 7:2 
0.40111571066410934 0.054498347437583861 1:0 2:2 3:2 4:272 5:1 6:2 7:4 
0.41497161493214851 0.057375085497383738 1:0 2:0 3:0 4:271 5:3 6:7 7:3 
0.047277675124110102 0 1:0 2:0 3:0 4:184 5:1 6:0 7:0 
0.42752764007029703 0.059375552567260126 1:1 2:0 3:3 4:232 5:9 6:9 7:7 
0.42744900952217185 0.059246128192131986 1:0 2:1 3:1 4:212 5:5 6:2 7:2 
0.42753138441567567 0.059443719976778664 1:0 2:0 3:0 4:222 5:1 6:6 7:4 
0.42646545263308361 0.05859129598605689 1:0 2:0 3:0 4:280 5:2 6:2 7:0 
0.42737911717529997 0.059323973638187477 1:1 2:4 3:1 4:232 5:4 6:0 7:1 
0.42781305768926015 0.05927808796193379 1:0 2:0 3:2 4:240 5:2 6:2 7:0 
0.42737027011261997 0.059226312844183893 1:7 2:8 3:19 4:132 5:21 6:11 7:8 
0.42740934604626729 0.059220604212340211 1:17 2:13 3:36 4:67 5:55 6:60 7:57 
0.42749126681067245 0.059289678537151169 1:6 2:10 3:32 4:73 5:52 6:27 7:36 
0.24378982848928171 0.031879037370922902 1:0 2:0 3:0 4:194 5:2 6:1 7:3 
0.39098931260041675 0.05493034072190206 1:0 2:1 3:0 4:181 5:2 6:4 7:2 
0.42628921294817429 0.059013886398023796 1:0 2:0 3:3 4:279 5:2 6:1 7:1 
0.42735212671246436 0.059302282335528589 1:0 2:3 3:13 4:202 5:2 6:7 7:6 
0.42757025659973036 0.059113015615519682 1:0 2:1 3:2 4:218 5:4 6:3 7:6 
0.42749556527934063 0.059219861389717077 1:3 2:4 3:11 4:196 5:6 6:3 7:4 
0.42727490206051089 0.059317895179309243 1:0 2:0 3:0 4:263 5:2 6:4 7:5 
1 0 1:0 2:0 3:1 4:270 5:1 6:2 7:1 
0.35905584339920577 0.050124630597311037 1:0 2:0 3:1 4:256 5:1 6:2 7:2 
0.34426183416374107 0.047888710195421097 1:0 2:2 3:2 4:301 5:1 6:2 7:4 
0.39272750645604537 0.053904372431758829 1:0 2:0 3:0 4:297 5:3 6:7 7:3 
0.42747979290850985 0.059289058708634046 1:1 2:0 3:3 4:257 5:9 6:9 7:7 
0.4273703886474825 0.059375449221086452 1:0 2:1 3:1 4:236 5:5 6:2 7:2 
0.42753051031380895 0.059158624872831966 1:0 2:0 3:0 4:245 5:1 6:6 7:4 
0.18471325429085067 0 1:0 2:0 3:0 4:310 5:2 6:2 7:0 
0.42756255664581577 0.059437309442168407 1:1 2:4 3:1 4:257 5:4 6:0 7:1 
0.38586510133856144 0.00570755931942174 1:0 2:0 3:2 4:266 5:2 6:2 7:0 
0.42750879534961567 0.059356044968200516 1:7 2:8 3:19 4:142 5:21 6:11 7:8 
0.42754148360668226 0.059674377957930014 1:46 2:65 3:48 4:76 5:51 6:48 7:61 
0.42790997516195306 0.059326629399943598 1:6 2:10 3:38 4:76 5:49 6:27 7:36 
0.24967231616582267 0.020300733939759841 1:0 2:0 3:2 4:193 5:1 6:2 7:0 
0.31698392188516489 0.042898700518580801 1:0 2:0 3:1 4:185 5:2 6:3 7:1 
0.42025297051841098 0.058312053277069398 1:0 2:0 3:4 4:306 5:2 6:1 7:1 
0.42717178372216225 0.059478884216719374 1:0 2:3 3:14 4:221 5:2 6:7 7:6 
0.42629837832154532 0.058959005311016055 1:0 2:1 3:2 4:239 5:4 6:3 7:6 
0.42736598397868392 0.059317036489416108 1:5 2:2 3:10 4:194 5:7 6:1 7:3 
0.42635541601559918 0.059108323570750188 1:0 2:0 3:0 4:289 5:2 6:4 7:5 
0.42770148788438084 0 1:0 2:0 3:1 4:269 5:1 6:2 7:1 
0.38206930729717092 0.05259688919405614 1:0 2:1 3:2 4:254 5:1 6:2 7:0 
0.27623028825158552 0.03869886148053403 1:0 2:2 3:2 4:321 5:1 6:2 7:4 
0.39214888484540278 0.054281087346278678 1:0 2:0 3:1 4:293 5:6 6:4 7:5 
0.42752743566808898 0.05941523530036108 1:1 2:0 3:3 4:283 5:9 6:9 7:7 
0.42753975384271253 0.05921196498914677 1:0 2:1 3:1 4:260 5:5 6:2 7:2 
0.41510604126686801 0.057661348115007949 1:0 2:0 3:0 4:270 5:1 6:6 7:4 
0.36766398029708364 0.031744655727398985 1:0 2:0 3:0 4:341 5:2 6:2 7:0 
0.42750814663265657 0.059231517042206749 1:1 2:4 3:1 4:282 5:4 6:0 7:1 
0.53981935306620277 0.052747629547897856 1:0 2:0 3:2 4:293 5:2 6:2 7:0 
0.42753021670670216 0.059222983587020606 1:7 2:8 3:19 4:152 5:21 6:11 7:8 
0.42759942261589795 0.059307385953788927 1:41 2:64 3:54 4:71 5:59 6:57 7:66 
0.42735789739267738 0.059406890020859526 1:6 2:10 3:42 4:75 5:52 6:27 7:36 
0.26082182117630826 0.032845588369938394 1:0 2:0 3:2 4:195 5:0 6:2 7:1 
0.44290196679912197 0.039789759169341687 1:0 2:0 3:1 4:181 5:1 6:4 7:0 
0.42223623121136933 0.058181073363103186 1:0 2:0 3:4 4:335 5:2 6:1 7:1 
0.42754049748347112 0.058787124576100358 1:0 2:3 3:15 4:241 5:2 6:7 7:6 
0.42727181583119928 0.059273292672242295 1:0 2:1 3:2 4:261 5:4 6:3 7:6 
0.42725784975362313 0.059013886426857232 1:5 2:4 3:5 4:192 5:4 6:2 7:4 
0.42720174454536586 0.059106912176823845 1:0 2:0 3:0 4:316 5:2 6:4 7:5 
1 0 1:0 2:0 3:1 4:269 5:1 6:2 7:1 
0.37415506047868147 0.051857200441140672 1:0 2:0 3:1 4:256 5:1 6:4 7:1 
0.24747339083910716 0.033772275949670305 1:0 2:2 3:2 4:320 5:1 6:2 7:4 
0.39051990535817355 0.054395947280252932 1:0 2:0 3:0 4:297 5:3 6:5 7:2 
0.42760414759036708 0.058746659464087247 1:1 2:0 3:3 4:309 5:9 6:9 7:7 
0.42739042253210346 0.059326016412322824 1:0 2:1 3:1 4:284 5:5 6:2 7:2 
0.41692250190770441 0.057874885510885321 1:0 2:0 3:0 4:295 5:1 6:6 7:4 
0.41241039853758982 0.05337550913721445 1:0 2:0 3:0 4:358 5:2 6:2 7:0 
0.42716514380342874 0.059255832931581987 1:1 2:4 3:1 4:309 5:4 6:0 7:1 
0.067976612294183072 0 1:0 2:0 3:2 4:311 5:2 6:2 7:0 
0.42803221070945091 0.058915365076793791 1:7 2:8 3:19 4:162 5:21 6:11 7:8 
0.42758972655691713 0.059352029201765522 1:48 2:70 3:55 4:74 5:60 6:60 7:67 
0.42745958802071066 0.059443718553716218 1:6 2:10 3:42 4:76 5:58 6:27 7:36 
0.17409520742498161 0 1:0 2:0 3:1 4:182 5:2 6:1 7:1 
0.21733605820411797 0.030391098658186788 1:0 2:0 3:4 4:346 5:2 6:1 7:0 
0.42737770789250523 0.059251213491349874 1:0 2:3 3:17 4:260 5:2 6:7 7:6 
0.42751070029891319 0.059256053489825822 1:0 2:1 3:2 4:283 5:4 6:3 7:6 
0.42753301372359992 0.059482315240196593 1:4 2:4 3:8 4:188 5:4 6:3 7:5 
0.26712286858225071 0.037468065189429682 1:0 2:0 3:0 4:343 5:2 6:4 7:5 
1 0.8771916554593574 1:0 2:0 3:1 4:268 5:0 6:2 7:1 
0.31250313918821881 0.043808531822903951 1:0 2:1 3:2 4:252 5:2 6:3 7:0 
0.41563002064833859 0.057180073103546947 1:0 2:2 3:2 4:318 5:0 6:1 7:3 
0.33884612243137374 0.047691165967484739 1:0 2:0 3:0 4:293 5:3 6:4 7:1 
0.42746708950529133 0.059332620103234646 1:1 2:0 3:3 4:336 5:9 6:9 7:7 
0.41605367082117711 0.057930816750675462 1:0 2:1 3:1 4:309 5:5 6:2 7:2 
0.42761249746555502 0.059327055693905006 1:0 2:0 3:0 4:320 5:1 6:6 7:4 
0.42745074611293521 0.059437864641194715 1:1 2:4 3:1 4:335 5:4 6:0 7:1 
0.42764047480818823 0.059273765658623301 1:7 2:8 3:19 4:172 5:21 6:11 7:8 
0.4274353655829477 0.059280727751625295 1:54 2:67 3:61 4:84 5:63 6:59 7:70 
0.42750345985515326 0.059191195071186919 1:6 2:10 3:42 4:82 5:58 6:27 7:36 
0.27218331557312242 0.028622665408768625 1:0 2:0 3:4 4:345 5:2 6:1 7:1 
0.38382420770064535 0.053033864577914647 1:0 2:3 3:17 4:267 5:2 6:7 7:6 
0.27786354207068215 0.039019214498562271 1:0 2:1 3:2 4:304 5:4 6:3 7:6 
0.42687519834761128 0.05865370072166487 1:4 2:5 3:4 4:188 5:5 6:3 7:3 
0.22869234594488055 0.031173903391716891 1:0 2:0 3:0 4:343 5:2 6:4 7:4 
0.39185788179124875 0.054094359190047514 1:0 2:1 3:2 4:250 5:0 6:4 7:0 
0.34601267480306214 0.047972871920946847 1:0 2:0 3:1 4:310 5:10 6:1 7:2 
0.26104503360235332 0.034329871049202029 1:0 2:0 3:0 4:293 5:1 6:5 7:2 
0.42751302716505646 0.05918284313372485 1:1 2:0 3:3 4:363 5:9 6:9 7:7 
0.42568848059862774 0.058787715324483902 1:0 2:1 3:1 4:335 5:5 6:2 7:2 
0.42717420511245002 0.058949926517497586 1:0 2:0 3:0 4:346 5:1 6:6 7:4 
0.40422131545109552 0 1:0 2:0 3:2 4:311 5:2 6:1 7:0 
0.42749272761378354 0.059149311624939138 1:7 2:8 3:19 4:183 5:21 6:11 7:8 
0.42754540454575596 0.05917072015730479 1:49 2:82 3:58 4:91 5:74 6:59 7:72 
0.42749600361209783 0.059157312126643602 1:6 2:10 3:42 4:83 5:64 6:27 7:36 
0.31159315970345391 0.043521827324445539 1:0 2:0 3:1 4:185 5:2 6:4 7:0 
0.13798530735044867 0.014379281908573028 1:0 2:0 3:3 4:346 5:2 6:1 7:0 
0.39523009812645954 0.054833196468139556 1:0 2:2 3:17 4:269 5:2 6:7 7:6 
0.42798052609635184 0.059391327196468779 1:0 2:1 3:4 4:302 5:1 6:7 7:1 
0.42456353224871962 0.058621210674047741 1:3 2:5 3:5 4:185 5:1 6:1 7:1 
0.39703353494954613 0.055157104855701133 1:0 2:0 3:1 4:339 5:3 6:4 7:3 
0.62722003814832938 1 1:0 2:0 3:1 4:268 5:1 6:1 7:1 
0.1727200010745939 0.023543584665639883 1:0 2:1 3:1 4:252 5:1 6:3 7:0 
0.27863166374398596 0.039146543742629492 1:0 2:0 3:1 4:310 5:11 6:0 7:1 
0.39141954268369228 0.054242387835307049 1:0 2:0 3:1 4:293 5:4 6:4 7:6 
0.42715801520447544 0.059225225851983088 1:1 2:0 3:3 4:391 5:9 6:9 7:7 
0.42234426592669994 0.058587797711012579 1:0 2:1 3:1 4:361 5:5 6:2 7:2 
0.4275003213514294 0.059234171087295506 1:0 2:0 3:0 4:373 5:1 6:6 7:4 
0.36758379401732305 0.051527899606153428 1:1 2:4 3:1 4:363 5:4 6:0 7:1 
1 0.76904383086073869 1:0 2:0 3:1 4:310 5:1 6:1 7:0 
0.42759793481494784 0.059343474568623822 1:7 2:8 3:19 4:193 5:21 6:11 7:8 
0.42752716891015663 0.059308789559678332 1:54 2:88 3:83 4:88 5:62 6:57 7:77 
0.42738644342603826 0.059249180207579244 1:6 2:10 3:45 4:84 5:67 6:27 7:36 
0.20682871235182765 0.0073096761137670385 1:0 2:0 3:2 4:193 5:0 6:2 7:1 
0.061068378590514519 0.027228415304379638 1:0 2:0 3:3 4:345 5:2 6:0 7:0 
0.4141032773528891 0.057483191098071207 1:0 2:3 3:15 4:265 5:2 6:6 7:6 
0.27773805951761749 0.037944878830994178 1:0 2:1 3:1 4:303 5:4 6:3 7:6 
0.42728020809595846 0.059308942357153394 1:5 2:2 3:6 4:194 5:5 6:1 7:2 
0.4069437141427284 0.056524379373370515 1:0 2:0 3:0 4:340 5:1 6:4 7:4 
0.19109935649817575 0 1:0 2:0 3:0 4:269 5:1 6:1 7:1 
0.35625791897060738 0.048821103927991716 1:0 2:0 3:0 4:254 5:0 6:2 7:1 
0.315529101822216 0.043094592896908368 1:0 2:0 3:1 4:309 5:12 6:1 7:1 
0.38994803691884355 0.054194048759259983 1:0 2:0 3:1 4:292 5:2 6:2 7:5 
0.42748314656498881 0.059376169340726981 1:1 2:0 3:3 4:420 5:9 6:9 7:7 
0.42755425693460736 0.058860048841218926 1:0 2:1 3:1 4:388 5:5 6:2 7:2 
0.42759714917644986 0.05952256676325296 1:0 2:0 3:0 4:400 5:1 6:6 7:4 
1 0.15802674615130602 1:1 2:0 3:0 4:354 5:1 6:0 7:0 
0.17328864789460008 0.024099539632553093 1:1 2:4 3:1 4:361 5:3 6:0 7:1 
0.42760214873750929 0.059464898945324474 1:7 2:8 3:19 4:205 5:21 6:11 7:8 
0.42759034330680495 0.059373278811707231 1:64 2:81 3:73 4:93 5:69 6:66 7:84 
0.4278131393513559 0.05939636403209142 1:6 2:10 3:48 4:93 5:63 6:27 7:36 
0.33511958187205954 0 1:0 2:0 3:0 4:194 5:0 6:3 7:1 
0.0099094889478316545 0 1:0 2:1 3:0 4:180 5:2 6:2 7:0 
1 0.08604225803977672 1:0 2:0 3:0 4:349 5:1 6:1 7:0 
0.41357402672831706 0.057079113624728672 1:0 2:3 3:16 4:268 5:1 6:7 7:3 
0.34961060362173457 0.048039515151422962 1:0 2:1 3:2 4:303 5:3 6:2 7:5 
0.42743751512403322 0.059464880029555023 1:4 2:7 3:3 4:183 5:4 6:0 7:0 
0.3931204433707593 0.05356549793941745 1:0 2:0 3:0 4:343 5:1 6:2 7:4 
0.36249897406546921 0.64023958858717167 1:0 2:0 3:0 4:268 5:1 6:0 7:1 
0.24704623313563012 0.03411953923512312 1:0 2:1 3:0 4:252 5:0 6:2 7:0 
0.33050357810436354 0.045631934456541845 1:0 2:0 3:1 4:309 5:7 6:1 7:1 
0.42315530523977413 0.058202762184376089 1:0 2:0 3:1 4:295 5:5 6:3 7:3 
0.22177853498999717 0 1:0 2:0 3:0 4:183 5:0 6:1 7:0 
0.42778318394163078 0.05894992786878811 1:1 2:0 3:3 4:450 5:9 6:9 7:7 
0.42782882209700102 0.059013886689522566 1:0 2:1 3:1 4:416 5:5 6:2 7:2 
0.42779877569785418 0.059287516168513299 1:0 2:0 3:0 4:428 5:1 6:6 7:4 
0.36856300969150491 0 1:1 2:0 3:0 4:352 5:1 6:1 7:0 
0.40128425882958951 0.05561571501544138 1:1 2:2 3:2 4:360 5:4 6:0 7:2 
0.42794592876419851 0.059316641987696928 1:7 2:8 3:19 4:216 5:21 6:11 7:8 
0.42800893874149798 0.059363139313075131 1:62 2:96 3:85 4:97 5:68 6:66 7:81 
0.42754843269393045 0.059287098615709743 1:6 2:10 3:47 4:99 5:65 6:27 7:36 
0.27399987841115198 0.036933622986779657 1:0 2:0 3:0 4:195 5:2 6:0 7:3 
0.39019304448346981 0.026648852261054734 1:0 2:0 3:1 4:182 5:1 6:2 7:2 
0.60646190019207247 0 1:0 2:0 3:0 4:349 5:2 6:0 7:1 
0.39723391846924316 0.055122693626672215 1:0 2:2 3:16 4:266 5:1 6:6 7:4 
0.38727658329152603 0.053185758512482251 1:0 2:1 3:2 4:299 5:2 6:3 7:5 
0.42675934207003274 0.059272182458825873 1:4 2:3 3:4 4:187 5:3 6:3 7:1 
0.30221042930182074 0.041943722179606568 1:0 2:0 3:0 4:338 5:2 6:2 7:3 
1 0 1:0 2:0 3:1 4:265 5:0 6:1 7:0 
0.31965973610755488 0.047946459697021659 1:0 2:0 3:1 4:251 5:2 6:0 7:0 
0.41710668833073988 0.057806152171985203 1:0 2:2 3:1 4:315 5:1 6:1 7:5 
0.25677377986080152 0.035176531359391305 1:0 2:0 3:0 4:295 5:1 6:4 7:2 
0.22609326660957949 0 1:0 2:0 3:0 4:185 5:0 6:0 7:0 
0.42752910690000484 0.059504011927597023 1:1 2:0 3:3 4:480 5:9 6:9 7:7 
0.42793597494361724 0.05930038766926049 1:0 2:1 3:1 4:444 5:5 6:2 7:2 
0.2284996582323858 0.03220414710732155 1:0 2:0 3:0 4:450 5:1 6:6 7:4 
0.40713592492209244 0.025539985679275044 1:0 2:0 3:0 4:356 5:1 6:1 7:0 
0.2704322891697552 0.037967646694369417 1:1 2:4 3:0 4:361 5:3 6:0 7:1 
0.66446228843058375 0.14703012160899726 1:0 2:0 3:2 4:309 5:2 6:0 7:0 
0.42738027648244703 0.059458228806964997 1:7 2:8 3:19 4:228 5:21 6:11 7:8 
0.4273483381279029 0.059266874117550161 1:61 2:97 3:91 4:100 5:66 6:80 7:83 
0.42752954237311247 0.059317923305132969 1:6 2:10 3:53 4:97 5:69 6:27 7:36 
0.98475112126493292 0 1:0 2:0 3:1 4:182 5:1 6:0 7:0 
0.83374882112015558 0.34321143992815201 1:0 2:0 3:1 4:348 5:1 6:1 7:1 
0.42669669778431568 0.058988817628293111 1:0 2:2 3:15 4:263 5:1 6:7 7:3 
0.29119451877097463 0.040380526872647982 1:0 2:1 3:2 4:300 5:1 6:2 7:3 
0.42766748034574587 0.059272240652205377 1:1 2:1 3:5 4:181 5:9 6:1 7:1 
0.397290691061777 0.055055954582779953 1:0 2:0 3:1 4:255 5:0 6:0 7:2 
0.23677285302936943 0.034702389961757452 1:0 2:1 3:1 4:316 5:1 6:1 7:1 
0.19882748998695512 0.034459461979982023 1:0 2:0 3:0 4:292 5:1 6:5 7:1 
0.4275292485162191 0.059308755995558016 1:1 2:0 3:3 4:511 5:9 6:9 7:7 
0.42740591695827901 0.059320500116483266 1:0 2:1 3:1 4:473 5:5 6:2 7:2 
0.25739477602009198 0.035389205334211256 1:0 2:0 3:0 4:451 5:1 6:6 7:4 
1 1 1:0 2:0 3:0 4:354 5:0 6:0 7:0 
0.037637494429242135 0.0048069303504118532 1:1 2:4 3:1 4:362 5:3 6:0 7:1 
0.076873475127730337 0 1:0 2:0 3:1 4:308 5:1 6:2 7:0 
0.42760780496716588 0.059205435260964223 1:7 2:8 3:19 4:239 5:21 6:11 7:8 
0.42736598679398047 0.05929019583638756 1:60 2:100 3:88 4:105 5:79 6:78 7:99 
0.42714449299369522 0.059208052415168244 1:6 2:10 3:49 4:103 5:74 6:27 7:36 
0.54751823943905353 0 1:0 2:0 3:0 4:195 5:2 6:0 7:0 
0.42044870049327282 0.058268620378718161 1:0 2:2 3:17 4:266 5:1 6:4 7:6 
0.42725423680360963 0.05925529948585273 1:0 2:1 3:4 4:300 5:0 6:2 7:0 
0.42509978884763294 0.059004175439750117 1:3 2:1 3:3 4:182 5:5 6:3 7:1 
0.34736523188774671 0.047610485237912281 1:0 2:0 3:0 4:342 5:2 6:3 7:1 
0.28483558594698183 0.041756820728938396 1:0 2:0 3:0 4:314 5:0 6:2 7:2 
0.42321017178883114 0.058677721375457015 1:0 2:0 3:1 4:290 5:4 6:5 7:1 
0.28107153688285597 0.046957312532672768 1:0 2:0 3:0 4:186 5:0 6:1 7:0 
0.35883328227575395 0.0498490606041165 1:1 2:0 3:3 4:518 5:9 6:9 7:6 
0.42779562431621249 0.059309510569394708 1:0 2:1 3:1 4:503 5:5 6:2 7:2 
0.33971923764590239 0.04687877343540009 1:0 2:0 3:0 4:448 5:1 6:3 7:4 
0.56924918153540915 0.042655149661220026 1:0 2:0 3:0 4:353 5:2 6:1 7:0 
0.3604862109675675 0.049976215617186126 1:1 2:2 3:1 4:362 5:3 6:0 7:1 
0.44286715110390873 0 1:0 2:0 3:1 4:309 5:1 6:2 7:0 
0.42747634442827859 0.058786079010303638 1:7 2:8 3:19 4:252 5:21 6:11 7:8 
0.42752828591762765 0.058734169349388687 1:17 2:13 3:78 4:103 5:84 6:101 7:84 
0.4275472549445552 0.059308828468669694 1:6 2:10 3:57 4:101 5:76 6:27 7:36 
0.97425723246891693 0 1:0 2:0 3:0 4:195 5:0 6:0 7:0 
0.48226906294209954 0.041306308608201725 1:0 2:1 3:0 4:181 5:3 6:1 7:2 
0.13600284060420631 0.00318209621392526 1:0 2:0 3:1 4:346 5:0 6:1 7:1 
0.41210066867728684 0.057029656310446764 1:0 2:1 3:1 4:277 5:4 6:1 7:4 
0.36702726310141165 0.05087514945587851 1:0 2:1 3:2 4:297 5:3 6:1 7:2 
0.4248858009895356 0.058763235435174255 1:1 2:3 3:4 4:185 5:1 6:2 7:1 
0.27616925404118148 0.038190398299609074 1:0 2:0 3:1 4:338 5:1 6:3 7:2 
1 0 1:0 2:0 3:0 4:269 5:1 6:1 7:0 
0.2319941584421325 0.033185731889866288 1:0 2:0 3:0 4:252 5:0 6:1 7:1 
0.32525989213797113 0.044952473932002121 1:0 2:1 3:1 4:315 5:0 6:2 7:3 
0.55736070565332985 0.028796731951763854 1:0 2:0 3:0 4:291 5:0 6:3 7:1 
1 0 1:0 2:0 3:0 4:182 5:0 6:1 7:0 
0.32374081181669578 0.044875771188454538 1:0 2:1 3:1 4:517 5:8 6:9 7:6 
0.31311535465980289 0.045013634606213271 1:0 2:1 3:1 4:534 5:5 6:2 7:2 
0.18511241830956421 0.025293142557647908 1:0 2:0 3:0 4:451 5:1 6:5 7:2 
0.98064328064207062 0.17061482877221651 1:0 2:0 3:1 4:353 5:0 6:2 7:1 
0.42484469372794992 0.05889553312137652 1:0 2:0 3:0 4:362 5:1 6:1 7:1 
0.12513815127792979 0.0009774297459281267 1:0 2:0 3:2 4:307 5:2 6:1 7:0 
0.42754044794327706 0.059319047014575244 1:7 2:8 3:19 4:264 5:21 6:11 7:8 
0.42751302716505629 0.059258342986647672 1:107 2:90 3:77 4:107 5:28 6:21 7:4 
0.42735089241206009 0.058771991439183879 1:6 2:10 3:56 4:108 5:78 6:27 7:36 
0.79287611005870051 0 1:0 2:0 3:0 4:193 5:1 6:1 7:1 
0.33345350814251706 0 1:0 2:1 3:0 4:181 5:1 6:2 7:0 
0.3010280687635844 0.014397087869784386 1:0 2:0 3:1 4:345 5:2 6:1 7:0 
0.41614698687655999 0.057367563251780607 1:0 2:1 3:1 4:273 5:2 6:2 7:6 
0.39116539740425332 0.050120733331657653 1:0 2:0 3:0 4:298 5:0 6:1 7:1 
0.42759621622520788 0.05925110332021255 1:3 2:4 3:13 4:175 5:1 6:1 7:1 
0.30935638649176184 0.041799142309582926 1:0 2:0 3:1 4:335 5:1 6:3 7:3 
0.16480089926112509 0.026866406044578121 1:0 2:0 3:1 4:251 5:0 6:2 7:0 
0.39246548482935628 0.052952763336960418 1:1 2:2 3:0 4:316 5:1 6:1 7:0 
0.3364468214001235 0.044971918745859762 1:0 2:0 3:1 4:292 5:1 6:2 7:3 
0.74422989015564234 0 1:0 2:0 3:0 4:183 5:0 6:0 7:0 
0.21811421465356381 0.030361675105732011 1:1 2:0 3:2 4:517 5:8 6:9 7:6 
0.25191554185065562 0.034808419421852706 1:0 2:1 3:1 4:536 5:5 6:2 7:2 
0.1817974803892311 0.025332649196983636 1:0 2:0 3:0 4:450 5:1 6:4 7:3 
0.34203478917528807 0.048507034075703226 1:1 2:0 3:2 4:356 5:3 6:0 7:2 
0.81448705377621611 0.00061489512769669075 1:0 2:0 3:1 4:307 5:2 6:0 7:0 
0.42753216143287914 0.059392043573578746 1:7 2:8 3:19 4:277 5:21 6:11 7:8 
0.42756375708759509 0.059448939832904169 1:84 2:98 3:99 4:127 5:86 6:96 7:106 
0.42762511626555599 0.058949926476401182 1:5 2:9 3:51 4:98 5:76 6:23 7:29 
1 0 1:0 2:0 3:1 4:180 5:1 6:1 7:1 
0.23926140878767382 0 1:0 2:0 3:2 4:343 5:1 6:0 7:1 
0.42589694209746259 0.05910773046954948 1:0 2:2 3:15 4:260 5:1 6:5 7:1 
0.27316619649775631 0.037894049837911233 1:0 2:1 3:1 4:298 5:2 6:1 7:3 
0.42748903938646143 0.05936848978686543 1:4 2:0 3:6 4:184 5:2 6:2 7:3 
0.52764350750903466 0.034140130955500614 1:0 2:0 3:1 4:335 5:2 6:1 7:1 
0.22083133358154758 0.029319264939533463 1:0 2:1 3:2 4:251 5:1 6:1 7:0 
0.23166383192398421 0.036668512071975301 1:0 2:0 3:1 4:316 5:0 6:1 7:2 
0.13010720523934172 0.021628267581457972 1:0 2:0 3:1 4:290 5:2 6:2 7:2 
0.96494293322061142 0 1:0 2:0 3:0 4:185 5:0 6:0 7:0 
0.27966376835971862 0.03871021940863989 1:1 2:0 3:3 4:518 5:7 6:7 7:6 
0.060237614198122812 0.0082747930489937005 1:0 2:1 3:1 4:535 5:4 6:1 7:2 
0.19184065004814205 0.041984412977925878 1:0 2:0 3:1 4:443 5:1 6:4 7:3 
0.38240247372960096 0 1:0 2:0 3:0 4:354 5:1 6:1 7:0 
0.20851368101151493 0.029262417539481986 1:0 2:3 3:4 4:358 5:2 6:1 7:0 
0.42801268370771778 0.059485560233934753 1:7 2:8 3:19 4:290 5:21 6:11 7:8 
0.42810651069624944 0.059201366292773672 1:79 2:110 3:97 4:129 5:102 6:91 7:114 
0.42738542210371455 0.059340499503924893 1:5 2:8 3:47 4:94 5:79 6:23 7:25 
1 0 1:0 2:1 3:0 4:181 5:3 6:1 7:0 
0.019563950341123355 0.015162089428554541 1:0 2:0 3:3 4:345 5:2 6:1 7:1 
0.42703959362793198 0.059151233471175901 1:0 2:0 3:14 4:260 5:1 6:2 7:5 
0.28064783814641264 0.038924715614990772 1:0 2:1 3:2 4:299 5:2 6:1 7:4 
0.4257149891468236 0.058488359974379567 1:3 2:3 3:4 4:184 5:5 6:1 7:1 
0.34338639881611288 0.047286211524382282 1:0 2:0 3:0 4:338 5:0 6:1 7:4 
0.43123126973334935 0.036794281281323414 1:0 2:1 3:0 4:267 5:0 6:0 7:0 
0.1899523886914416 0.028964604821026585 1:0 2:1 3:2 4:250 5:1 6:2 7:0 
0.5123513391701584 0.045337368317546645 1:0 2:0 3:1 4:314 5:1 6:2 7:0 
0.76390709037887772 0.077431783671619653 1:0 2:0 3:0 4:293 5:1 6:0 7:1 
1 1 1:0 2:0 3:0 4:182 5:0 6:0 7:0 
0.36943887909777762 0.051362675091361665 1:0 2:1 3:1 4:515 5:7 6:9 7:6 
0.20909726449478055 0.032519509072174102 1:0 2:1 3:0 4:536 5:4 6:1 7:2 
1 0 1:0 2:0 3:0 4:354 5:1 6:1 7:0 
0.386938312740015 0.054488394184034894 1:1 2:1 3:1 4:357 5:4 6:0 7:0 
0.42760198305333474 0.059322488030024101 1:7 2:8 3:19 4:304 5:21 6:11 7:8 
0.42766865981610219 0.059376134555377991 1:126 2:102 3:92 4:128 5:30 6:21 7:4 
0.42778586938835289 0.059163535485367458 1:3 2:9 3:55 4:100 5:74 6:25 7:31 
1 1 1:0 2:0 3:1 4:181 5:0 6:0 7:0 
0.41485035742498483 0.057609658960363075 1:0 2:1 3:0 4:277 5:3 6:2 7:6 
0.26323877235441034 0.036546403445771647 1:0 2:1 3:2 4:297 5:1 6:4 7:0 
0.41945723789818096 0.058219744054289091 1:1 2:1 3:4 4:181 5:4 6:1 7:1 
0.17073300288376142 0.023379736244150295 1:0 2:0 3:0 4:339 5:1 6:1 7:3 
1 0 1:0 2:0 3:1 4:265 5:0 6:0 7:0 
0.022704395273472882 0.01301542846366879 1:0 2:1 3:0 4:250 5:1 6:0 7:0 
0.027311531738259724 0.009731754388523528 1:0 2:0 3:1 4:313 5:0 6:0 7:2 
0.35423995097625066 0.049804710736514483 1:0 2:0 3:1 4:292 5:3 6:4 7:3 
1 1 1:0 2:0 3:0 4:182 5:1 6:0 7:0 
0.33076249634202709 0.045873289829526875 1:1 2:0 3:1 4:516 5:7 6:8 7:5 
0.52651096525237573 0.057967245469632833 1:0 2:1 3:3 4:535 5:2 6:0 7:3 
0.21637009803210805 0.030150233282360949 1:0 2:0 3:0 4:451 5:1 6:4 7:2 
0.25890952380284221 0.035456908438444637 1:0 2:2 3:4 4:358 5:2 6:1 7:1 
1 0.36779487623340879 1:0 2:0 3:1 4:305 5:0 6:0 7:0 
0.42775615948569168 0.059283389877244907 1:7 2:8 3:19 4:318 5:21 6:11 7:8 
0.42733375768896609 0.059452268763139693 1:130 2:98 3:95 4:143 5:32 6:21 7:4 
0.42754725496150453 0.059351883848120845 1:3 2:8 3:48 4:93 5:71 6:23 7:28 
1 0 1:0 2:0 3:0 4:193 5:0 6:1 7:0 
0.56470885573402141 0 1:0 2:1 3:0 4:180 5:2 6:1 7:0 
0.45839655488362641 0.47039697372574313 1:0 2:0 3:3 4:342 5:0 6:0 7:0 
0.30483589627653984 0.039617599286786431 1:0 2:0 3:2 4:272 5:3 6:1 7:3 
0.16190240453027349 0.022458689995718154 1:0 2:1 3:2 4:297 5:0 6:4 7:0 
0.42752306575085885 0.059351973310064587 1:1 2:5 3:4 4:181 5:1 6:1 7:3 
0.16892069953916544 0.024954360617533866 1:0 2:0 3:1 4:338 5:1 6:2 7:1 
0.0099925301480507933 0 1:0 2:0 3:1 4:266 5:1 6:2 7:1 
0.17276069402684308 0.028546833732581076 1:0 2:0 3:0 4:250 5:0 6:0 7:1 
0.4007641350431691 0.055571100513455429 1:0 2:0 3:1 4:307 5:12 6:1 7:0 
0.24219674983391248 0.029828041277588653 1:0 2:0 3:0 4:292 5:2 6:3 7:2 
1 0 1:0 2:0 3:0 4:183 5:0 6:0 7:0 
0.28257299995477758 0.039329864649595869 1:1 2:0 3:3 4:517 5:8 6:7 7:5 
0.093779992566832338 0.0098191545356708619 1:0 2:1 3:1 4:536 5:4 6:2 7:2 
0.023092797969444523 0.011903684794022262 1:0 2:0 3:0 4:446 5:1 6:2 7:2 
0.67826374643120535 0.12515339392365782 1:0 2:0 3:0 4:352 5:0 6:2 7:0 
0.27028636829207792 0.033989034441006871 1:0 2:0 3:2 4:357 5:2 6:0 7:1 
0.42759906099146261 0.059157443593977399 1:7 2:8 3:19 4:332 5:21 6:11 7:8 
0.4275529344383186 0.059306467749421832 1:89 2:121 3:114 4:143 5:116 6:96 7:136 
0.4227713452641676 0.058717815009928342 1:6 2:8 3:52 4:100 5:69 6:22 7:30 
0.90100771027031235 0 1:0 2:0 3:0 4:194 5:0 6:1 7:1 
1 0 1:0 2:0 3:1 4:181 5:1 6:0 7:0 
0.42051508310735569 0.058269156650964882 1:0 2:1 3:1 4:274 5:5 6:1 7:4 
0.30864766963014639 0.042640947307187371 1:0 2:1 3:0 4:297 5:1 6:2 7:2 
0.36828464919130194 0.046412936054378295 1:2 2:1 3:1 4:178 5:4 6:0 7:0 
0.31730635130896812 0.044143268052360407 1:0 2:0 3:1 4:334 5:1 6:0 7:4 
1 1 1:0 2:0 3:1 4:267 5:0 6:1 7:0 
0.81585218842526952 0.22012857406846364 1:0 2:1 3:0 4:248 5:0 6:1 7:0 
0.23461244364482456 0.039905950729719933 1:0 2:0 3:0 4:315 5:0 6:0 7:0 
1 1 1:0 2:0 3:0 4:182 5:0 6:0 7:0 
0.45341970337232163 0.055955976493479498 1:1 2:0 3:2 4:515 5:7 6:6 7:4 
0.052518621087384525 0.010726083548252163 1:0 2:1 3:0 4:535 5:4 6:2 7:2 
0.33689735718120539 0.045383957306077471 1:0 2:0 3:0 4:442 5:2 6:4 7:3 
1 0.40733169435080963 1:1 2:0 3:0 4:352 5:1 6:0 7:0 
0.40039510423130231 0.015387982727954219 1:0 2:0 3:1 4:358 5:1 6:0 7:0 
1 0 1:0 2:0 3:1 4:304 5:0 6:1 7:0 
0.42745168845324855 0.059478095587443602 1:7 2:8 3:19 4:347 5:21 6:11 7:8 
0.42739158517358483 0.058982068073172966 1:145 2:116 3:103 4:146 5:35 6:21 7:4 
0.42321599704087731 0.058626075091355534 1:6 2:9 3:50 4:101 5:68 6:23 7:29 
1 1 1:0 2:0 3:0 4:193 5:0 6:0 7:1 
1 0 1:0 2:0 3:1 4:182 5:0 6:1 7:1 
0.21173578250429045 0 1:0 2:0 3:1 4:345 5:2 6:0 7:0 
0.34033036480814199 0.048060408772461094 1:0 2:0 3:1 4:272 5:3 6:0 7:4 
0.16306848896174078 0.022325924864892599 1:0 2:1 3:2 4:295 5:0 6:4 7:0 
0.42874217731703884 0.059000586989547465 1:4 2:2 3:2 4:183 5:3 6:0 7:1 
0.36482635012229508 0.039164335551888585 1:0 2:0 3:0 4:337 5:1 6:1 7:0 
1 0.40548527355124575 1:0 2:0 3:0 4:247 5:1 6:0 7:0 
1 0 1:0 2:0 3:1 4:312 5:1 6:0 7:1 
0.30491695450288581 0.040941168888175353 1:0 2:0 3:0 4:294 5:0 6:4 7:0 
0.40844843792638214 0.056463658314062637 1:1 2:0 3:1 4:516 5:5 6:6 7:6 
0.4166087235450231 0.058170180815870998 1:0 2:0 3:1 4:477 5:63 6:0 7:0 
0.39752877070483394 0.055312219959190279 1:0 2:0 3:0 4:447 5:0 6:6 7:3 
0.31042146938858611 0 1:0 2:0 3:1 4:350 5:0 6:1 7:0 
0.28343543128872012 0.038796625978196941 1:0 2:3 3:3 4:358 5:1 6:1 7:0 
1 1 1:0 2:0 3:1 4:308 5:0 6:1 7:0 
0.4272288412046808 0.059165720442083403 1:7 2:8 3:19 4:362 5:21 6:11 7:8 
0.42753048363323221 0.059293107725240546 1:96 2:140 3:132 4:157 5:116 6:103 7:139 
0.42746708862604532 0.059251097916197759 1:4 2:6 3:45 4:89 5:71 6:17 7:22 
0.031915052611977551 0.082393079020504967 1:0 2:0 3:0 4:194 5:2 6:0 7:1 
1 0.26240890288394481 1:0 2:0 3:1 4:180 5:0 6:2 7:0 
0.81977164847257122 0.23207997772472461 1:0 2:0 3:0 4:347 5:2 6:0 7:0 
0.42030597852227464 0.05821959771461882 1:0 2:2 3:16 4:262 5:1 6:2 7:2 
0.26720924823704245 0.036276865739231112 1:0 2:1 3:2 4:295 5:0 6:2 7:0 
0.40487104565322585 0.056520805709349364 1:1 2:0 3:4 4:181 5:2 6:0 7:3 
0.71942241002987539 0.048768681796035607 1:0 2:0 3:1 4:333 5:2 6:2 7:2 
0.46851628296588554 0 1:0 2:1 3:0 4:266 5:1 6:1 7:0 
0.35482742409278528 0 1:0 2:0 3:0 4:249 5:0 6:2 7:0 
0.3529861784093688 0.030734074464361438 1:0 2:0 3:0 4:313 5:1 6:1 7:1 
1 0 1:0 2:0 3:1 4:288 5:1 6:0 7:1 
1 0 1:0 2:0 3:0 4:182 5:0 6:1 7:0 
0.30372792803497511 0.041636622427933812 1:1 2:0 3:2 4:518 5:7 6:6 7:5 
0.1925796336821696 0.04114723869900113 1:0 2:1 3:0 4:536 5:2 6:2 7:2 
0.14268062092745748 0.019886079436533199 1:0 2:0 3:0 4:447 5:1 6:4 7:3 
1 0.026659952118523639 1:0 2:0 3:1 4:349 5:1 6:0 7:0 
0.30173279504036465 0.04771342404390555 1:1 2:1 3:1 4:359 5:2 6:0 7:1 
1 0 1:0 2:0 3:1 4:304 5:1 6:1 7:0 
0.42752894788100548 0.059289058708634101 1:7 2:8 3:19 4:378 5:21 6:11 7:8 
0.4275324126297117 0.059281923619361854 1:92 2:143 3:136 4:157 5:127 6:111 7:150 
0.42752887867941852 0.059059278224177614 1:6 2:5 3:51 4:97 5:74 6:16 7:23 
1 0.17582292744879235 1:0 2:0 3:1 4:180 5:1 6:1 7:1 
0.66697697429825487 0 1:0 2:0 3:1 4:344 5:1 6:0 7:1 
0.42051810359108133 0.058071095729692213 1:0 2:1 3:14 4:263 5:1 6:1 7:3 
0.3357181543864623 0.047227440753209227 1:0 2:1 3:1 4:293 5:0 6:5 7:0 
0.44544930752539325 0.009997001768909386 1:1 2:1 3:3 4:181 5:1 6:1 7:1 
1 0.05051649630115701 1:0 2:0 3:1 4:332 5:1 6:2 7:3 
0.9686289379262758 0 1:0 2:1 3:0 4:266 5:0 6:0 7:0 
0.018926515913749279 0.001819855250878085 1:0 2:0 3:0 4:251 5:0 6:1 7:1 
0.18411130734956346 0.0028383604096742106 1:0 2:0 3:0 4:315 5:0 6:1 7:1 
0.27936515250007227 0 1:0 2:0 3:1 4:288 5:1 6:3 7:2 
1 0 1:0 2:0 3:0 4:183 5:0 6:0 7:0 
0.41726126164280636 0.05807289865849774 1:1 2:0 3:1 4:519 5:5 6:6 7:4 
0.75152131644324971 0 1:0 2:1 3:0 4:533 5:3 6:2 7:1 
0.23078140802978186 0.035203918645578647 1:0 2:0 3:1 4:447 5:1 6:4 7:2 
0.43847074442921979 0 1:0 2:0 3:0 4:351 5:0 6:0 7:0 
0.36515673209902638 0.050778044637529385 1:0 2:1 3:4 4:359 5:1 6:1 7:0 
0.42752766589713703 0.058910307329017253 1:7 2:8 3:19 4:394 5:21 6:11 7:8 
0.42774753799797832 0.05933214757712757 1:102 2:146 3:138 4:165 5:127 6:117 7:158 
0.42747634354720121 0.059246555518410404 1:4 2:3 3:45 4:90 5:66 6:15 7:21 
0.959196134772897 0 1:0 2:0 3:1 4:194 5:0 6:0 7:1 
0.58444883346908982 0 1:0 2:1 3:0 4:181 5:2 6:0 7:0 
0.99562566816282561 0 1:0 2:0 3:1 4:344 5:1 6:0 7:1 
0.26909242222974172 0.04074867788936759 1:0 2:0 3:2 4:273 5:2 6:2 7:2 
0.21194428504021817 0.029103217106956375 1:0 2:1 3:1 4:294 5:1 6:1 7:2 
0.42330823570763526 0.057765408046563216 1:2 2:0 3:5 4:183 5:1 6:1 7:0 
0 0.0069358822923710206 1:0 2:0 3:1 4:335 5:1 6:2 7:2 
0.34742734041551809 0.046827825603548479 1:0 2:0 3:1 4:308 5:8 6:0 7:1 
0.4378053456717817 0 1:0 2:0 3:0 4:292 5:1 6:3 7:0 
1 1 1:0 2:0 3:0 4:182 5:0 6:0 7:0 
0.27340011354747495 0.037647960320688713 1:1 2:0 3:2 4:515 5:4 6:6 7:4 
0.12927448097431035 0.014737432316043797 1:0 2:0 3:1 4:535 5:3 6:1 7:0 
0.8944358378632824 0.024087411001159371 1:0 2:0 3:0 4:444 5:0 6:3 7:2 
0.14058992340210266 0.029773531742009252 1:0 2:2 3:1 4:357 5:1 6:1 7:0 
0.36532470412681595 0 1:0 2:0 3:1 4:306 5:1 6:1 7:0 
0.42739512406277919 0.059283754547788448 1:7 2:8 3:19 4:410 5:21 6:11 7:8 
0.42744872448253457 0.059376996399890802 1:107 2:153 3:146 4:169 5:130 6:121 7:164 
0.42741929679260288 0.059219802208529349 1:3 2:3 3:43 4:83 5:61 6:13 7:23 
1 0 1:0 2:0 3:0 4:194 5:0 6:0 7:0 
1 0 1:0 2:1 3:0 4:180 5:2 6:0 7:0 
1 0 1:0 2:0 3:1 4:343 5:1 6:1 7:0 
0.33170921631534955 0.047536096065235178 1:0 2:0 3:1 4:273 5:1 6:3 7:3 
0.30872013755694955 0.041291730717460673 1:0 2:1 3:1 4:295 5:2 6:1 7:2 
0.62313318622447489 0.076154232285163437 1:1 2:1 3:1 4:176 5:1 6:2 7:2 
0.29909096431089854 0.062260657372418315 1:0 2:0 3:0 4:339 5:0 6:1 7:0 
0.60069131436832424 0.35604884441592416 1:0 2:0 3:1 4:267 5:1 6:0 7:1 
0 0.021841221495090539 1:0 2:0 3:1 4:314 5:1 6:0 7:0 
0.8591980829796293 0 1:0 2:0 3:1 4:289 5:0 6:0 7:2 
1 0 1:0 2:0 3:0 4:183 5:0 6:0 7:0 
0.37402805936794814 0.051714327654526937 1:0 2:1 3:2 4:515 5:4 6:4 7:4 
0.46767159714378492 0.037543536624657314 1:0 2:0 3:1 4:535 5:1 6:2 7:2 
0.22522858967629045 0.030079585510742579 1:0 2:0 3:0 4:448 5:1 6:3 7:2 
0.55922296408270589 0.19800054058263244 1:0 2:0 3:1 4:350 5:0 6:0 7:0 
0.34589646449690525 0.049264947860375385 1:1 2:1 3:0 4:356 5:3 6:0 7:2 
1 1 1:0 2:0 3:1 4:304 5:1 6:0 7:0 
0.42746071299533484 0.059187082048308193 1:7 2:8 3:19 4:427 5:21 6:11 7:8 
0.40554536322894946 0.056190493387841489 1:109 2:155 3:149 4:174 5:134 6:125 7:170 
0.42755370193319936 0.05910476341104659 1:3 2:4 3:48 4:95 5:69 6:17 7:16 
1 0 1:0 2:0 3:0 4:194 5:1 6:0 7:1 
1 1 1:0 2:0 3:1 4:181 5:0 6:0 7:0 
0.23380255941953462 0.089998445240384084 1:0 2:0 3:3 4:341 5:1 6:0 7:1 
0.26459168188774052 0.03619706111507448 1:0 2:1 3:1 4:297 5:0 6:3 7:1 
0.28678802416354621 0.034391193892716498 1:1 2:0 3:4 4:180 5:1 6:0 7:1 
0.63423049637020057 0 1:0 2:0 3:1 4:334 5:0 6:0 7:2 
0.75622376815546788 0 1:0 2:0 3:1 4:310 5:0 6:1 7:2 
1 0.047574605760660749 1:0 2:0 3:1 4:290 5:2 6:2 7:0 
1 0.45395830876729298 1:0 2:0 3:0 4:182 5:0 6:1 7:0 
0.31263444683932118 0.04333999582729553 1:1 2:0 3:2 4:515 5:3 6:6 7:3 
0.40200328401671737 0.032215554652117659 1:0 2:0 3:1 4:476 5:61 6:2 7:0 
0.27712303203115601 0.03845148510669083 1:0 2:0 3:0 4:449 5:1 6:5 7:2 
1 0.96438785155557705 1:1 2:0 3:0 4:348 5:1 6:0 7:0 
0.26761868193345267 0.0054872413228645636 1:1 2:1 3:1 4:357 5:1 6:0 7:1 
0.42749350200741015 0.059522439736235 1:7 2:8 3:19 4:445 5:21 6:11 7:8 
0.40545564444852877 0.055806503998498624 1:108 2:153 3:149 4:174 5:134 6:124 7:170 
0.42745858156416788 0.059286919449302533 1:3 2:4 3:41 4:87 5:58 6:13 7:14 
1 0.5612669192210149 1:0 2:0 3:1 4:194 5:1 6:0 7:0 
1 1 1:0 2:0 3:1 4:181 5:0 6:0 7:0 
1 0 1:0 2:0 3:0 4:345 5:0 6:0 7:0 
0.36127577530359639 0.052616165657277225 1:0 2:0 3:1 4:272 5:0 6:1 7:4 
0.26596867267557017 0.038070626802820751 1:0 2:0 3:0 4:295 5:0 6:3 7:2 
0.27470742498479234 0.043913906073502706 1:1 2:1 3:4 4:181 5:1 6:1 7:0 
0.16690171803884724 0.023559104269591125 1:0 2:0 3:0 4:336 5:1 6:1 7:1 
1 1 1:0 2:0 3:1 4:264 5:0 6:1 7:0 
0.19731625091777616 0.022803195163003165 1:0 2:0 3:0 4:251 5:0 6:0 7:0 
0.53533595244811871 0.0048838742145803082 1:0 2:0 3:1 4:314 5:0 6:0 7:0 
1 0 1:0 2:0 3:1 4:289 5:1 6:1 7:2 
1 0 1:0 2:0 3:0 4:183 5:0 6:0 7:0 
0.44572758988973898 0.059311114228227546 1:0 2:1 3:0 4:513 5:9 6:5 7:5 
1 0.12923808791595076 1:0 2:1 3:1 4:535 5:0 6:0 7:1 
0.89604079018444371 0.020632241834460812 1:0 2:0 3:0 4:445 5:0 6:2 7:1 
0.72238263731740704 0.16881821039935752 1:0 2:0 3:0 4:351 5:0 6:0 7:1 
0.32648172734550679 0.043270685086465477 1:1 2:0 3:0 4:358 5:1 6:0 7:2 
1 0 1:0 2:0 3:1 4:306 5:0 6:0 7:0 
0.42735496846268939 0.058782362319097947 1:7 2:8 3:19 4:463 5:21 6:11 7:8 
0.4235535902917163 0.058191465371602469 1:108 2:154 3:149 4:173 5:132 6:125 7:168 
0.42738538200320175 0.059265945835880129 1:5 2:3 3:40 4:80 5:68 6:9 7:20 
1 0.81820396315884736 1:0 2:0 3:0 4:194 5:0 6:0 7:0 
0.32012484594309815 0 1:0 2:0 3:1 4:181 5:1 6:1 7:1 
0 0.2823871072187244 1:0 2:0 3:0 4:346 5:0 6:0 7:0 
0.7424046315037589 0.058015828653556645 1:0 2:0 3:13 4:259 5:1 6:1 7:0 
0.22888173964727349 0.032002603734664015 1:0 2:1 3:2 4:295 5:0 6:4 7:1 
0.71932221885370073 0 1:2 2:0 3:1 4:181 5:1 6:0 7:0 
0.14877375676643867 0.029358981904874071 1:0 2:0 3:0 4:335 5:0 6:2 7:3 
1 1 1:0 2:1 3:0 4:265 5:0 6:0 7:0 
1 1 1:0 2:0 3:1 4:247 5:0 6:0 7:0 
0.55187934934550031 0 1:0 2:0 3:0 4:313 5:0 6:0 7:1 
0.50799764994806551 0.039759930504631835 1:0 2:0 3:1 4:290 5:2 6:0 7:3 
0.4275642675167402 0.059119517873452002 1:0 2:0 3:0 4:517 5:8 6:1 7:4 
1 0 1:0 2:1 3:0 4:533 5:1 6:2 7:0 
1 0.001883250820770288 1:0 2:0 3:1 4:443 5:0 6:3 7:2 
0.25884965441780744 0 1:0 2:0 3:0 4:350 5:0 6:1 7:0 
0.38275583226612026 0.05266571684435839 1:0 2:2 3:3 4:355 5:1 6:1 7:0 
0.39533949835576676 0 1:0 2:0 3:1 4:305 5:1 6:0 7:0 
0.42735089241286495 0.05932303119483584 1:7 2:8 3:19 4:482 5:21 6:11 7:8 
0.42642456637969678 0.058969487967032497 1:108 2:155 3:146 4:173 5:133 6:124 7:168 
0.42734752302342616 0.059256339184711571 1:3 2:3 3:43 4:86 5:62 6:13 7:16 
0.46282296879765822 0 1:0 2:0 3:1 4:194 5:0 6:1 7:0 
1 1 1:0 2:0 3:1 4:180 5:0 6:1 7:0 
0.13107101532524815 0 1:0 2:0 3:1 4:345 5:0 6:0 7:0 
0.1455091153104677 0.0024051993538470318 1:0 2:0 3:1 4:272 5:1 6:1 7:3 
0.34970104480493169 0.048877108245955855 1:0 2:1 3:3 4:295 5:1 6:1 7:0 
0.36675115046033308 0.048731653225600247 1:2 2:0 3:1 4:177 5:5 6:0 7:0 
0.36537811444585561 0.053717532635661314 1:0 2:0 3:0 4:340 5:0 6:0 7:3 
1 0.27999542521238502 1:0 2:0 3:0 4:267 5:0 6:0 7:0 
0.72689182546342668 0.040029842819030437 1:0 2:0 3:0 4:249 5:0 6:0 7:0 
1 0.31499153418910675 1:0 2:0 3:0 4:289 5:1 6:0 7:1 
1 0.8418454230700223 1:0 2:0 3:0 4:183 5:0 6:0 7:0 
0.48061252447059166 0.059085736021975643 1:0 2:1 3:0 4:512 5:5 6:5 7:2 
0 0.0066047322202160696 1:0 2:0 3:1 4:535 5:2 6:2 7:2 
0.67262880504471401 0.037381358038838075 1:0 2:0 3:1 4:445 5:1 6:3 7:2 
1 1 1:0 2:0 3:0 4:349 5:1 6:0 7:0 
1 0.39582372382801795 1:0 2:2 3:0 4:354 5:0 6:0 7:0 
0.20117176515600202 0 1:0 2:0 3:1 4:307 5:1 6:1 7:0 
0.42742654518492951 0.059182843133724905 1:7 2:8 3:19 4:501 5:21 6:11 7:8 
0.42786368232376787 0.059721364691921963 1:108 2:156 3:143 4:174 5:130 6:123 7:167 
0.42749439085561397 0.059366162714163118 1:4 2:3 3:42 4:79 5:55 6:12 7:15 
1 1 1:0 2:0 3:0 4:193 5:0 6:0 7:0 
1 0 1:0 2:0 3:1 4:181 5:0 6:1 7:0 
0.76296849199195171 0 1:0 2:0 3:2 4:344 5:1 6:0 7:0 
0.8704551794190728 0.019977521505070317 1:0 2:0 3:1 4:271 5:1 6:2 7:1 
1 0.032293099834459535 1:0 2:1 3:0 4:292 5:1 6:2 7:0 
0.41230182449847413 0.053083988651652647 1:1 2:0 3:4 4:179 5:0 6:1 7:1 
1 0 1:0 2:0 3:1 4:333 5:0 6:0 7:1 
1 0 1:0 2:0 3:1 4:265 5:0 6:1 7:0 
0.35209295730631224 0 1:0 2:1 3:1 4:248 5:0 6:1 7:0 
0.46414385281373516 0 1:0 2:2 3:1 4:312 5:0 6:0 7:1 
0.31566791346523415 0.012647358026957045 1:0 2:0 3:1 4:289 5:0 6:1 7:3 
1 0.93640973398030092 1:0 2:0 3:0 4:183 5:0 6:0 7:0 
0.27889474691298577 0.041857020804746015 1:1 2:0 3:2 4:514 5:4 6:3 7:3 
0.64743009895114667 0.031767848476201122 1:0 2:0 3:0 4:536 5:2 6:0 7:1 
1 0.082546340043866517 1:0 2:0 3:1 4:443 5:0 6:1 7:2 
0.21491830432558812 0 1:1 2:1 3:0 4:357 5:1 6:0 7:0 
0.37202041908855993 0 1:0 2:0 3:1 4:304 5:2 6:0 7:0 
0.42730347025352572 0.059130337850264059 1:7 2:8 3:19 4:521 5:21 6:11 7:8 
0.42743501014705559 0.059338234434028581 1:103 2:152 3:148 4:167 5:131 6:122 7:165 
0.42734766127999868 0.059375459698171373 1:2 2:5 3:44 4:82 5:57 6:13 7:16 
1 0 1:0 2:0 3:0 4:193 5:0 6:1 7:0 
1 1 1:0 2:0 3:1 4:180 5:0 6:0 7:0 
0.0089755864997342338 0.034289743485919066 1:0 2:0 3:0 4:346 5:0 6:0 7:1 
0.36599819782891191 0.038447070745272371 1:0 2:0 3:1 4:273 5:1 6:0 7:1 
0.48336038605815346 0.022503595724958581 1:0 2:1 3:0 4:293 5:0 6:1 7:0 
0.42755648165467613 0.058964447735874115 1:3 2:2 3:13 4:171 5:0 6:0 7:0 
0.21413030143583964 0.032212234317894495 1:0 2:0 3:1 4:335 5:0 6:1 7:4 
0.8978242357171774 0 1:0 2:0 3:1 4:265 5:0 6:0 7:1 
1 1 1:0 2:0 3:0 4:246 5:0 6:0 7:0 
0.77386963211017301 0.039737902605911313 1:0 2:0 3:1 4:307 5:5 6:0 7:0 
1 1 1:0 2:0 3:1 4:287 5:0 6:0 7:0 
1 0.85821681929526994 1:0 2:0 3:0 4:182 5:0 6:1 7:0 
0.25555765094189969 0.040137801099132564 1:1 2:0 3:1 4:513 5:4 6:1 7:4 
0.52316572266079076 0.047957473933074035 1:0 2:0 3:0 4:533 5:3 6:1 7:1 
0.21733252285095958 0.030198188743163382 1:0 2:0 3:0 4:447 5:0 6:1 7:2 
0 0.45197927817367578 1:0 2:0 3:0 4:351 5:0 6:0 7:0 
0.69179687592942118 0.038694715374453986 1:0 2:1 3:1 4:357 5:0 6:0 7:0 
0.77724378839081376 0 1:0 2:0 3:1 4:305 5:0 6:2 7:0 
0.42750400388314685 0.059300597082627082 1:7 2:8 3:19 4:542 5:21 6:11 7:8 
0.42648727669879161 0.05912082611541003 1:164 2:129 3:120 4:166 5:34 6:13 7:2 
0.4275231384158607 0.059195396113536136 1:2 2:4 3:44 4:82 5:56 6:11 7:11 
1 1 1:0 2:0 3:0 4:193 5:0 6:0 7:0 
0.31965579365695174 0 1:0 2:0 3:1 4:183 5:0 6:1 7:1 
0.78030212166976676 0.49925898849135147 1:0 2:0 3:2 4:342 5:1 6:0 7:0 
0.50552478215762653 0 1:0 2:0 3:2 4:271 5:1 6:0 7:2 
1 0.048865154404787475 1:0 2:0 3:0 4:296 5:0 6:1 7:0 
1 0.21921378049563267 1:0 2:0 3:2 4:179 5:2 6:0 7:0 
0.22421846246740773 0.02579435736895308 1:0 2:0 3:0 4:339 5:0 6:2 7:1 
1 1 1:0 2:0 3:1 4:264 5:0 6:0 7:0 
1 0 1:0 2:0 3:1 4:248 5:0 6:0 7:0 
0.3218452772983505 0.047511974722280637 1:1 2:0 3:0 4:315 5:1 6:0 7:2 
1 0 1:0 2:0 3:1 4:288 5:1 6:1 7:1 
1 1 1:0 2:0 3:0 4:182 5:0 6:0 7:0 
0.4262591578187262 0.058388223271317929 1:0 2:1 3:1 4:514 5:7 6:2 7:3 
0.94956397901658784 0.083476935178140033 1:0 2:0 3:1 4:535 5:2 6:0 7:0 
0.23367908302200763 0.028809996145713664 1:0 2:0 3:0 4:447 5:1 6:1 7:2 
1 0 1:0 2:0 3:1 4:305 5:0 6:1 7:0 
0.42754899171271799 0.059314016632868671 1:7 2:8 3:19 4:563 5:21 6:11 7:8 
0.42741001713963817 0.059412611448201202 1:105 2:150 3:141 4:168 5:128 6:119 7:166 
0.42739718633930762 0.058805044660232841 1:2 2:4 3:43 4:82 5:61 6:9 7:17 
1 1 1:0 2:0 3:0 4:193 5:0 6:0 7:0 
1 0 1:0 2:0 3:1 4:182 5:0 6:0 7:0 
1 1 1:0 2:0 3:1 4:342 5:0 6:0 7:0 
0.39123062878075421 0.053247058843096939 1:0 2:1 3:0 4:274 5:2 6:2 7:2 
1 0 1:0 2:0 3:0 4:293 5:0 6:1 7:0 
0.42194598470561745 0.058475345634777409 1:3 2:0 3:1 4:180 5:1 6:0 7:2 
0.71536160619851574 0 1:0 2:0 3:1 4:266 5:0 6:0 7:0 
1 1 1:0 2:0 3:1 4:246 5:0 6:0 7:0 
0.25510276566804507 0.0041121288226602165 1:0 2:0 3:0 4:314 5:1 6:0 7:0 
0.95480060070274475 0.069484379250050993 1:0 2:0 3:0 4:289 5:0 6:3 7:0 
1 1 1:0 2:0 3:0 4:182 5:0 6:0 7:0 
0.3641070667607692 0.05035548942868151 1:1 2:0 3:2 4:512 5:5 6:2 7:4 
0.31577164555929293 0.0038739504095672396 1:0 2:1 3:0 4:535 5:2 6:1 7:2 
1 0.087392190406981762 1:0 2:0 3:0 4:441 5:1 6:3 7:1 
0.092736887216539457 0 1:1 2:0 3:0 4:350 5:0 6:0 7:0 
0.33921106865179923 0.047385697812456662 1:0 2:0 3:0 4:359 5:0 6:0 7:1 
1 0.16939115404214322 1:0 2:0 3:0 4:305 5:1 6:0 7:0 
0.42756759857618049 0.058746687857400171 1:7 2:8 3:19 4:585 5:21 6:11 7:8 
0.42759779125756986 0.05944184519841833 1:119 2:147 3:148 4:165 5:126 6:126 7:158 
0.42749842638897012 0.058920855233964897 1:2 2:3 3:46 4:82 5:53 6:8 7:13 
1 1 1:0 2:0 3:0 4:193 5:0 6:0 7:1 
1 0.23744676782448615 1:0 2:1 3:0 4:180 5:1 6:0 7:1 
1 0.093208868682517487 1:0 2:0 3:1 4:343 5:1 6:0 7:0 
0.55933495632658914 0.041642277863179866 1:0 2:0 3:1 4:273 5:1 6:1 7:0 
1 0.24937491060580036 1:0 2:1 3:0 4:291 5:2 6:0 7:1 
1 0.32191085072525066 1:1 2:1 3:1 4:176 5:2 6:1 7:0 
0.22751616861358637 0.047472209885411731 1:0 2:0 3:0 4:336 5:1 6:0 7:3 
0.93788388110584719 0 1:0 2:0 3:0 4:266 5:0 6:1 7:0 
1 1 1:0 2:0 3:0 4:246 5:1 6:0 7:0 
1 0.74094689210610154 1:0 2:0 3:1 4:311 5:0 6:0 7:0 
1 0.12413512397036251 1:0 2:0 3:1 4:288 5:1 6:0 7:1 
1 1 1:0 2:0 3:0 4:182 5:0 6:0 7:0 
0.38847944145829477 0.0543639340702462 1:1 2:0 3:1 4:516 5:4 6:4 7:2 
1 1 1:0 2:0 3:0 4:533 5:0 6:0 7:1 
1 0.022331527147793684 1:0 2:0 3:0 4:444 5:0 6:0 7:1 
0.1513814634927213 0 1:0 2:0 3:0 4:350 5:2 6:0 7:0 
0.036806178215592122 0 1:1 2:0 3:1 4:357 5:2 6:0 7:1 
1 1 1:0 2:0 3:1 4:303 5:0 6:1 7:0 
0.42778318394163078 0.058928277027080145 1:7 2:8 3:19 4:608 5:21 6:11 7:8 
0.42753642191888191 0.058984512295832681 1:166 2:129 3:116 4:168 5:30 6:15 7:4 
0.42753282596573999 0.059354066552928908 1:3 2:3 3:40 4:82 5:57 6:13 7:11 
1 1 1:0 2:0 3:0 4:193 5:0 6:1 7:0 
1 0.14558710028504612 1:0 2:0 3:1 4:344 5:0 6:0 7:0 
1 0.4314634567581469 1:0 2:0 3:1 4:270 5:1 6:0 7:2 
0.48280945914222145 0 1:0 2:0 3:0 4:294 5:0 6:1 7:1 
0.49954458766086363 0.063778945117050068 1:0 2:3 3:0 4:179 5:1 6:1 7:0 
0.4069100129887307 0 1:0 2:0 3:1 4:334 5:1 6:0 7:2 
1 0 1:0 2:0 3:1 4:248 5:0 6:0 7:0 
1 0.30135397020048243 1:0 2:0 3:1 4:310 5:0 6:0 7:2 
1 1 1:0 2:0 3:1 4:288 5:0 6:0 7:1 
1 1 1:0 2:0 3:0 4:182 5:0 6:0 7:0 
0.52221859143595328 0.05753736029662615 1:0 2:0 3:0 4:514 5:1 6:2 7:4 
0.72924286832880103 0.02295464433137322 1:0 2:0 3:0 4:534 5:2 6:1 7:2 
1 0.021392111410491851 1:0 2:0 3:0 4:443 5:1 6:2 7:1 
0.32450971893040897 0.0068286852972802015 1:0 2:0 3:0 4:350 5:0 6:2 7:0 
1 0.041553040339961933 1:0 2:2 3:1 4:355 5:0 6:1 7:0 
1 1 1:0 2:0 3:1 4:305 5:0 6:0 7:0 
0.42753522310835806 0.059354455697870234 1:7 2:8 3:19 4:631 5:21 6:11 7:8 
0.4264769669619986 0.059196035853992302 1:166 2:127 3:120 4:166 5:34 6:15 7:2 
0.42754373107727556 0.059501014389645335 1:4 2:3 3:47 4:83 5:53 6:10 7:10 
1 0.92318476838723673 1:0 2:0 3:0 4:194 5:0 6:0 7:0 
1 1 1:0 2:0 3:1 4:180 5:1 6:0 7:0 
1 1 1:0 2:0 3:1 4:342 5:0 6:0 7:0 
0.51082942777736473 0.058698733458265873 1:0 2:0 3:15 4:257 5:0 6:2 7:2 
1 0.068963259534619209 1:0 2:0 3:0 4:293 5:0 6:1 7:0 
0.8767837809367558 0.30371602315316676 1:1 2:1 3:1 4:178 5:0 6:2 7:0 
0.088818933402633804 0.01391642936814097 1:0 2:0 3:1 4:334 5:0 6:2 7:3 
1 0.94178237773241014 1:0 2:0 3:0 4:269 5:0 6:1 7:0 
1 0.86035499900162604 1:0 2:0 3:0 4:247 5:1 6:0 7:0 
1 0 1:0 2:0 3:1 4:310 5:0 6:2 7:0 
1 0.26477515943582747 1:0 2:0 3:1 4:288 5:1 6:2 7:1 
1 1 1:0 2:0 3:0 4:182 5:0 6:0 7:0 
0.50363385072844391 0.052987644567541903 1:1 2:0 3:2 4:511 5:3 6:3 7:3 
1 1 1:0 2:1 3:0 4:533 5:1 6:1 7:0 
0 0.024671143426537034 1:0 2:0 3:0 4:446 5:0 6:2 7:1 
0.26158098423794651 0 1:0 2:0 3:0 4:350 5:0 6:0 7:0 
0.87637514325269739 0.02558210907508085 1:0 2:2 3:1 4:355 5:2 6:0 7:0 
1 0.17919215391557225 1:0 2:0 3:0 4:306 5:0 6:0 7:0 
0.42750076552636423 0.059321450917527108 1:7 2:8 3:19 4:656 5:21 6:11 7:8 
0.42720103861415548 0.059017207281978235 1:160 2:125 3:120 4:161 5:34 6:13 7:3 
0.42740942824591099 0.059384615749451697 1:2 2:4 3:43 4:84 5:58 6:6 7:13 
1 0.95331774047479834 1:0 2:0 3:0 4:193 5:0 6:1 7:0 
1 0.41887261753894245 1:0 2:0 3:1 4:343 5:0 6:1 7:1 
0.34639519037749045 0.052025668950903659 1:0 2:2 3:13 4:259 5:0 6:3 7:2 
0.13867802715902988 0 1:0 2:0 3:0 4:293 5:1 6:2 7:0 
0.56448578039436748 0 1:0 2:0 3:0 4:334 5:1 6:1 7:2 
1 0.87529900975066255 1:0 2:0 3:1 4:265 5:0 6:0 7:0 
1 0.28245887318882457 1:0 2:0 3:0 4:247 5:1 6:2 7:0 
1 1 1:0 2:0 3:1 4:310 5:0 6:1 7:1 
1 1 1:0 2:0 3:1 4:288 5:1 6:1 7:0 
0.38050184821637906 0.030122350097780137 1:1 2:0 3:1 4:514 5:3 6:2 7:3 
0 0.022668572559474409 1:0 2:0 3:0 4:534 5:3 6:2 7:2 
1 0.0041672159804800879 1:0 2:0 3:0 4:443 5:1 6:2 7:2 
0.84490950728559089 0 1:0 2:0 3:0 4:350 5:0 6:1 7:0 
0.25856087553005441 0.031402558155870855 1:0 2:1 3:0 4:356 5:1 6:0 7:0 
1 0.78424397947171043 1:0 2:0 3:1 4:304 5:0 6:1 7:0 
0.42753059880531791 0.059187978712347267 1:7 2:8 3:19 4:681 5:21 6:11 7:8 
0.42757065042786507 0.059154839238654222 1:101 2:148 3:140 4:167 5:122 6:114 7:166 
0.42735496450664878 0.059266881819828587 1:3 2:4 3:47 4:81 5:60 6:10 7:8 
0.013682881351099442 0 1:0 2:0 3:2 4:193 5:0 6:2 7:0 
0.99915699577688644 0 1:0 2:0 3:1 4:345 5:0 6:0 7:0 
0.63094966483798942 0.051005014768483736 1:0 2:2 3:13 4:259 5:0 6:1 7:2 
1 0.1201893197512523 1:0 2:0 3:0 4:292 5:0 6:2 7:0 
0.42713339309053749 0.059264154684464998 1:2 2:2 3:11 4:169 5:2 6:1 7:0 
0.64201914194574783 0 1:0 2:0 3:1 4:334 5:0 6:1 7:1 
1 0.89058704401973032 1:0 2:0 3:1 4:264 5:1 6:0 7:1 
0.83067885109572814 0 1:0 2:0 3:0 4:249 5:1 6:0 7:0 
0.012168817027423572 0.031483537330006361 1:0 2:0 3:1 4:307 5:6 6:0 7:0 
1 1 1:0 2:0 3:1 4:288 5:0 6:0 7:0 
0.50508981649785201 0.053589792736783826 1:0 2:0 3:0 4:515 5:4 6:2 7:2 
0.60602701054321484 0.054444548616939425 1:0 2:0 3:1 4:476 5:60 6:0 7:0 
1 0.010764026105989088 1:0 2:0 3:1 4:444 5:1 6:1 7:2 
1 0 1:0 2:0 3:0 4:350 5:0 6:0 7:0 
0.28336762118502512 0.010694906564610196 1:1 2:1 3:0 4:355 5:2 6:0 7:0 
1 0.92143275097628996 1:0 2:0 3:1 4:305 5:0 6:0 7:0 
0.42783980292281043 0.059258252732416139 1:7 2:8 3:19 4:708 5:21 6:11 7:8 
0.42753717156826543 0.059351907055957276 1:151 2:158 3:106 4:172 5:54 6:5 7:5 
0.42965074900462752 0.058473911393164879 1:0 2:2 3:42 4:80 5:54 6:7 7:8 
1 1 1:0 2:0 3:1 4:343 5:0 6:0 7:0 
0.58387331067985371 0.058685457510008865 1:0 2:0 3:15 4:256 5:0 6:0 7:0 
1 0.0083554241941543247 1:0 2:0 3:0 4:294 5:0 6:0 7:0 
1 0.11780412256796424 1:0 2:0 3:1 4:334 5:0 6:1 7:0 
1 0.93940239111479473 1:0 2:0 3:1 4:265 5:0 6:0 7:0 
0.60489434436628009 0.41618186770719034 1:0 2:2 3:0 4:311 5:1 6:0 7:1 
1 0 1:0 2:0 3:1 4:289 5:1 6:1 7:0 
0.66613377027151921 0.046975048222671664 1:0 2:1 3:1 4:513 5:3 6:1 7:3 
0.17619595613479966 0.035662750069168983 1:0 2:0 3:1 4:477 5:61 6:2 7:0 
1 0.88939194013872391 1:0 2:0 3:0 4:442 5:1 6:0 7:0 
1 0.15511521434135217 1:0 2:0 3:1 4:355 5:1 6:0 7:0 
1 0 1:0 2:0 3:1 4:305 5:0 6:1 7:0 
0.42769578087231291 0.059469341431649503 1:7 2:8 3:19 4:735 5:21 6:11 7:8 
0.42752386136490655 0.059538778208229393 1:99 2:140 3:140 4:162 5:120 6:112 7:159 
0.42767114084773511 0.05890884446332123 1:1 2:2 3:41 4:87 5:57 6:6 7:9 
1 1 1:0 2:0 3:1 4:342 5:0 6:0 7:1 
0.51062696019620302 0 1:0 2:0 3:0 4:293 5:0 6:2 7:0 
1 0 1:0 2:0 3:0 4:335 5:1 6:0 7:1 
1 1 1:0 2:0 3:1 4:264 5:0 6:0 7:0 
1 0.26733753140196087 1:0 2:1 3:0 4:312 5:0 6:0 7:1 
1 1 1:0 2:0 3:0 4:512 5:1 6:1 7:0 
0.39919020445855502 0.042917482690983388 1:0 2:0 3:1 4:534 5:4 6:0 7:1 
0.43276254073987597 0.016869099919115615 1:0 2:0 3:1 4:441 5:1 6:4 7:1 
1 0 1:0 2:0 3:0 4:350 5:0 6:0 7:0 
0.59637014866459648 0.57305194489397371 1:1 2:0 3:0 4:355 5:0 6:0 7:0 
1 0 1:0 2:0 3:1 4:303 5:2 6:0 7:0 
0.42786836762525282 0.059394421235709427 1:7 2:8 3:19 4:763 5:21 6:11 7:8 
0.42735465156699631 0.059209994043890879 1:149 2:158 3:101 4:169 5:56 6:8 7:3 
0.42780617719344383 0.05901388666068913 1:2 2:0 3:38 4:82 5:53 6:9 7:12 
1 1 1:0 2:0 3:1 4:342 5:1 6:0 7:0 
0.14229032118518217 0.022724831432377059 1:0 2:1 3:0 4:294 5:1 6:0 7:0 
0.86638809519957627 0 1:0 2:0 3:1 4:335 5:0 6:0 7:0 
1 0.13822556469306391 1:1 2:0 3:0 4:511 5:2 6:2 7:2 
1 0.07238435311237934 1:0 2:0 3:0 4:534 5:0 6:0 7:2 
0.82162393383264409 0.081488964629760324 1:0 2:0 3:0 4:442 5:0 6:3 7:1 
1 0 1:0 2:0 3:0 4:350 5:0 6:0 7:0 
1 0.090086501492009405 1:0 2:0 3:0 4:354 5:0 6:1 7:1 
1 0 1:0 2:0 3:1 4:306 5:0 6:0 7:0 
0.42748334183428371 0.059282244503131687 1:7 2:8 3:19 4:793 5:21 6:11 7:8 
0.42754220693333017 0.059234176527535709 1:146 2:156 3:97 4:159 5:84 6:6 7:8 
0.42645681054823609 0.05825261220787431 1:1 2:1 3:39 4:77 5:52 6:8 7:7 
1 0.69495707314862498 1:0 2:0 3:1 4:333 5:0 6:0 7:1 
1 0 1:0 2:0 3:0 4:350 5:0 6:0 7:0 
0.3890872287555307 0.12764771223578686 1:0 2:0 3:0 4:356 5:1 6:0 7:0 
1 1 1:0 2:0 3:1 4:304 5:0 6:0 7:0 
0.42746577862340923 0.059458242108737402 1:7 2:8 3:19 4:824 5:21 6:11 7:8 
0.42759289654372551 0.059277457765738117 1:151 2:154 3:102 4:170 5:60 6:5 7:6 
0.50212930295634495 0.058186405024088561 1:0 2:3 3:44 4:80 5:55 6:6 7:7 
1 1 1:0 2:0 3:1 4:304 5:0 6:0 7:0 
0.42744401718311675 0.05944371866609327 1:7 2:8 3:19 4:856 5:21 6:11 7:8 
0.42776261917706676 0.059208052415168244 1:116 2:142 3:142 4:154 5:118 6:120 7:151 
0.42740923364269201 0.059325036020084043 1:2 2:3 3:39 4:74 5:51 6:8 7:9 
0.42736628850567265 0.059339006213365297 1:7 2:8 3:19 4:889 5:21 6:11 7:8 
0.42752614888582868 0.059200771201373403 1:162 2:123 3:112 4:162 5:31 6:13 7:2 
0.419920922335975 0.05853363047336213 1:3 2:1 3:39 4:77 5:52 6:8 7:5 
0.42735483363124471 0.058833836769288439 1:7 2:8 3:19 4:924 5:21 6:11 7:8 
0.42756777805659624 0.059236536343434398 1:147 2:151 3:96 4:164 5:86 6:5 7:8 
0.42784600876709739 0.059351884008803091 1:0 2:0 3:38 4:77 5:60 6:5 7:7 
0.42741294059041335 0.059187615707277708 1:7 2:8 3:19 4:961 5:21 6:11 7:8 
0.42753502530949544 0.058744904829071798 1:160 2:122 3:113 4:162 5:30 6:9 7:2 
0.42735730056121995 0.059482155578420348 1:0 2:3 3:26 4:76 5:66 6:8 7:5 
0.42735569653543753 0.058759505463194694 1:7 2:8 3:19 4:999 5:21 6:11 7:8 
0.42787274410229914 0.059246079808324303 1:98 2:137 3:138 4:159 5:119 6:112 7:157 
0.42753628201150146 0.059258359623478585 1:7 2:8 3:19 4:1038 5:21 6:11 7:8 
0.42735678335086452 0.059283722274319328 1:145 2:155 3:101 4:160 5:89 6:4 7:5 
0.42752908398452699 0.059329192660629193 1:7 2:8 3:19 4:1080 5:21 6:11 7:8 
0.42764583558421343 0.059510279614368444 1:144 2:116 3:119 4:151 5:8 6:4 7:2 
0.42754220693368905 0.059478278605394619 1:7 2:8 3:19 4:1124 5:21 6:11 7:8 
0.42744302706165127 0.058733984278757978 1:143 2:152 3:104 4:161 5:83 6:3 7:3 
0.41610617697829277 0.057478018452685742 1:7 2:8 3:19 4:1152 5:21 6:11 7:8 
0.42793744857639243 0.0594659259654024 1:141 2:149 3:101 4:166 5:50 6:3 7:4 
0.41492998396509695 0.057034412039074334 1:7 2:8 3:19 4:1151 5:19 6:10 7:7 
0.42796316819402053 0.059344183181366195 1:153 2:119 3:107 4:160 5:27 6:8 7:0 
-1 0.074171898760158506 1:15 2:21 3:31 4:1749 5:74 6:19 7:21 
-1 0.074295573956560557 1:6 2:18 3:112 4:1643 5:24 6:20 7:15 
-1 0.074119052927698048 1:8 2:6 3:54 4:1220 5:12 6:13 7:9 
-1 0.073973856633712198 1:73 2:94 3:110 4:153 5:142 6:138 7:130 
-1 0.074181064075559688 1:19 2:16 3:31 4:1793 5:24 6:19 7:20 
-1 0.074103271775894319 1:6 2:22 3:365 4:1386 5:29 6:24 7:13 
-1 0.074028526858250843 1:11 2:8 3:39 4:1224 5:23 6:10 7:11 
-1 0.073992939131228674 1:6 2:5 3:38 4:832 5:143 6:8 7:12 
-1 0.074220505559317307 1:80 2:111 3:133 4:147 5:126 6:130 7:115 
-1 0.074069908905979753 1:24 2:20 3:22 4:1787 5:27 6:15 7:17 
-1 0.073835056238442498 1:8 2:18 3:367 4:1380 5:28 6:20 7:11 
-1 0.074103028525246917 1:10 2:10 3:47 4:1217 5:17 6:13 7:6 
-1 0.074194356437277897 1:5 2:4 3:24 4:789 5:200 6:8 7:11 
-1 0.07399171233837698 1:7 2:9 3:250 4:444 5:264 6:206 7:203 
-1 0.073683088522603302 1:6 2:6 3:10 4:346 5:184 6:151 7:119 
-1 0.073992731888254393 1:74 2:107 3:120 4:153 5:132 6:136 7:123 
-1 0.074209239187595921 1:20 2:17 3:35 4:1789 5:27 6:12 7:14 
-1 0.074160440191775534 1:6 2:14 3:364 4:1382 5:23 6:23 7:11 
-1 0.074125293280699112 1:8 2:6 3:53 4:1211 5:20 6:10 7:8 
-1 0.073533254629476408 1:4 2:6 3:46 4:834 5:133 6:5 7:10 
-1 0.074264434557782366 1:4 2:6 3:11 4:462 5:322 6:258 7:183 
-1 0.073872535661686556 1:7 2:6 3:205 4:269 5:162 6:134 7:96 
-1 0.07402261302179558 1:81 2:107 3:131 4:142 5:127 6:130 7:117 
-1 0.074208863693512817 1:18 2:23 3:36 4:1785 5:25 6:13 7:17 
-1 0.073860585668060807 1:8 2:16 3:363 4:1379 5:16 6:20 7:14 
-1 0.074202876057004541 1:8 2:5 3:217 4:1059 5:12 6:8 7:8 
-1 0.073992142959762919 1:1 2:4 3:23 4:790 5:198 6:10 7:13 
-1 0.073779320396002934 1:5 2:9 3:12 4:457 5:322 6:260 7:180 
-1 0.073948390014700327 1:9 2:6 3:11 4:347 5:185 6:153 7:120 
-1 0.07383416154462058 1:81 2:105 3:132 4:144 5:128 6:129 7:118 
-1 0.074084683955241259 1:7 2:21 3:35 4:1750 5:68 6:14 7:13 
-1 0.073566106807452514 1:4 2:13 3:16 4:1711 5:27 6:16 7:16 
-1 0.074131572507908194 1:6 2:4 3:150 4:1118 5:9 6:9 7:3 
-1 0.074194261087605518 1:2 2:8 3:97 4:867 5:46 6:7 7:7 
-1 0.07377961253307258 1:6 2:7 3:251 4:442 5:261 6:205 7:201 
-1 0.073945193345595128 1:8 2:4 3:12 4:346 5:182 6:154 7:119 
-1 0.074209239187595866 1:70 2:77 3:101 4:141 5:140 6:134 7:124 
-1 0.073662510314597029 1:11 2:18 3:30 4:1741 5:66 6:14 7:13 
-1 0.073930472564100236 1:5 2:12 3:361 4:1376 5:16 6:18 7:10 
-1 0.074194312747299429 1:4 2:2 3:32 4:1224 5:18 6:14 7:9 
-1 0.073408511832940837 1:3 2:9 3:499 4:500 5:6 6:6 7:9 
-1 0.07395623086967068 1:4 2:7 3:6 4:460 5:321 6:254 7:179 
-1 0.07394944902193562 1:2 2:4 3:206 4:267 5:161 6:134 7:99 
-1 0.074089940043708613 1:70 2:97 3:107 4:146 5:134 6:133 7:126 
-1 0.074132936730089749 1:7 2:13 3:22 4:1746 5:62 6:15 7:15 
-1 0.073546160255846926 1:4 2:17 3:357 4:1378 5:18 6:18 7:10 
-1 0.074109250864068388 1:4 2:3 3:445 4:816 5:12 6:2 7:10 
-1 0.074295575375925849 1:3 2:4 3:20 4:784 5:205 6:4 7:5 
-1 0.074044379595169241 1:5 2:7 3:9 4:458 5:321 6:258 7:178 
-1 0.074292256803322021 1:8 2:10 3:42 4:347 5:183 6:143 7:119 
-1 0.07410833552592927 1:66 2:88 3:104 4:154 5:142 6:126 7:134 
-1 0.074117242965220043 1:4 2:11 3:18 4:1742 5:63 6:15 7:18 
-1 0.07390072326476288 1:3 2:15 3:357 4:1379 5:18 6:16 7:7 
-1 0.073779310066253101 1:9 2:2 3:30 4:1219 5:20 6:12 7:10 
-1 0.074013829025592337 1:6 2:4 3:22 4:787 5:199 6:7 7:3 
-1 0.071711744286289625 1:3 2:3 3:3 4:461 5:321 6:259 7:177 
-1 0.074139768155081387 1:3 2:3 3:206 4:269 5:157 6:135 7:96 
-1 0.074101612329386446 1:71 2:98 3:108 4:147 5:138 6:131 7:127 
-1 0.074153412585009959 1:15 2:14 3:26 4:1781 5:23 6:8 7:13 
-1 0.074229489757213052 1:6 2:9 3:40 4:1703 5:12 6:17 7:14 
-1 0.07393998523524542 1:5 2:1 3:9 4:953 5:312 6:9 7:8 
-1 0.07412507244833566 1:4 2:5 3:272 4:720 5:6 6:2 7:6 
-1 0.072175932537249077 1:2 2:3 3:3 4:460 5:321 6:257 7:178 
-1 0.074010844887483718 1:6 2:5 3:12 4:348 5:186 6:152 7:120 
-1 0.074132244320102625 1:72 2:95 3:110 4:148 5:140 6:129 7:126 
-1 0.073801904093660387 1:11 2:10 3:16 4:1783 5:21 6:12 7:7 
-1 0.073857024118385073 1:3 2:14 3:597 4:1125 5:18 6:21 7:7 
-1 0.074203232588469892 1:5 2:4 3:30 4:1221 5:14 6:7 7:6 
-1 0.074133335009256562 1:4 2:4 3:41 4:830 5:134 6:3 7:6 
-1 0.074130329386521199 1:4 2:6 3:6 4:457 5:320 6:257 7:183 
-1 0.073708468744745959 1:0 2:5 3:206 4:267 5:157 6:136 7:95 
-1 0.07404670696405552 1:62 2:84 3:99 4:151 5:137 6:125 7:133 
-1 0.074263078800796467 1:11 2:12 3:25 4:1782 5:14 6:9 7:9 
-1 0.074109250864068277 1:6 2:13 3:360 4:1372 5:18 6:17 7:3 
-1 0.074114286686812247 1:4 2:9 3:7 4:667 5:595 6:8 7:4 
-1 0.073905714287125335 1:2 2:5 3:274 4:723 5:2 6:4 7:7 
-1 0.073820660737408339 1:2 2:3 3:30 4:565 5:281 6:223 7:203 
-1 0.07354253462855892 1:4 2:7 3:40 4:340 5:183 6:142 7:118 
-1 0.074117089674344327 1:72 2:96 3:100 4:144 5:137 6:135 7:126 
-1 0.074108335525929159 1:14 2:16 3:34 4:1763 5:13 6:8 7:10 
-1 0.074133201876882882 1:3 2:6 3:11 4:1341 5:381 6:16 7:12 
-1 0.073944270016012559 1:4 2:6 3:51 4:1211 5:10 6:9 7:5 
-1 0.073409891752150125 1:5 2:5 3:383 4:612 5:8 6:2 7:4 
-1 0.072242230557306886 1:2 2:3 3:33 4:565 5:282 6:224 7:201 
-1 0.07411287805794442 1:3 2:3 3:203 4:267 5:159 6:135 7:97 
-1 0.074297425858282362 1:75 2:106 3:129 4:140 5:125 6:130 7:116 
-1 0.073729799637289373 1:10 2:12 3:38 4:1770 5:11 6:8 7:9 
-1 0.073683200782163671 1:4 2:13 3:356 4:1368 5:8 6:11 7:7 
-1 0.073966337361859147 1:8 2:10 3:440 4:814 5:3 6:5 7:1 
-1 0.073662510314596918 1:3 2:5 3:309 4:686 5:5 6:8 7:5 
-1 0.072345786263732392 1:3 2:3 3:32 4:564 5:281 6:222 7:201 
-1 0.074270566088744827 1:5 2:2 3:8 4:346 5:184 6:153 7:118 
-1 0.073489444608880072 1:65 2:85 3:102 4:153 5:134 6:125 7:130 
-1 0.074213551029561065 1:10 2:8 3:17 4:1776 5:15 6:8 7:11 
-1 0.073833177809846162 1:3 2:9 3:32 4:1692 5:10 6:12 7:11 
-1 0.073907373219680328 1:6 2:6 3:209 4:1050 5:7 6:3 7:5 
-1 0.073495019275151841 1:4 2:0 3:309 4:685 5:5 6:3 7:1 
-1 0.074096060754936355 1:5 2:3 3:248 4:438 5:262 6:199 7:197 
-1 0.074126477466020801 1:3 2:1 3:119 4:319 5:163 6:141 7:102 
-1 0.074085817570385348 1:68 2:108 3:143 4:143 5:127 6:130 7:110 
-1 0.074112825962330431 1:7 2:7 3:20 4:1779 5:10 6:9 7:8 
-1 0.074195331746648385 1:1 2:11 3:354 4:1362 5:18 6:12 7:4 
-1 0.073862472242674337 1:2 2:5 3:42 4:1205 5:11 6:5 7:3 
-1 0.074133201876882771 1:4 2:4 3:353 4:644 5:6 6:3 7:8 
-1 0.074030760856156452 1:7 2:2 3:345 4:378 5:258 6:193 7:186 
-1 0.074108986183998804 1:3 2:3 3:46 4:335 5:187 6:139 7:120 
-1 0.07340942203536216 1:69 2:93 3:103 4:149 5:134 6:131 7:124 
-1 0.073904508766581611 1:8 2:13 3:30 4:1759 5:10 6:8 7:13 
-1 0.074116326964969559 1:3 2:12 3:94 4:1618 5:10 6:10 7:4 
-1 0.07420886299911672 1:5 2:3 3:47 4:1208 5:9 6:9 7:6 
-1 0.074009683063788301 1:1 2:3 3:32 4:829 5:140 6:5 7:5 
-1 0.074125166825876776 1:2 2:4 3:3 4:478 5:304 6:241 7:185 
-1 0.074191302393124325 1:1 2:3 3:4 4:331 5:194 6:152 7:121 
-1 0.074064606986538217 1:65 2:80 3:97 4:148 5:131 6:131 7:127 
-1 0.07398383916796708 1:7 2:10 3:18 4:1773 5:13 6:6 7:6 
-1 0.074303762528280637 1:3 2:5 3:92 4:1622 5:8 6:11 7:7 
-1 0.0743477053107377 1:10 2:5 3:46 4:1207 5:11 6:4 7:3 
-1 0.073801835143522898 1:3 2:2 3:274 4:720 5:4 6:1 7:3 
-1 0.073875569476295866 1:4 2:3 3:343 4:379 5:257 6:193 7:185 
-1 0.074295573956560612 1:4 2:1 3:2 4:247 5:241 6:164 7:123 
-1 0.074294565818860736 1:73 2:99 3:109 4:148 5:125 6:133 7:114 
-1 0.074123300135121084 1:7 2:8 3:36 4:1754 5:9 6:10 7:7 
-1 0.073907373219680328 1:3 2:3 3:354 4:1364 5:9 6:7 7:3 
-1 0.074120678228297265 1:1 2:2 3:207 4:1044 5:6 6:7 7:7 
-1 0.074117054454413189 1:2 2:2 3:36 4:829 5:131 6:4 7:3 
-1 0.074116326964910273 1:1 2:1 3:32 4:559 5:281 6:216 7:199 
-1 0.07386978381160092 1:3 2:2 3:205 4:266 5:157 6:134 7:95 
-1 0.074034630800831502 1:67 2:93 3:100 4:146 5:134 6:132 7:125 
-1 0.073975517120463241 1:9 2:10 3:12 4:1774 5:14 6:3 7:8 
-1 0.074177619356076585 1:1 2:8 3:588 4:1123 5:10 6:8 7:2 
-1 0.073779950998770105 1:0 2:3 3:136 4:1119 5:4 6:5 7:2 
-1 0.074261197282789682 1:2 2:0 3:33 4:831 5:133 6:4 7:3 
-1 0.074213551029611746 1:4 2:3 3:26 4:561 5:279 6:217 7:201 
-1 0.074103028525246806 1:2 2:2 3:1 4:282 5:225 6:159 7:123 
-1 0.074133874744333139 1:68 2:87 3:101 4:149 5:132 6:125 7:129 
-1 0.074129790536992646 1:5 2:5 3:419 4:1369 5:10 6:5 7:3 
-1 0.074092642823736343 1:4 2:4 3:11 4:1695 5:13 6:8 7:6 
-1 0.074114286686812136 1:1 2:3 3:4 4:950 5:303 6:5 7:5 
-1 0.073559532868817057 1:1 2:5 3:273 4:719 5:4 6:5 7:2 
-1 0.074303762528261097 1:2 2:3 3:342 4:380 5:254 6:187 7:188 
-1 0.068037050297120205 1:3 2:3 3:42 4:341 5:182 6:140 7:118 
-1 0.074204456480690351 1:73 2:97 3:115 4:145 5:123 6:131 7:116 
-1 0.074194629763758624 1:6 2:4 3:37 4:1747 5:5 6:6 7:4 
-1 0.074277721046426215 1:2 2:4 3:6 4:1126 5:587 6:7 7:5 
-1 0.074194380575796859 1:2 2:2 3:439 4:810 5:4 6:3 7:2 
-1 0.073845033079558142 1:0 2:2 3:8 4:682 5:306 6:4 7:3 
-1 0.065217423063635149 1:5 2:3 3:244 4:437 5:260 6:195 7:193 
-1 0.068618245187318017 1:2 2:3 3:41 4:340 5:183 6:140 7:117 
-1 0.073838241868305565 1:74 2:102 3:131 4:136 5:122 6:135 7:106 
-1 0.074110678833717469 1:4 2:7 3:36 4:1745 5:6 6:7 7:5 
-1 0.073919396154455197 1:1 2:4 3:9 4:1076 5:640 6:6 7:5 
-1 0.074143185199444739 1:3 2:2 3:42 4:1208 5:8 6:4 7:5 
-1 0.074120082654897834 1:1 2:3 3:201 4:786 5:6 6:1 7:5 
-1 0.065383819091075157 1:5 2:4 3:245 4:436 5:260 6:194 7:193 
-1 0.073974951941683853 1:0 2:1 3:201 4:268 5:157 6:133 7:94 
-1 0.07399620696710868 1:72 2:98 3:113 4:147 5:127 6:124 7:117 
-1 0.074195331746648441 1:1 2:1 3:2 4:659 5:591 6:2 7:7 
-1 0.074205629620104074 1:2 2:4 3:489 4:501 5:2 6:4 7:2 
-1 0.074132694662854048 1:1 2:2 3:5 4:574 5:285 6:214 7:200 
-1 0.073907335123464479 1:2 2:1 3:53 4:352 5:171 6:135 7:117 
-1 0.074204456480694569 1:69 2:101 3:109 4:150 5:125 6:127 7:109 
-0.13474311562126629 0 1:0 2:0 3:1 4:180 5:1 6:0 7:0 
-1 0.071273427672032763 1:2 2:0 3:3 4:181 5:0 6:1 7:1 
-1 0 1:0 2:0 3:0 4:183 5:0 6:0 7:0 
-0 1 1:0 2:0 3:1 4:180 5:0 6:0 7:0 
-1 0.059325581915767422 1:0 2:0 3:0 4:183 5:0 6:2 7:1 
-0.10832998163737216 0.028081618589083347 1:0 2:0 3:0 4:193 5:1 6:0 7:0 
-0.98394256284695469 0 1:0 2:0 3:1 4:181 5:0 6:0 7:0 
-1 0.073904594769085508 1:4 2:2 3:3 4:180 5:2 6:0 7:0 
-1 0.053133829524564913 1:0 2:0 3:0 4:249 5:0 6:0 7:0 
-1 0 1:0 2:0 3:0 4:182 5:0 6:1 7:0 
-1 0 1:0 2:0 3:1 4:181 5:0 6:0 7:0 
-1 0.044757302500360162 1:0 2:1 3:13 4:260 5:0 6:0 7:1 
-1 0.061841179672085855 1:2 2:0 3:1 4:178 5:1 6:2 7:2 
-1 0.055397474972479641 1:0 2:0 3:0 4:247 5:2 6:0 7:0 
-1 0 1:0 2:0 3:1 4:288 5:1 6:1 7:1 
-1 0.0098587659915901852 1:0 2:0 3:0 4:184 5:0 6:0 7:0 
-0 1 1:0 2:0 3:1 4:180 5:0 6:0 7:0 
-1 0 1:0 2:0 3:1 4:269 5:0 6:3 7:1 
-1 0.046692862229823717 1:0 2:0 3:1 4:181 5:3 6:1 7:1 
-1 0.99777902222056913 1:0 2:1 3:0 4:265 5:0 6:0 7:0 
-0.88931608459757572 0 1:0 2:0 3:2 4:247 5:1 6:0 7:0 
-0.25681070906423303 0.62066138853024044 1:0 2:0 3:1 4:287 5:0 6:2 7:0 
-1 0 1:0 2:0 3:0 4:183 5:0 6:0 7:0 
-1 0.0084247533493502606 1:0 2:0 3:0 4:194 5:1 6:0 7:0 
-1 0 1:0 2:0 3:1 4:180 5:1 6:0 7:0 
-1 0.062217721893221223 1:0 2:0 3:1 4:343 5:3 6:1 7:0 
-0.67481943235154151 0.026278745761434831 1:0 2:1 3:14 4:260 5:0 6:0 7:1 
-1 0.072680850188902302 1:0 2:0 3:0 4:294 5:3 6:1 7:0 
-1 0.067303336971386685 1:0 2:0 3:4 4:177 5:1 6:0 7:2 
-1 1 1:0 2:0 3:1 4:267 5:0 6:0 7:1 
-0.85261221669591825 0 1:0 2:0 3:1 4:247 5:0 6:0 7:0 
-1 0.056350063001805041 1:0 2:1 3:0 4:312 5:0 6:0 7:0 
-1 0 1:0 2:0 3:1 4:288 5:1 6:1 7:0 
-1 0 1:0 2:0 3:0 4:182 5:0 6:1 7:0 
-1 0.066236203958986162 1:1 2:0 3:0 4:514 5:1 6:4 7:2 
-0.83804957835025728 0.051978840948260996 1:0 2:1 3:0 4:533 5:1 6:1 7:1 
-1 0.040484138355480315 1:0 2:0 3:0 4:443 5:3 6:0 7:0 
-1 0.0069690693057508643 1:0 2:0 3:0 4:193 5:0 6:1 7:1 
-0.5209830314565278 0 1:0 2:1 3:0 4:180 5:1 6:0 7:0 
-0.48571651009852429 0.029484952026344602 1:0 2:0 3:0 4:344 5:0 6:1 7:0 
-1 0.028531294941515462 1:0 2:0 3:2 4:270 5:2 6:2 7:2 
-1 0 1:0 2:1 3:1 4:291 5:1 6:0 7:0 
-1 0.056107795741741739 1:0 2:0 3:1 4:181 5:0 6:0 7:2 
-1 0.016031978134880054 1:0 2:0 3:0 4:334 5:1 6:0 7:1 
-0.28690670674980734 0 1:0 2:0 3:0 4:246 5:1 6:0 7:0 
-1 0.063366824720269777 1:1 2:0 3:0 4:314 5:0 6:1 7:0 
-1 1 1:0 2:0 3:0 4:290 5:0 6:0 7:1 
-1 0.020801466141129443 1:0 2:0 3:0 4:183 5:0 6:0 7:1 
-1 0.073907144295940752 1:1 2:0 3:1 4:513 5:7 6:5 7:4 
-1 0.028241815142094617 1:0 2:0 3:3 4:534 5:1 6:1 7:1 
-1 0.0074853832186556057 1:0 2:0 3:1 4:443 5:0 6:3 7:1 
-1 0 1:0 2:0 3:0 4:349 5:1 6:0 7:0 
-1 0 1:0 2:1 3:1 4:354 5:2 6:0 7:0 
-1 0 1:0 2:0 3:1 4:180 5:0 6:2 7:0 
-1 0 1:0 2:0 3:1 4:343 5:0 6:0 7:1 
-1 0 1:0 2:0 3:1 4:270 5:0 6:1 7:2 
-1 0.019610080986796563 1:0 2:0 3:0 4:291 5:2 6:2 7:0 
-1 0 1:1 2:1 3:2 4:176 5:1 6:1 7:0 
-0.79399714783101771 0.49509430646310154 1:0 2:0 3:1 4:332 5:2 6:1 7:0 
-1 0.046558476370631319 1:0 2:0 3:1 4:264 5:1 6:1 7:0 
-0.98198132347032296 0.28092484189972278 1:0 2:1 3:1 4:246 5:0 6:0 7:0 
-1 0.074331855343368308 1:0 2:0 3:1 4:288 5:2 6:1 7:1 
-1 0.054297254295484543 1:1 2:0 3:0 4:512 5:0 6:4 7:3 
-1 0.059588694751577742 1:0 2:0 3:0 4:444 5:0 6:4 7:1 
-1 0 1:0 2:0 3:0 4:350 5:0 6:0 7:0 
-0.78352612912110309 0.079218875436685099 1:0 2:1 3:0 4:354 5:1 6:0 7:0 
-1 0.22125105071488688 1:0 2:0 3:1 4:307 5:1 6:0 7:0 
-1 0 1:0 2:0 3:0 4:194 5:0 6:0 7:0 
-1 0.053858404053198194 1:0 2:1 3:0 4:181 5:3 6:1 7:0 
-1 0 1:0 2:0 3:1 4:271 5:0 6:0 7:1 
-1 0.041997096598151602 1:0 2:0 3:0 4:291 5:2 6:0 7:0 
-1 0.035044215203992778 1:1 2:0 3:0 4:182 5:1 6:0 7:0 
-1 0.011331028140452837 1:0 2:0 3:1 4:334 5:1 6:0 7:0 
-1 0 1:0 2:0 3:1 4:265 5:0 6:1 7:0 
-1 0.013027736750856833 1:0 2:0 3:0 4:248 5:1 6:0 7:0 
-1 0.053900522049403703 1:0 2:0 3:1 4:288 5:1 6:1 7:1 
-1 0.052020827749385566 1:1 2:0 3:0 4:512 5:3 6:4 7:1 
-1 0 1:1 2:0 3:2 4:533 5:2 6:0 7:1 
-1 0 1:0 2:0 3:0 4:444 5:1 6:1 7:1 
-1 0.061075366396974175 1:0 2:0 3:0 4:351 5:0 6:0 7:0 
-0.90076712140174298 0 1:0 2:2 3:1 4:354 5:0 6:0 7:0 
-1 0 1:0 2:0 3:1 4:305 5:0 6:1 7:0 
-1 0 1:0 2:1 3:0 4:180 5:1 6:0 7:0 
-1 0 1:0 2:0 3:1 4:344 5:1 6:0 7:0 
-0.82318036728528932 0.021403542838853196 1:0 2:0 3:1 4:270 5:2 6:0 7:0 
-1 0 1:0 2:0 3:0 4:293 5:0 6:1 7:0 
-1 0.074280351024373803 1:4 2:0 3:1 4:178 5:2 6:0 7:0 
-1 0 1:0 2:0 3:1 4:333 5:0 6:0 7:2 
-0.62557242936420676 0 1:0 2:0 3:1 4:264 5:0 6:0 7:0 
-1 0 1:0 2:0 3:1 4:247 5:0 6:0 7:0 
-1 0.03876007891972752 1:0 2:1 3:0 4:313 5:0 6:1 7:0 
-1 0 1:0 2:0 3:1 4:289 5:1 6:0 7:2 
-1 0.06632129388881855 1:0 2:1 3:1 4:511 5:3 6:4 7:2 
-0.44065265351776378 0 1:1 2:0 3:1 4:534 5:1 6:1 7:1 
-1 0.050030304568655759 1:0 2:0 3:0 4:444 5:1 6:2 7:2 
-1 0.021688543731921677 1:0 2:0 3:1 4:349 5:0 6:0 7:0 
-1 0.073606789822540819 1:1 2:0 3:0 4:341 5:14 6:0 7:0 
-1 0 1:0 2:0 3:1 4:303 5:1 6:0 7:0 
-1 0.034328772181379821 1:0 2:0 3:1 4:194 5:1 6:0 7:0 
-0 1 1:0 2:0 3:1 4:180 5:0 6:0 7:0 
-1 0.038985430819623579 1:0 2:0 3:1 4:271 5:2 6:2 7:0 
-1 0 1:0 2:0 3:0 4:292 5:0 6:0 7:0 
-1 0.40723896816950028 1:0 2:0 3:1 4:178 5:1 6:2 7:0 
-0.20662662882614474 1 1:0 2:0 3:1 4:332 5:0 6:0 7:0 
-1 0.53358757705150039 1:0 2:1 3:0 4:267 5:0 6:1 7:0 
-1 0.037060037458360784 1:0 2:0 3:0 4:248 5:0 6:1 7:0 
-1 0.072062913340925461 1:0 2:0 3:1 4:306 5:4 6:0 7:0 
-1 0.032954840499745508 1:0 2:1 3:0 4:512 5:2 6:2 7:3 
-1 0.053972372503708288 1:0 2:1 3:2 4:535 5:2 6:0 7:1 
-0.76519383267221197 0 1:0 2:0 3:1 4:443 5:1 6:1 7:1 
-0.22214301529833103 0 1:0 2:0 3:0 4:349 5:0 6:0 7:0 
-1 0.070809728413562534 1:0 2:0 3:1 4:356 5:0 6:1 7:1 
-1 0.016723863195598654 1:0 2:0 3:0 4:306 5:0 6:0 7:0 
-1 0.074127791853630498 1:4 2:2 3:43 4:76 5:53 6:4 7:11 
-1 0 1:0 2:0 3:0 4:194 5:0 6:0 7:0 
-0.8698262238391069 1 1:0 2:0 3:1 4:180 5:0 6:1 7:0 
-1 0.05398001843989747 1:0 2:1 3:14 4:260 5:0 6:1 7:0 
-1 0.070202677344108677 1:0 2:0 3:0 4:296 5:0 6:1 7:0 
-1 0.073969717190755457 1:0 2:1 3:3 4:176 5:5 6:0 7:0 
-1 0.05233201928495923 1:0 2:0 3:1 4:332 5:0 6:3 7:2 
-1 0 1:0 2:0 3:1 4:265 5:0 6:0 7:0 
-1 1 1:0 2:1 3:0 4:311 5:0 6:1 7:1 
-1 0.48399844472770681 1:0 2:0 3:1 4:288 5:1 6:0 7:1 
-0.96561686316369721 0 1:0 2:0 3:0 4:182 5:0 6:0 7:0 
-1 0.040441759703382152 1:0 2:0 3:0 4:513 5:3 6:2 7:2 
-1 0 1:1 2:0 3:0 4:535 5:1 6:0 7:1 
-1 0.043330118046198574 1:0 2:0 3:1 4:444 5:1 6:3 7:1 
-1 0 1:1 2:0 3:0 4:353 5:1 6:0 7:1 
-0.87273452015980713 1 1:0 2:0 3:1 4:304 5:0 6:0 7:0 
-1 0.074295567087785397 1:0 2:2 3:44 4:79 5:54 6:7 7:6 
