svm_type c_svc
kernel_type rbf
gamma 0.5
nr_class 3
total_sv 2267
rho -0.35806760925526637 -0.83149274536027473 -0.7377800079632526
label 1 2 3
nr_sv 1252 804 211
SV
0.64233507589069094 0.16887174444691166 1:72 2:81 3:158 4:482 5:120 6:93 7:45 
0.64233507589069094 0.16887174444930686 1:61 2:98 3:150 4:507 5:152 6:113 7:66 
0.64233507589087024 0.16887174444930686 1:93 2:128 3:205 4:610 5:215 6:174 7:102 
0.64233507589087024 0.16887174444930686 1:104 2:143 3:175 4:632 5:300 6:233 7:134 
0.64233507589087024 0.16889270210041712 1:66 2:82 3:111 4:241 5:126 6:82 7:64 
0.64233507589087024 0.16881845130166423 1:115 2:127 3:186 4:300 5:134 6:83 7:55 
0.64233507589087024 0.16881845130166423 1:95 2:112 3:126 4:287 5:225 6:114 7:73 
0.64227331683011646 0.16889270897050174 1:72 2:81 3:158 4:497 5:120 6:93 7:45 
0.64227331683011646 0.1688152783211298 1:61 2:98 3:150 4:523 5:152 6:113 7:66 
0.64227331683026745 0.1688152783211298 1:93 2:128 3:205 4:631 5:215 6:174 7:102 
0.64227331683026745 0.1688152783211298 1:104 2:143 3:175 4:657 5:300 6:233 7:134 
0.64230460763973807 0.16881527831259452 1:66 2:82 3:111 4:252 5:126 6:82 7:64 
0.64230460763973807 0.16881845130166434 1:115 2:127 3:188 4:312 5:134 6:83 7:55 
0.64230460763981911 0.16881845130157491 1:95 2:112 3:131 4:296 5:226 6:114 7:73 
0.64230460763981911 0.16881845130157491 1:72 2:81 3:158 4:512 5:120 6:93 7:45 
0.64216707410471896 0.16887180150422865 1:61 2:98 3:150 4:539 5:152 6:113 7:66 
0.64216707410471896 0.1687639887210684 1:93 2:128 3:205 4:653 5:215 6:174 7:102 
0.64216707410471896 0.16876398872106863 1:104 2:143 3:174 4:683 5:300 6:233 7:134 
0.64216707410471896 0.16876398266814752 1:66 2:82 3:111 4:263 5:126 6:82 7:64 
0.64224922481576918 0.16876398266814752 1:115 2:127 3:187 4:328 5:134 6:83 7:55 
0.64224922481576918 0.16876398266814752 1:95 2:112 3:133 4:311 5:224 6:114 7:73 
0.64224922481576918 0.16876398538519072 1:72 2:81 3:158 4:527 5:120 6:93 7:45 
0.64224922481576918 0.16876398538519072 1:61 2:98 3:150 4:555 5:152 6:113 7:66 
0.64216707238917736 0.16876397101679691 1:93 2:128 3:205 4:675 5:215 6:174 7:102 
0.64216707238917736 0.16860131538619078 1:104 2:143 3:174 4:708 5:300 6:233 7:134 
0.64216707238917736 0.16860951096721954 1:66 2:82 3:111 4:275 5:125 6:82 7:64 
0.64216707238917736 0.16862280656785011 1:115 2:127 3:186 4:344 5:134 6:83 7:55 
0.64216707238917736 0.1687041158806783 1:95 2:112 3:139 4:306 5:239 6:114 7:73 
0.64216707238917736 0.16870411588069834 1:72 2:81 3:158 4:542 5:120 6:93 7:45 
0.64216707238917736 0.16870937451379098 1:61 2:98 3:150 4:572 5:152 6:113 7:66 
0.64216707238917736 0.16870937451379098 1:93 2:128 3:205 4:698 5:215 6:174 7:102 
0.64195576362008966 0.16872952672410874 1:104 2:143 3:174 4:734 5:300 6:233 7:134 
0.64195576362008966 0.1679712914225176 1:66 2:82 3:111 4:285 5:126 6:82 7:64 
0.64195576362008966 0.16797128661138994 1:115 2:127 3:188 4:357 5:134 6:83 7:55 
0.64195576362008966 0.16797128661138994 1:95 2:112 3:133 4:323 5:244 6:114 7:73 
0.64195576362012341 0.16855016452298816 1:72 2:81 3:158 4:558 5:120 6:93 7:45 
0.64195576362012341 0.16855016452298816 1:61 2:98 3:150 4:589 5:152 6:113 7:66 
0.64195576362012341 0.16855016452298816 1:93 2:128 3:205 4:721 5:215 6:174 7:102 
0.64195576362012341 0.16797525222249748 1:104 2:143 3:174 4:761 5:300 6:233 7:134 
0.64195576362012341 0.16797525222249748 1:66 2:82 3:111 4:295 5:128 6:82 7:64 
0.64195576362012341 0.16797525222249748 1:115 2:127 3:186 4:375 5:134 6:83 7:55 
0.64195576362012341 0.16797071508671485 1:95 2:112 3:140 4:328 5:248 6:114 7:73 
0.64195576362012341 0.167970677854762 1:72 2:81 3:158 4:575 5:120 6:93 7:45 
0.64205773974393621 0.167970677854762 1:61 2:98 3:150 4:606 5:152 6:113 7:66 
0.64205773974393621 0.167970677854762 1:93 2:128 3:205 4:745 5:215 6:174 7:102 
0.64205773974395197 0.167970677854762 1:104 2:143 3:174 4:788 5:300 6:233 7:134 
0.64205773974395197 0.16797694646427541 1:66 2:82 3:111 4:307 5:128 6:82 7:64 
0.64210671130878705 0.16797694646427541 1:115 2:127 3:193 4:384 5:134 6:83 7:55 
0.64210671130880415 0.16797694646427541 1:95 2:112 3:137 4:334 5:262 6:114 7:73 
0.64210671130892116 0.16797740001818617 1:72 2:81 3:158 4:592 5:120 6:93 7:45 
0.64210671130892116 0.16797740001818617 1:61 2:98 3:150 4:624 5:152 6:113 7:66 
0.64211387241722417 0.16797740001818617 1:93 2:128 3:205 4:769 5:215 6:174 7:102 
0.64211387241725804 0.16797740001818617 1:104 2:143 3:175 4:815 5:300 6:233 7:134 
0.64211387241729034 0.16797740001818617 1:66 2:82 3:111 4:321 5:127 6:82 7:64 
0.64211387241729034 0.16798178245541101 1:115 2:127 3:192 4:402 5:134 6:83 7:55 
0.64195576362033568 0.16798178245541101 1:95 2:112 3:146 4:339 5:265 6:114 7:73 
0.64195576362033568 0.16798178245541101 1:72 2:81 3:158 4:609 5:120 6:93 7:45 
0.64195576362033702 0.16797694646427563 1:61 2:98 3:150 4:642 5:152 6:113 7:66 
0.64195576362033702 0.16869307824766128 1:93 2:128 3:205 4:794 5:215 6:174 7:102 
0.64195576362033702 0.16881528969528725 1:104 2:143 3:174 4:845 5:300 6:233 7:134 
0.64195576362033702 0.16881528525348877 1:66 2:82 3:111 4:335 5:125 6:82 7:64 
0.64195576362033702 0.16881528525348882 1:115 2:127 3:190 4:421 5:134 6:83 7:55 
0.64195576362033702 0.16881526232319466 1:95 2:112 3:140 4:362 5:266 6:114 7:73 
0.64186652639877462 0.16811155387828075 1:72 2:81 3:158 4:626 5:120 6:93 7:45 
0.64186652639880926 0.16811154525192046 1:61 2:98 3:150 4:661 5:152 6:113 7:66 
0.64186652639888908 0.16811154474394657 1:93 2:128 3:205 4:820 5:215 6:174 7:102 
0.64186652639888908 0.16811154474394657 1:104 2:143 3:174 4:875 5:300 6:233 7:134 
0.64186652639888908 0.16862941064843806 1:66 2:82 3:111 4:346 5:127 6:82 7:64 
0.64186652639888908 0.16862941064843806 1:115 2:127 3:189 4:439 5:134 6:83 7:55 
0.64186652639888908 0.16862941064843806 1:95 2:112 3:142 4:361 5:283 6:114 7:73 
0.64186652639888908 0.16862941064843806 1:72 2:81 3:158 4:645 5:120 6:93 7:45 
0.64186652433625802 0.16855016452298832 1:61 2:98 3:150 4:680 5:152 6:113 7:66 
0.64186652433625802 0.16855016452298832 1:93 2:128 3:205 4:846 5:215 6:174 7:102 
0.64186652433625802 0.16855024502252608 1:104 2:143 3:174 4:905 5:300 6:233 7:134 
0.64186652433625802 0.16855016845864479 1:66 2:82 3:111 4:360 5:126 6:82 7:64 
0.64186652433625802 0.16870190848997513 1:115 2:127 3:193 4:453 5:134 6:83 7:55 
0.64186652433625802 0.16870937451379109 1:95 2:112 3:147 4:378 5:279 6:114 7:73 
0.64186652433625802 0.16876398391102637 1:72 2:81 3:158 4:663 5:120 6:93 7:45 
0.64186652433625802 0.16876398390833514 1:61 2:98 3:150 4:700 5:152 6:113 7:66 
0.64164380552234879 0.16876398574178098 1:93 2:128 3:205 4:873 5:215 6:174 7:102 
0.64164380552234879 0.16876397104516389 1:104 2:143 3:174 4:936 5:300 6:233 7:134 
0.64164380552506928 0.16881845117906097 1:66 2:82 3:111 4:370 5:130 6:82 7:64 
0.64164380552506928 0.16881844463661022 1:115 2:127 3:190 4:474 5:134 6:83 7:55 
0.64164380552506928 0.16881845163845294 1:95 2:112 3:153 4:390 5:280 6:114 7:73 
0.64164380552506928 0.16881845163845294 1:72 2:81 3:158 4:682 5:120 6:93 7:45 
0.64164380552506928 0.16887180150426906 1:61 2:98 3:150 4:720 5:152 6:113 7:66 
0.64164380552506928 0.168871744466909 1:93 2:128 3:205 4:900 5:215 6:174 7:102 
0.64164380552506928 0.16887174444930697 1:104 2:143 3:175 4:966 5:300 6:233 7:134 
0.64164380552506928 0.16887174444930697 1:66 2:82 3:111 4:385 5:129 6:82 7:64 
0.64164380552507227 0.16889050998148059 1:115 2:127 3:194 4:489 5:134 6:83 7:55 
0.64164380552507227 0.16889050892971635 1:95 2:112 3:151 4:388 5:303 6:114 7:73 
0.64164380552507227 0.16889050892971635 1:72 2:81 3:158 4:701 5:120 6:93 7:45 
0.64164380552507227 0.16889050892971635 1:61 2:98 3:150 4:741 5:152 6:113 7:66 
0.64166144722917295 0.1688926872639912 1:93 2:128 3:205 4:928 5:215 6:174 7:102 
0.64166144722917295 0.16889271544818829 1:104 2:143 3:175 4:999 5:300 6:233 7:134 
0.64159154086731518 0.16889270897057546 1:66 2:82 3:111 4:400 5:128 6:82 7:64 
0.64159154086731518 0.16889270897050174 1:115 2:127 3:194 4:508 5:134 6:83 7:55 
0.64159154163279042 0.16890628232466937 1:95 2:112 3:144 4:413 5:305 6:114 7:73 
0.64159154163279042 0.16890628603261842 1:72 2:81 3:158 4:721 5:120 6:93 7:45 
0.64159154163279042 0.16890628603259095 1:61 2:98 3:150 4:762 5:152 6:113 7:66 
0.64159154163279042 0.16890628603259095 1:93 2:128 3:205 4:958 5:215 6:174 7:102 
0.64160413963373297 0.16885795283761673 1:104 2:143 3:175 4:1032 5:300 6:233 7:134 
0.64160413963373297 0.168858037152045 1:66 2:82 3:111 4:414 5:129 6:82 7:64 
0.64159154040768684 0.16887596184032971 1:115 2:127 3:194 4:527 5:134 6:83 7:55 
0.64159154040768684 0.16891336356520881 1:95 2:112 3:156 4:425 5:302 6:114 7:73 
0.64159154040768684 0.16881528525348882 1:72 2:81 3:158 4:742 5:120 6:93 7:45 
0.64159154040768684 0.16881528218909175 1:61 2:98 3:150 4:784 5:152 6:113 7:66 
0.64159154040768684 0.16881528218907432 1:93 2:128 3:205 4:987 5:215 6:174 7:102 
0.64159154040768684 0.16881527831263909 1:104 2:143 3:175 4:1067 5:300 6:233 7:134 
0.64159154040770261 0.16872957539231953 1:66 2:82 3:111 4:431 5:127 6:82 7:64 
0.64159154040770261 0.16872956778089043 1:115 2:127 3:199 4:543 5:134 6:83 7:55 
0.64159132129687002 0.16872952672410874 1:95 2:112 3:159 4:431 5:314 6:114 7:73 
0.64159132129687002 0.16876299167056552 1:72 2:81 3:158 4:763 5:120 6:93 7:45 
0.64159132131510477 0.16866346064311788 1:61 2:98 3:150 4:806 5:152 6:113 7:66 
0.64159132131510477 0.16866346057348047 1:93 2:128 3:205 4:1018 5:215 6:174 7:102 
0.64159132131510477 0.16866346054666287 1:104 2:143 3:175 4:1102 5:300 6:233 7:134 
0.64159132131510477 0.1687238544998112 1:66 2:82 3:111 4:445 5:129 6:82 7:64 
0.64159132131510477 0.16845394319064577 1:115 2:127 3:197 4:565 5:134 6:83 7:55 
0.64159132131510477 0.16845394316706769 1:95 2:112 3:154 4:449 5:322 6:114 7:73 
0.64159132131510477 0.16845394316706769 1:72 2:81 3:158 4:785 5:120 6:93 7:45 
0.64159132131510477 0.16857676501731772 1:61 2:98 3:150 4:829 5:152 6:113 7:66 
0.64159132131510654 0.16824795710449403 1:93 2:128 3:205 4:1049 5:215 6:174 7:102 
0.64159132131510654 0.16824795697347883 1:104 2:143 3:175 4:1138 5:300 6:233 7:134 
0.64159132131510654 0.168247956973262 1:66 2:82 3:111 4:462 5:128 6:82 7:64 
0.64159132131510654 0.16824795697320732 1:115 2:127 3:193 4:591 5:134 6:83 7:55 
0.64159154032947141 0.16816389376850877 1:95 2:112 3:164 4:454 5:329 6:114 7:73 
0.64159154032947141 0.16816389376848556 1:72 2:81 3:158 4:807 5:120 6:93 7:45 
0.64159131993626617 0.16816389376848556 1:61 2:98 3:150 4:853 5:152 6:113 7:66 
0.64159131993626617 0.16816389320049635 1:93 2:128 3:205 4:1082 5:215 6:174 7:102 
0.64159132129699614 0.16811153522254041 1:104 2:143 3:175 4:1175 5:300 6:233 7:134 
0.64159132129699614 0.16811154474405493 1:66 2:82 3:111 4:479 5:127 6:82 7:64 
0.64159132129699614 0.16811154474405493 1:115 2:127 3:198 4:608 5:134 6:83 7:55 
0.64159132129699614 0.16811154474405493 1:95 2:112 3:162 4:476 5:332 6:114 7:73 
0.64159132129699969 0.16808787212033355 1:72 2:81 3:158 4:830 5:120 6:93 7:45 
0.64159132129699969 0.16808787212033355 1:61 2:98 3:150 4:878 5:152 6:113 7:66 
0.64159130459720748 0.16810390275374815 1:93 2:128 3:205 4:1115 5:215 6:174 7:102 
0.64159130459720781 0.16809109564902064 1:104 2:143 3:175 4:1214 5:300 6:233 7:134 
0.6415913046342856 0.16808949802981626 1:66 2:82 3:111 4:493 5:130 6:82 7:64 
0.6415913046342856 0.16808949802981626 1:115 2:127 3:195 4:633 5:134 6:83 7:55 
0.6415913046342856 0.16808949802981626 1:95 2:112 3:164 4:483 5:347 6:114 7:73 
0.6415913046342856 0.16808949802981626 1:72 2:81 3:158 4:853 5:120 6:93 7:45 
0.64159131991915008 0.16802762621840611 1:61 2:98 3:150 4:903 5:152 6:113 7:66 
0.64159131991915008 0.1680276261809327 1:93 2:128 3:205 4:1149 5:215 6:174 7:102 
0.64158633685658817 0.1680276261809327 1:104 2:143 3:175 4:1253 5:300 6:233 7:134 
0.64158633685658817 0.16808915161543181 1:66 2:82 3:111 4:511 5:129 6:82 7:64 
0.64158633685658817 0.1680105672942509 1:115 2:127 3:198 4:653 5:134 6:83 7:55 
0.64158633685658817 0.16801633329663274 1:95 2:112 3:162 4:507 5:349 6:114 7:73 
0.64158633685658817 0.16801633329663274 1:72 2:81 3:158 4:878 5:120 6:93 7:45 
0.64158633685658817 0.16801633329663274 1:61 2:98 3:150 4:928 5:152 6:113 7:66 
0.6415913045972006 0.16799455023911314 1:93 2:128 3:205 4:1184 5:215 6:174 7:102 
0.6415913045972006 0.16799455023911314 1:104 2:143 3:174 4:1294 5:300 6:233 7:134 
0.6415913045972006 0.16799455023911314 1:66 2:82 3:111 4:531 5:127 6:82 7:64 
0.6415913045972006 0.16799455023911314 1:115 2:127 3:200 4:675 5:134 6:83 7:55 
0.6415913045972006 0.16799427978754017 1:95 2:112 3:175 4:501 5:366 6:114 7:73 
0.6415913045972006 0.16799429497401891 1:72 2:81 3:158 4:903 5:120 6:93 7:45 
0.64181754870805041 0.16799429497401891 1:61 2:98 3:150 4:955 5:152 6:113 7:66 
0.64184423188543838 0.16799429497401891 1:93 2:128 3:205 4:1221 5:215 6:174 7:102 
0.64248200953841117 0.16797828205750909 1:104 2:143 3:175 4:1335 5:300 6:233 7:134 
0.64248200953841117 0.16797828205750909 1:66 2:82 3:111 4:549 5:128 6:82 7:64 
0.64160413963373297 0.16797828205750909 1:115 2:127 3:201 4:699 5:134 6:83 7:55 
0.64160413963373297 0.16798178245574102 1:95 2:112 3:167 4:528 5:373 6:114 7:73 
0.64210671130892116 0.16797691743018039 1:72 2:81 3:158 4:928 5:120 6:93 7:45 
0.64211387241735829 0.16797691743018039 1:61 2:98 3:150 4:982 5:152 6:113 7:66 
0.64211387241731366 0.16797691340236243 1:93 2:128 3:205 4:1258 5:215 6:174 7:102 
0.64211387241731366 0.16797691340236243 1:104 2:143 3:175 4:1378 5:300 6:233 7:134 
0.64211387241729034 0.1679774000181804 1:66 2:82 3:111 4:563 5:133 6:82 7:64 
0.64227331683026745 0.1679774000181804 1:115 2:127 3:202 4:723 5:134 6:83 7:55 
0.64227331683114919 0.16797727544363589 1:95 2:112 3:169 4:542 5:383 6:114 7:73 
0.64246686617013815 0.16797727544738328 1:72 2:81 3:158 4:955 5:120 6:93 7:45 
0.64246686617006432 0.16797525222249948 1:61 2:98 3:150 4:1010 5:152 6:113 7:66 
0.64246686617192572 0.16797171019293528 1:93 2:128 3:205 4:1296 5:215 6:174 7:102 
0.64164380552507227 0.16797171019293528 1:102 2:141 3:173 4:1394 5:291 6:229 7:130 
0.64164380552507227 0.16797170779774678 1:66 2:82 3:111 4:581 5:134 6:82 7:64 
0.6418665264712986 0.167970677854762 1:115 2:127 3:203 4:748 5:134 6:83 7:55 
0.64186652639888908 0.167970677854762 1:95 2:112 3:170 4:546 5:405 6:114 7:73 
0.64186652639888908 0.167970677854762 1:72 2:81 3:158 4:982 5:120 6:93 7:45 
0.64186652433626057 0.167970677854762 1:61 2:98 3:150 4:1039 5:152 6:113 7:66 
0.64195576362012341 0.1679712866113901 1:93 2:128 3:205 4:1336 5:215 6:174 7:102 
0.64195576362012341 0.1679712866113901 1:96 2:135 3:165 4:1375 5:276 6:222 7:126 
0.64195576362012341 0.1679712866113901 1:66 2:82 3:111 4:604 5:131 6:82 7:64 
0.64195576362012341 0.16797082502438154 1:115 2:127 3:209 4:769 5:134 6:83 7:55 
0.64205773974395197 0.16855016452298827 1:95 2:112 3:176 4:567 5:406 6:114 7:73 
0.64216707410472629 0.16855016452298827 1:72 2:81 3:158 4:1010 5:120 6:93 7:45 
0.64216707410472629 0.16855016452298827 1:61 2:98 3:150 4:1069 5:152 6:113 7:66 
0.6421670723898083 0.16857991398813127 1:93 2:128 3:205 4:1377 5:215 6:174 7:102 
0.6421670723898083 0.16876398390833447 1:97 2:123 3:161 4:1352 5:273 6:208 7:116 
0.64230460763981911 0.16870937451379098 1:66 2:82 3:111 4:626 5:130 6:82 7:64 
0.64233507589108707 0.16870937451379098 1:115 2:127 3:210 4:795 5:134 6:83 7:55 
0.64233507589108707 0.16870937451379098 1:95 2:112 3:177 4:595 5:406 6:114 7:73 
0.64233507589170891 0.16872952672410874 1:72 2:81 3:158 4:1039 5:120 6:93 7:45 
0.64233507589087024 0.16872952672410874 1:61 2:98 3:150 4:1100 5:152 6:113 7:66 
0.64247510025878696 0.16872952672410874 1:93 2:128 3:205 4:1419 5:215 6:174 7:102 
0.64247510025332843 0.16872952672410874 1:89 2:125 3:148 4:1341 5:261 6:192 7:121 
0.64247510024215848 0.1688184521032155 1:66 2:82 3:111 4:647 5:130 6:82 7:64 
0.64247510024215848 0.16876398574178098 1:115 2:127 3:201 4:833 5:134 6:83 7:55 
0.64252378041188618 0.16876398574178098 1:95 2:112 3:184 4:607 5:416 6:114 7:73 
0.64252378046975556 0.16876398574178098 1:72 2:81 3:158 4:1069 5:120 6:93 7:45 
0.64252378046975556 0.16876397101547647 1:61 2:98 3:150 4:1132 5:152 6:113 7:66 
0.64252378040207714 0.1688152623231946 1:93 2:128 3:205 4:1462 5:215 6:174 7:102 
0.64252450965513142 0.16881528218907432 1:84 2:118 3:141 4:1333 5:250 6:189 7:108 
0.64252450965482821 0.16881528218906983 1:66 2:82 3:111 4:663 5:136 6:82 7:64 
0.64252450965482821 0.16887181511863697 1:115 2:127 3:209 4:854 5:134 6:83 7:55 
0.64252450956840368 0.16881845163845305 1:95 2:112 3:186 4:620 5:432 6:114 7:73 
0.64170310981860645 0.16881845163845305 1:72 2:81 3:158 4:1100 5:120 6:93 7:45 
0.64252545122073235 0.16881845163845266 1:61 2:98 3:150 4:1165 5:152 6:113 7:66 
0.64178217694958817 0.16887180150422076 1:93 2:128 3:205 4:1507 5:215 6:174 7:102 
0.64252545122105209 0.16887180150422076 1:87 2:113 3:140 4:1332 5:222 6:191 7:95 
0.64158898821944244 0.16887181249403915 1:66 2:82 3:111 4:689 5:133 6:82 7:64 
0.64158898799716635 0.16887181249403915 1:115 2:127 3:207 4:887 5:134 6:83 7:55 
0.64158958503332575 0.16887181271568769 1:95 2:112 3:191 4:639 5:440 6:114 7:73 
0.64158958503332575 0.16881845163845283 1:72 2:81 3:158 4:1132 5:120 6:93 7:45 
0.64158575039979882 0.16881845163845283 1:61 2:98 3:150 4:1199 5:152 6:113 7:66 
0.64158602573703183 0.16881845163845238 1:93 2:128 3:205 4:1554 5:215 6:174 7:102 
0.64158602529035702 0.16889268721899481 1:89 2:103 3:127 4:1294 5:223 6:177 7:111 
0.64158602529035702 0.1688926872639912 1:66 2:82 3:111 4:713 5:133 6:82 7:64 
0.64159131993634999 0.1688926872639912 1:115 2:127 3:208 4:917 5:134 6:83 7:55 
0.64159132131510654 0.1688926872639912 1:95 2:112 3:189 4:663 5:450 6:114 7:73 
0.64159132131510654 0.16889051502409019 1:72 2:81 3:158 4:1165 5:120 6:93 7:45 
0.64159132131510477 0.16889050903222208 1:61 2:98 3:150 4:1234 5:152 6:113 7:66 
0.64159154086735737 0.16889050891786977 1:93 2:128 3:205 4:1602 5:215 6:174 7:102 
0.64159154163279042 0.16889050891786977 1:81 2:110 3:134 4:1298 5:206 6:176 7:89 
0.64159154040770261 0.16887594610819728 1:66 2:82 3:111 4:739 5:131 6:82 7:64 
0.64159154040770261 0.16887594610818935 1:115 2:127 3:213 4:945 5:134 6:83 7:55 
0.6415863562330133 0.16887594610818935 1:95 2:112 3:195 4:681 5:460 6:114 7:73 
0.64158633790776054 0.16887594610818935 1:72 2:81 3:158 4:1199 5:120 6:93 7:45 
0.64168003318988043 0.16876398574178092 1:61 2:98 3:150 4:1271 5:152 6:113 7:66 
0.64163024199020968 0.16855016845864479 1:93 2:128 3:205 4:1651 5:215 6:174 7:102 
0.64199119137928407 0.16855016845864479 1:73 2:105 3:132 4:1302 5:191 6:162 7:90 
0.64199119137928407 0.16855016845864479 1:66 2:82 3:111 4:766 5:129 6:82 7:64 
0.64198757316413912 0.16862967275226043 1:115 2:127 3:211 4:980 5:134 6:83 7:55 
0.64190779837319112 0.16870190848997513 1:95 2:112 3:200 4:705 5:466 6:114 7:73 
0.6418253183437459 0.16870411823879444 1:72 2:81 3:158 4:1235 5:120 6:93 7:45 
0.6418253183437459 0.16870937451379092 1:61 2:98 3:150 4:1308 5:152 6:113 7:66 
0.64178217694825368 0.16890628210762526 1:89 2:126 3:198 4:1647 5:209 6:169 7:101 
0.64178217694825368 0.16889051348399947 1:69 2:96 3:112 4:1260 5:207 6:157 7:96 
0.64173267607380846 0.16889051348399947 1:66 2:82 3:111 4:784 5:137 6:82 7:64 
0.64170428840966542 0.16889051348399942 1:115 2:127 3:214 4:1012 5:134 6:83 7:55 
0.64170310417128218 0.16887594876475648 1:95 2:112 3:196 4:726 5:485 6:114 7:73 
0.64170310981860645 0.16887594876475648 1:72 2:81 3:158 4:1271 5:120 6:93 7:45 
0.64159963717630131 0.16887594610819728 1:61 2:98 3:150 4:1347 5:152 6:113 7:66 
0.64159798891504827 0.16890629447290562 1:90 2:115 3:189 4:1636 5:196 6:163 7:98 
0.64159798891504982 0.16872962763937643 1:61 2:96 3:111 4:1251 5:180 6:150 7:96 
0.64159548427766055 0.1687238544439183 1:66 2:82 3:111 4:816 5:132 6:82 7:64 
0.64159311850527501 0.1687238544439183 1:115 2:127 3:216 4:1046 5:134 6:83 7:55 
0.64159311850527501 0.16869185690163918 1:95 2:112 3:201 4:747 5:497 6:114 7:73 
0.6415920657928107 0.16816389320049624 1:72 2:81 3:158 4:1309 5:120 6:93 7:45 
0.64159202281084216 0.16811623542394333 1:61 2:98 3:150 4:1388 5:152 6:113 7:66 
0.64159045313160956 0.16811623544541737 1:80 2:116 3:181 4:1620 5:193 6:158 7:90 
0.64159020923628285 0.16811623544541743 1:48 2:98 3:97 4:1238 5:186 6:149 7:89 
0.64159016078318543 0.16869185690163913 1:66 2:82 3:111 4:843 5:133 6:82 7:64 
0.64159015501616734 0.16887594610819723 1:115 2:127 3:216 4:1084 5:134 6:83 7:55 
0.64158898799716635 0.16857676500916313 1:95 2:112 3:205 4:767 5:512 6:114 7:73 
0.64158898799716635 0.16857676500916313 1:72 2:81 3:158 4:1349 5:120 6:93 7:45 
0.64158898821945221 0.16876251974789441 1:61 2:98 3:150 4:1430 5:152 6:113 7:66 
0.64158898821945221 0.16876299459867355 1:79 2:109 3:181 4:1594 5:190 6:152 7:84 
0.64158906828044859 0.16857991398813149 1:57 2:81 3:101 4:1237 5:176 6:147 7:73 
0.64158906828539908 0.16870937451379092 1:66 2:82 3:111 4:869 5:136 6:82 7:64 
0.64158828680825963 0.16831936460720409 1:115 2:127 3:216 4:1122 5:134 6:83 7:55 
0.64158810951030232 0.16831936453249069 1:95 2:112 3:211 4:786 5:520 6:112 7:73 
0.64158777052007943 0.16887594610818935 1:72 2:81 3:158 4:1390 5:120 6:93 7:45 
0.64158777052007943 0.16881528534614376 1:61 2:98 3:150 4:1473 5:152 6:113 7:66 
0.6415877703297499 0.16881528534614448 1:74 2:103 3:170 4:1593 5:167 6:147 7:90 
0.64158734708085818 0.16811154474394657 1:68 2:79 3:130 4:1241 5:128 6:134 7:61 
0.64158732044553091 0.16811154474395046 1:66 2:82 3:111 4:902 5:133 6:82 7:64 
0.64158642933987142 0.16862940697983131 1:115 2:127 3:215 4:1164 5:134 6:83 7:55 
0.64158640007418444 0.16862940697983131 1:91 2:104 3:208 4:779 5:514 6:110 7:70 
0.64158640007418555 0.16855040647069502 1:72 2:81 3:158 4:1432 5:120 6:93 7:45 
0.64158602529035702 0.16855040647069502 1:61 2:98 3:150 4:1518 5:152 6:113 7:66 
0.64158906828539908 0.16870937451379098 1:80 2:105 3:161 4:1566 5:179 6:133 7:79 
0.64159132129700835 0.16876398574179924 1:38 2:72 3:88 4:1046 5:340 6:125 7:99 
0.64159132129700835 0.16876398874058823 1:66 2:82 3:111 4:931 5:136 6:82 7:64 
0.64158576150406887 0.16881845163845255 1:115 2:127 3:218 4:1202 5:134 6:83 7:55 
0.64158574694769599 0.16881845253353833 1:89 2:97 3:205 4:762 5:505 6:107 7:68 
0.6421670723898083 0.16887181249403926 1:72 2:81 3:158 4:1476 5:120 6:93 7:45 
0.6421670723898083 0.16887177558703459 1:61 2:98 3:150 4:1565 5:152 6:113 7:66 
0.6415857374580235 0.16889050892971635 1:71 2:103 3:152 4:1566 5:145 6:143 7:78 
0.64158571359632 0.16889051504311559 1:53 2:78 3:93 4:1200 5:160 6:121 7:70 
0.64158571359631988 0.1688927079988522 1:66 2:82 3:111 4:963 5:136 6:82 7:64 
0.64158571359631966 0.16889275731033299 1:115 2:127 3:219 4:1245 5:134 6:83 7:55 
0.64189218646147828 0.16890628510386629 1:81 2:99 3:200 4:765 5:499 6:102 7:64 
0.64189218646147828 0.16890628565050908 1:72 2:81 3:158 4:1522 5:120 6:93 7:45 
0.64185850111845966 0.16887594610818935 1:61 2:98 3:150 4:1614 5:152 6:113 7:66 
0.64173126879319753 0.16887594610818935 1:57 2:105 3:151 4:1546 5:149 6:128 7:79 
0.64230460763973807 0.16881528534674589 1:54 2:67 3:99 4:1183 5:162 6:113 7:71 
0.64233507589108707 0.16881528534674589 1:66 2:82 3:111 4:993 5:140 6:82 7:64 
0.64233507589087024 0.16876299167056552 1:115 2:127 3:218 4:1279 5:134 6:83 7:55 
0.64233507589087024 0.1687629777916167 1:80 2:98 3:185 4:752 5:496 6:100 7:60 
0.64247510018286969 0.16869185690163918 1:72 2:81 3:158 4:1570 5:120 6:93 7:45 
0.64247510018353648 0.16869185690163918 1:61 2:98 3:150 4:1665 5:152 6:113 7:66 
0.64247510024215848 0.16857676500916319 1:59 2:94 3:141 4:1544 5:153 6:128 7:76 
0.64252378040207714 0.16857676500916319 1:63 2:78 3:109 4:1199 5:117 6:115 7:48 
0.64186652433626057 0.1683193646072042 1:66 2:82 3:111 4:1032 5:136 6:82 7:64 
0.64186652433626046 0.1683193646072042 1:108 2:120 3:215 4:1274 5:132 6:79 7:50 
0.64186652433626046 0.16817290189410655 1:75 2:95 3:195 4:751 5:484 6:87 7:61 
0.64186652433626046 0.16817290186859524 1:72 2:81 3:158 4:1620 5:120 6:93 7:45 
0.64159154040772237 0.1681115447439504 1:61 2:98 3:150 4:1718 5:152 6:113 7:66 
0.64159154040772237 0.16811156131814242 1:71 2:92 3:166 4:1517 5:135 6:89 7:71 
0.64159154032948085 0.16811623549307753 1:49 2:71 3:78 4:1192 5:134 6:100 7:54 
0.64159154032948085 0.16811623549307753 1:66 2:82 3:111 4:1070 5:135 6:82 7:64 
0.64252450953482521 0.16808949799906386 1:105 2:121 3:201 4:1263 5:120 6:78 7:54 
0.64159613039842045 0.16808962210594242 1:75 2:88 3:188 4:741 5:486 6:93 7:56 
0.64159206585668571 0.16808915161543181 1:72 2:81 3:158 4:1671 5:120 6:93 7:45 
0.64158898821944244 0.16806807381282457 1:61 2:98 3:150 4:1773 5:152 6:113 7:66 
0.64158739982802171 0.16801057053299501 1:71 2:83 3:140 4:1496 5:135 6:113 7:71 
0.6415857374580235 0.1680275523677377 1:42 2:66 3:87 4:1167 5:144 6:99 7:54 
0.64159130459720881 0.16801058469732105 1:66 2:82 3:111 4:1106 5:137 6:82 7:64 
0.64159130459720881 0.16799588362963447 1:103 2:114 3:199 4:1262 5:117 6:76 7:43 
0.64182793936420035 0.16799427998530414 1:71 2:79 3:176 4:738 5:473 6:90 7:52 
0.64182712821963162 0.16799429497057705 1:72 2:81 3:158 4:1725 5:120 6:93 7:45 
0.64190779837319112 0.16797828205614429 1:61 2:98 3:150 4:1831 5:152 6:113 7:66 
0.64198242629515234 0.16798178245541112 1:54 2:85 3:135 4:1505 5:132 6:100 7:64 
0.64170428840966542 0.16797691340236215 1:46 2:52 3:76 4:1151 5:145 6:106 7:64 
0.64173509340620216 0.1679769464642753 1:66 2:82 3:111 4:1143 5:140 6:82 7:64 
0.64252545122073235 0.16797727544363589 1:98 2:106 3:191 4:1250 5:112 6:75 7:50 
0.64252545122073235 0.16797727544363589 1:67 2:82 3:186 4:733 5:462 6:83 7:53 
0.64252378041188618 0.16797170779774678 1:72 2:81 3:158 4:1782 5:120 6:93 7:45 
0.6425245070265857 0.16797525222249748 1:61 2:98 3:150 4:1891 5:152 6:113 7:66 
0.6425245070265857 0.16797066489572143 1:65 2:79 3:150 4:1482 5:127 6:92 7:53 
0.6425245070265857 0.16848979253709168 1:30 2:66 3:77 4:998 5:283 6:89 7:63 
0.64247510025091459 0.16797080400026054 1:66 2:82 3:111 4:1187 5:138 6:82 7:64 
0.64247510025713084 0.16797128661138999 1:90 2:101 3:184 4:1251 5:106 6:72 7:47 
0.64252378036991808 0.16857991398813127 1:71 2:76 3:176 4:718 5:470 6:83 7:47 
0.64252378040207714 0.16857981735099448 1:72 2:81 3:158 4:1841 5:120 6:93 7:45 
0.64233507587807115 0.16870937451379098 1:61 2:98 3:150 4:1954 5:152 6:113 7:66 
0.64233507587807115 0.16876294961226851 1:59 2:81 3:134 4:1486 5:117 6:85 7:51 
0.64247510018284881 0.16872952672410879 1:62 2:54 3:110 4:1157 5:67 6:78 7:48 
0.64247510018286969 0.16876299156201191 1:66 2:82 3:111 4:1230 5:138 6:82 7:64 
0.64233507589087024 0.16881528515973049 1:88 2:105 3:173 4:1245 5:100 6:69 7:41 
0.64233507589087024 0.16881528525348882 1:68 2:63 3:351 4:728 5:288 6:68 7:45 
0.64166144722917295 0.16881528218906988 1:72 2:81 3:158 4:1903 5:120 6:93 7:45 
0.64227331683114919 0.16881528218903752 1:61 2:98 3:150 4:2019 5:152 6:113 7:66 
0.64159311850527501 0.16881845163845266 1:57 2:76 3:140 4:1446 5:109 6:85 7:56 
0.64184423188543838 0.16885795283761668 1:44 2:57 3:67 4:1134 5:113 6:91 7:49 
0.64173509340620216 0.16887181249403915 1:66 2:82 3:111 4:1273 5:141 6:82 7:64 
0.64248200953841117 0.16887181249403915 1:92 2:93 3:175 4:1233 5:110 6:60 7:42 
0.64211387241729034 0.16881845163845233 1:59 2:75 3:175 4:714 5:446 6:70 7:50 
0.64169759751181354 0.16881844957267728 1:72 2:81 3:158 4:1968 5:120 6:93 7:45 
0.64186652433626057 0.16890628210762143 1:61 2:98 3:149 4:2061 5:150 6:109 7:66 
0.64158759278222255 0.16890628232466037 1:38 2:58 3:90 4:1465 5:141 6:94 7:65 
0.64195576362034057 0.16889050891786977 1:33 2:58 3:70 4:1132 5:121 6:76 7:54 
0.64158602524457797 0.16889050892480978 1:66 2:82 3:111 4:1321 5:140 6:82 7:64 
0.64224922481576918 0.1688759461081894 1:83 2:94 3:170 4:1225 5:97 6:60 7:33 
0.64216707238917736 0.16887594607756412 1:69 2:61 3:165 4:706 5:456 6:74 7:42 
0.64198826129516406 0.16855016452298816 1:72 2:81 3:158 4:2036 5:120 6:93 7:45 
0.64158633685658817 0.1689062860784829 1:56 2:91 3:145 4:2049 5:144 6:107 7:64 
0.64233507589087024 0.16870937451379087 1:47 2:74 3:126 4:1434 5:108 6:89 7:53 
0.64165964100441286 0.16870937451379087 1:43 2:59 3:63 4:1119 5:99 6:88 7:41 
0.64173126879245701 0.16889275729613457 1:66 2:82 3:111 4:1370 5:141 6:82 7:64 
0.64159154086735737 0.16889275731032855 1:77 2:90 3:164 4:1238 5:88 6:54 7:34 
0.64159403777671509 0.16890629447290556 1:53 2:61 3:164 4:703 5:449 6:69 7:43 
0.64247510018286969 0.16890629447290556 1:72 2:81 3:158 4:2107 5:120 6:93 7:45 
0.6419824262951519 0.16881528534674589 1:55 2:89 3:138 4:2023 5:139 6:105 7:60 
0.64252378040207714 0.16881528534674584 1:43 2:68 3:95 4:1457 5:113 6:78 7:46 
0.64252450957928797 0.16811623547805177 1:39 2:46 3:55 4:1115 5:117 6:78 7:46 
0.64182712821963162 0.1681039027537482 1:66 2:82 3:111 4:1423 5:141 6:82 7:64 
0.64199119137928407 0.16809109564902064 1:78 2:82 3:164 4:1220 5:92 6:48 7:38 
0.64158906828539908 0.16808787212033355 1:50 2:63 3:160 4:703 5:449 6:59 7:41 
0.64252450965482821 0.16802762618093264 1:72 2:77 3:152 4:2114 5:115 6:90 7:44 
0.64182712821963162 0.16802762618093264 1:52 2:89 3:132 4:2015 5:132 6:95 7:55 
0.64159048896554149 0.16799427998530425 1:39 2:61 3:105 4:1445 5:96 6:74 7:49 
0.64158640007418555 0.1679945502391112 1:24 2:35 3:50 4:843 5:403 6:65 7:52 
0.6418253183437459 0.16797691340236243 1:66 2:82 3:111 4:1478 5:141 6:82 7:64 
0.64159202281084216 0.16797828205614423 1:71 2:82 3:202 4:1165 5:82 6:51 7:38 
0.64159132129700103 0.16797170779774673 1:63 2:81 3:579 4:587 5:102 6:49 7:26 
0.64159154040772237 0.16797727544363594 1:69 2:76 3:142 4:2102 5:111 6:87 7:38 
0.64159798891504982 0.16797128661138988 1:52 2:86 3:121 4:2003 5:127 6:89 7:58 
0.64198826129516406 0.16797128661138988 1:40 2:58 3:82 4:1397 5:119 6:85 7:48 
0.64247510025878685 0.16870411588069822 1:39 2:51 3:86 4:1110 5:63 6:65 7:27 
0.64159399544945894 0.16857981735099437 1:66 2:82 3:111 4:1535 5:142 6:82 7:64 
0.64189218646147828 0.16881528525348871 1:66 2:87 3:142 4:1211 5:83 6:53 7:30 
0.64178217694825368 0.16881845103386967 1:55 2:55 3:327 4:695 5:271 6:54 7:27 
0.64165964100441286 0.16885795283761662 1:40 2:67 3:90 4:2029 5:214 6:95 7:62 
0.64159542252994961 0.16881845163845299 1:60 2:87 3:132 4:1991 5:113 6:83 7:44 
0.64158739975466195 0.16881845163845244 1:38 2:49 3:89 4:1440 5:91 6:79 7:42 
0.64159202281084216 0.16881845130157497 1:30 2:34 3:55 4:1113 5:91 6:71 7:46 
0.64158898799716646 0.16889050892480972 1:65 2:80 3:108 4:1555 5:143 6:79 7:61 
0.64158898821945221 0.16889050892480972 1:59 2:64 3:90 4:1258 5:79 6:56 7:50 
0.64159015501613359 0.16855040505043034 1:39 2:63 3:158 4:667 5:432 6:63 7:32 
0.64158898821944244 0.16855040505043034 1:63 2:68 3:136 4:2069 5:104 6:77 7:39 
0.64158898821944244 0.16889050892480961 1:46 2:77 3:110 4:1971 5:124 6:83 7:52 
0.64158759278222255 0.16889050892480961 1:35 2:54 3:100 4:1417 5:79 6:75 7:48 
0.64158734282341567 0.16890628232466037 1:27 2:36 3:64 4:1110 5:67 6:64 7:40 
0.64158640007418521 0.1689133632489212 1:61 2:72 3:106 4:1554 5:136 6:77 7:58 
0.6415913046342856 0.16885800704867926 1:67 2:64 3:174 4:1174 5:71 6:43 7:41 
0.64158777052007943 0.16885800704867909 1:47 2:51 3:316 4:681 5:259 6:53 7:31 
0.64159131993634988 0.16856822755145684 1:58 2:70 3:134 4:2052 5:97 6:77 7:37 
0.64216707238861992 0.16857676501707275 1:46 2:69 3:114 4:1967 5:115 6:77 7:41 
0.64158640007418555 0.16866346048049141 1:33 2:49 3:108 4:1417 5:76 6:68 7:40 
0.64159130459720881 0.16845394316703211 1:29 2:36 3:53 4:1113 5:51 6:72 7:37 
0.64159131993634999 0.16816389376848545 1:59 2:73 3:98 4:1544 5:126 6:74 7:61 
0.64159045313160956 0.16811623549307741 1:62 2:71 3:127 4:1185 5:83 6:42 7:30 
0.64159154040772237 0.16808915161543175 1:47 2:48 3:147 4:675 5:426 6:51 7:36 
0.64216707238917736 0.16808762567408014 1:55 2:60 3:130 4:2049 5:95 6:76 7:33 
0.64158777052007943 0.16801056727088082 1:54 2:61 3:115 4:1964 5:93 6:80 7:41 
0.64233507591735339 0.16799588362963452 1:28 2:47 3:77 4:1401 5:71 6:64 7:38 
0.64158732044600897 0.16799427998526206 1:36 2:29 3:39 4:1101 5:65 6:67 7:38 
0.64252378040014113 0.16798178245541084 1:58 2:72 3:94 4:1541 5:125 6:69 7:54 
0.64195576362034057 0.16797691340236226 1:57 2:62 3:136 4:1189 5:79 6:39 7:26 
0.6425245070265857 0.16797740001818046 1:42 2:82 3:553 4:564 5:95 6:35 7:26 
0.64159154086411818 0.16797170779774284 1:26 2:35 3:43 4:1089 5:65 6:62 7:35 
0.64158828680825963 0.167970677854762 1:56 2:65 3:89 4:1528 5:122 6:75 7:56 
0.64247510024089682 0.16857991398813116 1:54 2:64 3:136 4:1180 5:59 6:33 7:36 
0.64164380552250311 0.16855016452298821 1:49 2:66 3:92 4:1540 5:94 6:67 7:43 
0.64158602524457797 0.16876398390833508 1:52 2:55 3:77 4:1224 5:68 6:46 7:44 
0.64198826129516418 0.16876398390833508 1:21 2:42 3:47 4:211 5:109 6:95 7:54 
0.64159130459720781 0.16881526232319466 1:139 2:146 3:335 4:373 5:171 6:129 7:102 
0.64205773972926883 0.1688152783087935 1:7 2:38 3:104 4:201 5:140 6:40 7:11 
0.64158898821945221 0.16887181271512114 1:51 2:79 3:119 4:363 5:216 6:263 7:231 
0.64233507591735339 0.16887181271512114 1:113 2:167 3:197 4:415 5:196 6:184 7:138 
0.64159020923628285 0.16887174444930686 1:150 2:199 3:244 4:539 5:324 6:242 7:205 
0.64159020923628285 0.16890628232466037 1:113 2:128 3:191 4:367 5:200 6:206 7:152 
0.64170310981860645 0.16889050885534757 1:102 2:134 3:189 4:399 5:222 6:202 7:145 
0.64252450956840368 0.16887594610818946 1:0 2:2 3:9 4:247 5:65 6:68 7:90 
0.64252378040014113 0.16876398538519061 1:174 2:185 3:278 4:567 5:292 6:229 7:159 
0.64252378040014113 0.16876398574178086 1:224 2:223 3:268 4:526 5:260 6:213 7:183 
0.64182712821963162 0.16890628232466925 1:132 2:218 3:251 4:515 5:256 6:297 7:219 
0.64233507589069094 0.16887181708543908 1:162 2:181 3:298 4:598 5:329 6:252 7:207 
0.64173509340620216 0.16811153521499023 1:161 2:221 3:284 4:579 5:320 6:267 7:240 
0.64164380552506928 0.16862941064843806 1:89 2:155 3:180 4:420 5:224 6:195 7:145 
0.64227331683114919 0.16855040647069502 1:157 2:197 3:221 4:483 5:259 6:199 7:168 
0.64211387241729034 0.16855040505043023 1:111 2:174 3:177 4:464 5:276 6:246 7:169 
0.64186652433626046 0.16876398610656468 1:157 2:174 3:227 4:476 5:205 6:197 7:140 
0.64195576362034057 0.16881844569323085 1:148 2:217 3:266 4:617 5:314 6:308 7:251 
0.64216707238917736 0.1688718127156878 1:139 2:154 3:222 4:451 5:266 6:235 7:146 
0.64233507591735339 0.16889050892971641 1:149 2:216 3:233 4:541 5:251 6:211 7:163 
0.64252378040014113 0.16889275731032849 1:21 2:42 3:47 4:220 5:109 6:95 7:54 
0.64252450701890051 0.16890628510386624 1:139 2:146 3:337 4:387 5:177 6:129 7:102 
0.64151498564407716 0.16795007730996026 1:7 2:38 3:104 4:201 5:147 6:40 7:11 
0.64198757316413912 0.1689133632489529 1:50 2:75 3:118 4:359 5:213 6:230 7:202 
0.64159311850527501 0.16881528218906983 1:99 2:141 3:175 4:425 5:187 6:150 7:115 
0.64158777052007943 0.16876299459867355 1:150 2:199 3:244 4:567 5:324 6:242 7:205 
0.64159130459720881 0.16869185690163913 1:113 2:128 3:191 4:387 5:200 6:206 7:152 
0.64224922481576918 0.16845394316706774 1:102 2:134 3:189 4:420 5:222 6:202 7:145 
0.64198826129516406 0.16857676500916324 1:0 2:2 3:6 4:237 5:60 6:63 7:83 
0.64182793936420035 0.16817290186859507 1:174 2:185 3:278 4:592 5:292 6:229 7:159 
0.64173509340620216 0.1681115372912621 1:220 2:216 3:264 4:542 5:254 6:208 7:177 
0.64165964100441286 0.16809109564902064 1:117 2:198 3:226 4:487 5:232 6:262 7:197 
0.64159516756820201 0.16811623544541743 1:162 2:181 3:298 4:627 5:329 6:252 7:207 
0.64159190633714225 0.16802762618093264 1:158 2:219 3:282 4:602 5:318 6:263 7:236 
0.64158958503332464 0.16806041539138855 1:102 2:152 3:174 4:408 5:194 6:167 7:124 
0.64158898821944244 0.16799588362963447 1:157 2:197 3:221 4:508 5:259 6:199 7:168 
0.64158759278222255 0.16799569750438348 1:111 2:174 3:177 4:488 5:276 6:246 7:169 
0.6415873428239085 0.16799429497057705 1:157 2:174 3:227 4:499 5:205 6:197 7:140 
0.64158633813437538 0.16797727544363594 1:148 2:217 3:266 4:647 5:314 6:308 7:251 
0.6415913045972006 0.16881528534614387 1:139 2:154 3:222 4:476 5:266 6:235 7:146 
0.6415872721891297 0.16889268726399115 1:149 2:216 3:233 4:567 5:251 6:211 7:163 
0.64159131991915008 0.16876397104516383 1:21 2:42 3:47 4:230 5:109 6:95 7:54 
0.64159202281301497 0.16887594876475648 1:139 2:146 3:346 4:400 5:177 6:129 7:102 
0.6415163737786298 0.1679500830658946 1:7 2:38 3:104 4:204 5:150 6:40 7:11 
0.64233507587807115 0.16855016452298832 1:48 2:66 3:107 4:343 5:187 6:204 7:193 
0.64252378037009539 0.16797688264349686 1:82 2:145 3:147 4:387 5:162 6:139 7:108 
0.64195576362034057 0.16855040505043023 1:150 2:199 3:244 4:595 5:324 6:242 7:205 
0.64164380552506928 0.16799455023911319 1:113 2:128 3:191 4:407 5:200 6:206 7:152 
0.6415864000887409 0.16799455023911319 1:102 2:134 3:189 4:441 5:222 6:202 7:145 
0.64159132131510477 0.16817274372998281 1:0 2:2 3:7 4:231 5:52 6:60 7:76 
0.64159307537108556 0.1682479568058855 1:174 2:185 3:278 4:618 5:292 6:229 7:159 
0.64252450957928797 0.16889272031128127 1:207 2:193 3:235 4:512 5:227 6:187 7:161 
0.64252378040014113 0.16889272031128127 1:93 2:153 3:181 4:467 5:212 6:241 7:215 
0.64247510021267085 0.16889272031128133 1:158 2:179 3:285 4:634 5:324 6:247 7:202 
0.64186652639888908 0.16889270799885225 1:154 2:210 3:259 4:583 5:265 6:257 7:197 
0.64195576362033702 0.1685799139881311 1:95 2:141 3:168 4:373 5:160 6:146 7:107 
0.64195576362033702 0.1685799139881311 1:157 2:197 3:221 4:534 5:259 6:199 7:168 
0.64195576362033702 0.16889050892480884 1:111 2:174 3:177 4:512 5:276 6:246 7:169 
0.64166144722917295 0.16889050892971647 1:157 2:174 3:227 4:524 5:205 6:197 7:140 
0.64159154086731518 0.16890628232466937 1:148 2:217 3:266 4:678 5:314 6:308 7:251 
0.64159154032948085 0.16890628232466937 1:139 2:154 3:222 4:501 5:266 6:235 7:146 
0.64159131991915008 0.16887177568912948 1:149 2:216 3:233 4:594 5:251 6:211 7:163 
0.64159130459720881 0.16887594876475642 1:21 2:42 3:47 4:240 5:109 6:95 7:54 
0.6415873428239085 0.16881528534614415 1:139 2:146 3:340 4:430 5:175 6:129 7:102 
0.64252450365336478 0.16811623392651592 1:7 2:38 3:104 4:202 5:158 6:40 7:11 
0.64158812476687099 0.16881528534614454 1:37 2:56 3:97 4:324 5:159 6:200 7:165 
0.64159798891504982 0.1687629915620118 1:76 2:130 3:159 4:362 5:151 6:110 7:99 
0.64160424335894151 0.16876297779161659 1:150 2:199 3:244 4:624 5:324 6:242 7:205 
0.64173509340620216 0.16857981735099437 1:113 2:128 3:191 4:428 5:200 6:206 7:152 
0.64198242629515234 0.1686013437983549 1:102 2:134 3:189 4:463 5:222 6:202 7:145 
0.64252450956661655 0.16855040505043012 1:0 2:2 3:7 4:227 5:44 6:56 7:67 
0.64252450701890051 0.16855040505043012 1:174 2:185 3:278 4:645 5:292 6:229 7:159 
0.64252378040978075 0.16797727544363589 1:174 2:181 3:213 4:495 5:212 6:167 7:158 
0.64252378040004965 0.16797727544728608 1:96 2:172 3:194 4:452 5:192 6:213 7:160 
0.64247510025091459 0.1679769134023622 1:149 2:164 3:256 4:611 5:289 6:223 7:192 
0.6424751002125193 0.1679769132867393 1:127 2:171 3:230 4:548 5:263 6:233 7:188 
0.64246686617004101 0.16885795283761662 1:79 2:129 3:147 4:372 5:168 6:115 7:101 
0.64233507589104144 0.16872962763937643 1:157 2:197 3:221 4:560 5:259 6:199 7:168 
0.64233507589087024 0.16824795697326195 1:111 2:174 3:177 4:536 5:276 6:246 7:169 
0.64230460768061592 0.16817290186859496 1:157 2:174 3:227 4:549 5:205 6:197 7:140 
0.64224922481576918 0.16808787212033349 1:143 2:210 3:260 4:679 5:304 6:291 7:237 
0.64216707238917736 0.16808949796092498 1:139 2:154 3:222 4:528 5:266 6:235 7:146 
0.64211387241729034 0.16808762567408014 1:143 2:210 3:224 4:606 5:243 6:205 7:155 
0.64211387241729034 0.16802762621840622 1:21 2:42 3:47 4:250 5:109 6:95 7:54 
0.64211387241729034 0.16799429497054041 1:139 2:146 3:362 4:432 5:174 6:129 7:102 
0.64155916763647602 0.16886412818887986 1:7 2:38 3:104 4:203 5:164 6:40 7:11 
0.64195576362033702 0.1679942797844583 1:33 2:61 3:81 4:308 5:141 6:184 7:165 
0.64186652639888908 0.16798076761333786 1:70 2:112 3:129 4:362 5:143 6:101 7:95 
0.64186652433626057 0.16797727544728608 1:143 2:187 3:228 4:628 5:305 6:228 7:193 
0.64166144722917295 0.16797524575000261 1:113 2:128 3:191 4:449 5:200 6:206 7:152 
0.64166144722917295 0.16855040505043023 1:102 2:134 3:189 4:485 5:222 6:202 7:145 
0.64160413963373297 0.16797128661138988 1:0 2:2 3:8 4:222 5:47 6:48 7:56 
0.64159154040770261 0.16870937451379109 1:174 2:185 3:278 4:672 5:292 6:229 7:159 
0.64159154032947141 0.16872952672410879 1:159 2:169 3:187 4:466 5:208 6:179 7:147 
0.64159154032947141 0.16881528534614454 1:91 2:143 3:181 4:432 5:169 6:204 7:148 
0.64159132129699969 0.16881844462156859 1:140 2:153 3:240 4:593 5:272 6:200 7:168 
0.64159131991915008 0.16881845163845266 1:131 2:176 3:211 4:517 5:237 6:199 7:187 
0.6415913045972006 0.16887181271512114 1:67 2:107 3:127 4:333 5:178 6:143 7:82 
0.6415913045972006 0.16889270799885214 1:157 2:197 3:221 4:587 5:259 6:199 7:168 
0.64159130459720881 0.16881844462157125 1:111 2:174 3:177 4:561 5:276 6:246 7:169 
0.64169759751181354 0.16890628602133601 1:157 2:174 3:227 4:574 5:205 6:197 7:140 
0.64158633685658817 0.16855016452298832 1:129 2:188 3:237 4:652 5:276 6:274 7:218 
0.64198826129516418 0.16876398574178086 1:139 2:154 3:222 4:554 5:266 6:235 7:146 
0.64199119137928407 0.16887180150422865 1:132 2:189 3:211 4:577 5:225 6:184 7:148 
0.64182712821963162 0.16890628603261826 1:21 2:42 3:47 4:260 5:109 6:95 7:54 
0.64178217694825368 0.16811154474395035 1:139 2:146 3:372 4:444 5:176 6:129 7:102 
0.64155904152100385 0.16886415014784861 1:7 2:38 3:104 4:205 5:168 6:40 7:11 
0.64173509340620216 0.16831936453249069 1:30 2:40 3:80 4:301 5:146 6:156 7:153 
0.64173267607380846 0.16862941064843806 1:68 2:103 3:114 4:344 5:124 6:108 7:87 
0.64170428840966542 0.16862940697983131 1:127 2:174 3:215 4:602 5:287 6:214 7:176 
0.64159798891505038 0.16855016452298816 1:109 2:124 3:184 4:450 5:182 6:199 7:142 
0.64159307537099619 0.16855040647069497 1:102 2:134 3:187 4:504 5:222 6:200 7:145 
0.64159311850527534 0.16862967275232887 1:0 2:2 3:3 4:215 5:45 6:44 7:48 
0.64159190633714225 0.16870411588069822 1:163 2:167 3:263 4:645 5:268 6:207 7:149 
0.64159016078318543 0.16876398574179918 1:153 2:149 3:188 4:453 5:181 6:150 7:130 
0.64159015501666805 0.16881844957267739 1:76 2:126 3:135 4:416 5:163 6:178 7:166 
0.64158958503332464 0.16881844462157114 1:119 2:135 3:233 4:563 5:251 6:187 7:160 
0.6415891882746263 0.16881845210321555 1:113 2:173 3:206 4:516 5:220 6:187 7:150 
0.64158810951030232 0.16887181249403921 1:76 2:102 3:122 4:340 5:138 6:110 7:92 
0.64158759278222255 0.16887181271512119 1:157 2:197 3:221 4:614 5:259 6:199 7:168 
0.64158734708085818 0.16889050892480972 1:111 2:174 3:177 4:587 5:276 6:246 7:169 
0.6415872721891297 0.16889051348399947 1:157 2:174 3:227 4:600 5:205 6:197 7:140 
0.64158640007418555 0.16889270799885214 1:103 2:153 3:198 4:583 5:255 6:272 7:227 
0.6415864000887409 0.16889269009704982 1:139 2:154 3:222 4:582 5:266 6:235 7:146 
0.64159131991915008 0.16890628603261842 1:133 2:171 3:192 4:524 5:245 6:191 7:143 
0.64159132129700103 0.16890628817133285 1:21 2:42 3:47 4:271 5:109 6:95 7:54 
0.64158575039979882 0.16887594610818923 1:139 2:146 3:376 4:464 5:176 6:129 7:102 
0.64252545122072746 0.16885800704867776 1:7 2:38 3:104 4:213 5:167 6:40 7:11 
0.64216707238917736 0.16881528218906977 1:35 2:62 3:71 4:287 5:139 6:155 7:111 
0.6415872721891297 0.16881528534674589 1:79 2:111 3:129 4:317 5:108 6:79 7:68 
0.64159154163279042 0.16881528534614454 1:117 2:163 3:197 4:584 5:252 6:202 7:169 
0.64159202281084216 0.16876297779161659 1:109 2:132 3:160 4:443 5:162 6:190 7:132 
0.64233507589069094 0.1685682275514569 1:96 2:128 3:178 4:483 5:202 6:187 7:136 
0.64233507589087024 0.16869185690163913 1:0 2:1 3:5 4:210 5:39 6:36 7:50 
0.64247510024089682 0.16857676501707269 1:150 2:158 3:241 4:615 5:253 6:196 7:136 
0.64252450957088647 0.16857676500916319 1:140 2:160 3:163 4:449 5:176 6:131 7:100 
0.64195576362033702 0.16831936453249069 1:73 2:119 3:136 4:400 5:143 6:171 7:147 
0.64195576362033702 0.16816389320049635 1:114 2:126 3:212 4:550 5:225 6:171 7:140 
0.64216707410471896 0.16817290186859513 1:104 2:142 3:171 4:499 5:192 6:177 7:153 
0.64159154032948085 0.16811153729126221 1:69 2:105 3:137 4:326 5:116 6:98 7:75 
0.64164380552506928 0.16811154525192035 1:157 2:197 3:221 4:642 5:259 6:199 7:168 
0.64158633813437538 0.16808787212033349 1:111 2:174 3:177 4:613 5:276 6:246 7:169 
0.64158727218911882 0.16811623549307747 1:157 2:174 3:227 4:627 5:205 6:197 7:140 
0.64159132131510477 0.1680876256740802 1:102 2:169 3:210 4:605 5:247 6:222 7:187 
0.64182712821963162 0.16808962210594242 1:128 2:144 3:205 4:567 5:247 6:215 7:131 
0.64252545122134186 0.16808917946795215 1:119 2:163 3:183 4:532 5:179 6:157 7:125 
0.64159190633714225 0.16805245957817999 1:21 2:42 3:47 4:281 5:109 6:95 7:54 
0.64158919062466446 0.16801057053299506 1:139 2:146 3:380 4:485 5:176 6:129 7:102 
0.64230458107961386 0.16866345353377094 1:7 2:38 3:104 4:208 5:179 6:40 7:11 
0.64173509340620216 0.16799455023911319 1:31 2:39 3:81 4:273 5:119 6:147 7:125 
0.64252450956661655 0.16799569750438353 1:67 2:87 3:134 4:316 5:104 6:99 7:57 
0.64247510025878685 0.16799427998530414 1:110 2:162 3:180 4:543 5:251 6:183 7:164 
0.64252378037009539 0.16799430357976147 1:99 2:103 3:164 4:418 5:166 6:174 7:128 
0.64233507587807115 0.16797828205614429 1:85 2:114 3:173 4:474 5:196 6:157 7:130 
0.64247510018286969 0.16797727544363594 1:0 2:1 3:4 4:217 5:32 6:38 7:50 
0.64247510024215848 0.16797691743018051 1:143 2:141 3:222 4:601 5:239 6:182 7:128 
0.64247510024089682 0.16876398574179929 1:136 2:126 3:151 4:427 5:158 6:127 7:102 
0.64233507589087024 0.16860951096721932 1:65 2:113 3:135 4:396 5:145 6:159 7:117 
0.64233507589087024 0.16889269009704971 1:106 2:126 3:189 4:528 5:219 6:139 7:135 
0.64246686617006432 0.16889275731032855 1:95 2:139 3:158 4:492 5:192 6:162 7:141 
0.6424668661719255 0.16887594610818935 1:59 2:98 3:121 4:322 5:113 6:89 7:70 
0.64186652639888908 0.16870190848997507 1:157 2:197 3:221 4:671 5:259 6:199 7:168 
0.64195576362012341 0.16889272031128133 1:111 2:174 3:177 4:640 5:276 6:246 7:169 
0.64195576362008966 0.16887181708543914 1:157 2:174 3:227 4:654 5:205 6:197 7:140 
0.64195576362044804 0.16887181271512125 1:102 2:119 3:181 4:554 5:229 6:213 7:188 
0.64195576362044804 0.16890628602133601 1:116 2:132 3:196 4:551 5:226 6:202 7:124 
0.64211387241731366 0.16881842587054385 1:111 2:158 3:167 4:524 5:176 6:151 7:109 
0.64211387241729034 0.16872952672410879 1:21 2:42 3:47 4:293 5:109 6:95 7:54 
0.64216707146417185 0.16881528218906983 1:139 2:146 3:382 4:508 5:176 6:129 7:102 
0.64160421674165125 0.16824795018250582 1:7 2:38 3:104 4:213 5:182 6:40 7:11 
0.64216707238917736 0.16855040647055575 1:26 2:48 3:66 4:287 5:119 6:127 7:121 
0.64216707238917736 0.16797171019293533 1:55 2:74 3:105 4:316 5:98 6:92 7:67 
0.64216707238917736 0.16862967039421939 1:110 2:145 3:168 4:550 5:230 6:166 7:143 
0.64216707410460061 0.16855016845864484 1:88 2:92 3:150 4:414 5:149 6:159 7:119 
0.64224922481576918 0.16799429497057711 1:84 2:106 3:149 4:471 5:161 6:159 7:122 
0.46928572605755681 0.12320056803440615 1:0 2:0 3:5 4:214 5:26 6:33 7:43 
0.64227331683114919 0.16801057053299506 1:134 2:124 3:199 4:593 5:221 6:161 7:121 
0.64230460763973807 0.16797828205614418 1:123 2:137 3:150 4:415 5:136 6:122 7:107 
0.64230460772037912 0.16798178245541112 1:58 2:91 3:130 4:373 5:128 6:146 7:144 
0.64166144722917295 0.16799424130152485 1:100 2:102 3:175 4:513 5:184 6:152 7:123 
0.64183410403157981 0.16866346049913133 1:93 2:104 3:156 4:477 5:171 6:151 7:137 
0.64186652433625802 0.16845394316703199 1:61 2:90 3:90 4:312 5:108 6:91 7:74 
0.64186652433625802 0.16889270799885225 1:157 2:197 3:221 4:701 5:259 6:199 7:168 
0.64159154163279042 0.16887594610818935 1:111 2:174 3:177 4:668 5:276 6:246 7:169 
0.64160413963373297 0.16890628817133291 1:157 2:174 3:227 4:682 5:205 6:197 7:140 
0.64164380552250311 0.16887180150422093 1:86 2:123 3:146 4:537 5:226 6:204 7:178 
0.64164380552506928 0.16881527839328686 1:122 2:145 3:170 4:550 5:227 6:162 7:107 
0.64159154032948085 0.16881527832112986 1:101 2:144 3:149 4:494 5:164 6:147 7:111 
0.64159154032947141 0.16881527832112975 1:21 2:42 3:47 4:304 5:109 6:95 7:54 
0.64159154040772237 0.16876398574179935 1:139 2:146 3:401 4:510 5:181 6:129 7:102 
0.64158571359630712 0.16881528218906633 1:7 2:38 3:104 4:212 5:190 6:40 7:11 
0.64159154040772237 0.16891335922185863 1:27 2:27 3:56 4:284 5:103 6:137 7:111 
0.64159154040768684 0.16855040647055575 1:67 2:81 3:89 4:297 5:99 6:78 7:62 
0.64159132129699969 0.16862967039421939 1:105 2:133 3:162 4:537 5:212 6:167 7:127 
0.64159132129699614 0.16889050892971647 1:85 2:103 3:129 4:417 5:132 6:152 7:113 
0.64159132131510477 0.16889050892971647 1:84 2:103 3:143 4:445 5:158 6:152 7:107 
0.46903510871120829 0.12310887292873607 1:0 2:0 3:5 4:213 5:27 6:33 7:43 
0.64159132131510477 0.16889050885534757 1:119 2:126 3:181 4:577 5:199 6:166 7:113 
0.6415913045972006 0.16816389373932378 1:117 2:112 3:132 4:396 5:131 6:108 7:107 
0.6415913046342856 0.16817290186671746 1:58 2:67 3:105 4:387 5:127 6:132 7:130 
0.6415913046342856 0.16817290186817202 1:100 2:133 3:235 4:438 5:181 6:119 7:105 
0.64159131993634988 0.16817290189410655 1:75 2:111 3:158 4:456 5:168 6:137 7:125 
0.64158633813437538 0.16802755236773764 1:55 2:76 3:88 4:298 5:104 6:83 7:78 
0.64158615625325244 0.1680163332844461 1:157 2:197 3:221 4:731 5:259 6:199 7:168 
0.64158633685658817 0.16808762567408009 1:111 2:174 3:177 4:696 5:276 6:246 7:169 
0.64158810951030232 0.16808762567408009 1:155 2:171 3:226 4:701 5:202 6:196 7:139 
0.64158777052007943 0.16799429497057722 1:86 2:135 3:175 4:563 5:192 6:188 7:154 
0.64158640007418555 0.16799429497057722 1:109 2:125 3:176 4:522 5:201 6:177 7:99 
0.64158727218911882 0.16799429497057722 1:94 2:136 3:139 4:492 5:151 6:123 7:107 
0.64160059997711216 0.16801057053299506 1:21 2:42 3:47 4:316 5:109 6:95 7:54 
0.64159307537099619 0.16797828205614423 1:139 2:146 3:423 4:519 5:177 6:129 7:102 
0.64158395052893102 0.16831072926280494 1:7 2:38 3:104 4:212 5:198 6:40 7:11 
0.6415930753737753 0.16797517425077202 1:20 2:32 3:51 4:274 5:118 6:113 7:94 
0.64159190633714225 0.16797694646427547 1:43 2:63 3:87 4:297 5:98 6:76 7:44 
0.64159165126272366 0.16798178245541112 1:103 2:121 3:160 4:513 5:185 6:148 7:125 
0.64158898821945221 0.16797525222249754 1:81 2:78 3:127 4:410 5:140 6:138 7:96 
0.64158898821945221 0.16797525222249754 1:70 2:94 3:134 4:444 5:152 6:141 7:103 
0.64198242629514168 0.16869185690163657 1:0 2:1 3:4 4:209 5:25 6:29 7:38 
0.6415891882746263 0.16797525222249754 1:107 2:121 3:198 4:569 5:169 6:158 7:100 
0.64173267607380846 0.16797740001818612 1:105 2:112 3:125 4:383 5:130 6:124 7:88 
0.64173267607380846 0.16797128661138988 1:46 2:94 3:115 4:380 5:126 6:129 7:87 
0.64170428840966542 0.16855040647055569 1:80 2:87 3:163 4:492 5:177 6:128 7:107 
0.64199119137928407 0.16855040647055569 1:81 2:99 3:133 4:444 5:161 6:136 7:123 
0.64199119137928407 0.16797071508671479 1:48 2:72 3:88 4:298 5:100 6:75 7:63 
0.64199119137928407 0.16862967039421928 1:157 2:197 3:221 4:762 5:259 6:199 7:168 
0.64199119137928407 0.16862967039421928 1:111 2:174 3:177 4:725 5:276 6:246 7:169 
0.64252450956840368 0.16862967039421928 1:148 2:162 3:207 4:687 5:196 6:181 7:129 
0.64252450965482821 0.16855016452298821 1:80 2:104 3:138 4:521 5:176 6:187 7:152 
0.64252450965482821 0.16885800704867898 1:100 2:109 3:146 4:517 5:186 6:172 7:105 
0.64252450965482821 0.16885800704867898 1:91 2:123 3:132 4:467 5:152 6:130 7:95 
0.64252450965482821 0.16876398574178098 1:21 2:42 3:47 4:327 5:109 6:95 7:54 
0.64252450965513142 0.16876251974789452 1:139 2:146 3:407 4:559 5:180 6:129 7:102 
0.64158337232557416 0.16811093111842862 1:7 2:38 3:104 4:215 5:202 6:40 7:11 
0.64252450701890051 0.16881845130166417 1:21 2:27 3:53 4:252 5:101 6:105 7:108 
0.64252450940608263 0.1688184513015748 1:43 2:69 3:97 4:283 5:91 6:60 7:48 
0.64252450957088647 0.16881844463661017 1:89 2:117 3:143 4:514 5:194 6:145 7:115 
0.64252450957088647 0.16881844463661017 1:79 2:91 3:114 4:398 5:114 6:137 7:105 
0.64252378040978075 0.1688927079988522 1:62 2:86 3:120 4:435 5:157 6:126 7:100 
0.64252545073385392 0.16802764259749281 1:0 2:0 3:5 4:201 5:27 6:24 7:36 
0.64252378046975533 0.1688927079988522 1:100 2:109 3:182 4:543 5:186 6:140 7:94 
0.6425245070265857 0.1688927079988522 1:100 2:110 3:118 4:386 5:121 6:100 7:80 
0.64252378040004965 0.16887174444930697 1:48 2:80 3:101 4:362 5:111 6:127 7:102 
0.64252378040014113 0.16890628510386618 1:84 2:95 3:153 4:461 5:157 6:138 7:103 
0.64252378040014113 0.16890628510386618 1:75 2:105 3:127 4:434 5:148 6:132 7:102 
0.64252378040014113 0.16890628510386618 1:33 2:55 3:63 4:311 5:93 6:64 7:48 
0.64252378040207714 0.16890628510386618 1:154 2:187 3:214 4:762 5:248 6:187 7:156 
0.64247510025981069 0.16890628602133612 1:111 2:174 3:177 4:755 5:276 6:246 7:169 
0.64247510025981069 0.16855016452298843 1:138 2:145 3:198 4:673 5:179 6:172 7:121 
0.64248200953841117 0.16889275729613457 1:84 2:120 3:147 4:537 5:164 6:178 7:123 
0.64247510021253418 0.16887594607756418 1:107 2:126 3:126 4:522 5:173 6:119 7:89 
0.64247510024089682 0.16889270799885209 1:81 2:130 3:128 4:469 5:135 6:117 7:77 
0.64247510024089682 0.16887181249403921 1:21 2:42 3:47 4:340 5:109 6:95 7:54 
0.64247510024089682 0.16889050892971641 1:139 2:146 3:430 4:563 5:181 6:129 7:102 
0.64160421674136126 0.16817273661479093 1:7 2:38 3:104 4:216 5:209 6:40 7:11 
0.64247510024089682 0.16876399217362176 1:21 2:37 3:56 4:270 5:76 6:103 7:102 
0.64247510024089682 0.16887181511863686 1:43 2:65 3:63 4:289 5:82 6:59 7:55 
0.64247510024089682 0.16857991398813116 1:98 2:101 3:132 4:502 5:178 6:142 7:104 
0.64247510018353648 0.16857991398813116 1:75 2:64 3:117 4:377 5:118 6:128 7:89 
0.64233507589104144 0.16860134379835479 1:61 2:99 3:124 4:426 5:134 6:103 7:89 
0.64252378037009472 0.16889050885534745 1:0 2:0 3:2 4:193 5:26 6:21 7:30 
0.64233507589104144 0.1687629915620118 1:111 2:105 3:153 4:535 5:174 6:119 7:90 
0.64233507589170891 0.16876294961227001 1:99 2:92 3:103 4:386 5:106 6:91 7:81 
0.64246686617006432 0.1687629496122684 1:51 2:67 3:99 4:349 5:105 6:132 7:93 
0.64186652639888908 0.16876294073708853 1:78 2:93 3:138 4:480 5:147 6:119 7:103 
0.64195576362012341 0.16887594610818929 1:86 2:105 3:131 4:418 5:131 6:126 7:99 
0.64195576362012341 0.16887594610818929 1:41 2:55 3:73 4:280 5:90 6:69 7:50 
0.64195576362008966 0.16872952672410868 1:142 2:177 3:199 4:747 5:236 6:175 7:149 
0.64210671130892116 0.16872952672410868 1:111 2:174 3:177 4:786 5:276 6:246 7:169 
0.64211387241735829 0.16845394316703205 1:131 2:140 3:187 4:657 5:170 6:158 7:110 
0.64211387241731366 0.16824795697347888 1:77 2:117 3:141 4:523 5:160 6:150 7:123 
0.64211387241729034 0.16824795710449408 1:81 2:88 3:120 4:497 5:151 6:173 7:115 
0.64211387241729034 0.16817290186859513 1:68 2:113 3:110 4:467 5:120 6:106 7:92 
0.64216707150393515 0.16811623549307741 1:21 2:42 3:47 4:352 5:109 6:95 7:54 
0.64216707238861992 0.16809109564902058 1:139 2:146 3:427 4:587 5:189 6:129 7:102 
0.64216704482340659 0.16866345352085232 1:7 2:38 3:104 4:219 5:214 6:40 7:11 
0.64216707238917736 0.16808787212033349 1:29 2:39 3:67 4:276 5:107 6:87 7:77 
0.64216707238917736 0.16808787212033349 1:41 2:65 3:87 4:278 5:80 6:54 7:44 
0.64216707238917736 0.16804446090359271 1:75 2:102 3:123 4:504 5:165 6:121 7:124 
0.64216707238917736 0.16802762621840617 1:74 2:78 3:107 4:382 5:105 6:127 7:76 
0.64216707238917736 0.1688759461081894 1:66 2:77 3:113 4:411 5:119 6:125 7:91 
0.64169759751181354 0.16857676501707275 1:0 2:0 3:3 4:204 5:14 6:23 7:31 
0.64186652433625802 0.16872385449981125 1:93 2:104 3:163 4:520 5:154 6:113 7:89 
0.64186652433625802 0.16876293628879091 1:74 2:106 3:109 4:380 5:94 6:83 7:81 
0.64186652433625802 0.16857981735099437 1:48 2:81 3:86 4:335 5:109 6:110 7:86 
0.64159154163279042 0.16831936453249069 1:79 2:98 3:193 4:418 5:151 6:101 7:79 
0.64160413963373297 0.16862967039421939 1:75 2:94 3:120 4:411 5:124 6:108 7:102 
0.64160413963373297 0.16860134379835479 1:45 2:72 3:65 4:280 5:70 6:69 7:47 
0.64164380552507227 0.16872962763937649 1:119 2:162 3:188 4:735 5:227 6:177 7:144 
0.64159154032948085 0.16881527832112975 1:103 2:165 3:167 4:780 5:260 6:228 7:157 
0.64159154032947141 0.16811623549307747 1:124 2:137 3:170 4:648 5:166 6:156 7:108 
0.64159154040770261 0.16811153729126216 1:60 2:79 3:114 4:491 5:159 6:171 7:121 
0.64159154040768684 0.16862940697983131 1:95 2:107 3:137 4:504 5:161 6:109 7:75 
0.64159131991915008 0.16855040647055586 1:79 2:104 3:103 4:457 5:120 6:105 7:83 
0.64159132129700103 0.16890628607848285 1:21 2:42 3:47 4:365 5:109 6:95 7:54 
0.64159132129699969 0.16866346057348042 1:139 2:146 3:435 4:616 5:182 6:129 7:102 
0.64159132129699614 0.16876398610656479 1:35 2:99 3:213 4:214 5:39 6:11 7:0 
0.64159130459720881 0.16845394316706769 1:31 2:47 3:50 4:262 5:101 6:72 7:77 
0.64159130459720881 0.16881845210321567 1:36 2:55 3:84 4:274 5:68 6:56 7:52 
0.6415913045972006 0.16862940697983131 1:97 2:118 3:134 4:513 5:129 6:104 7:81 
0.6415913045972006 0.16817290186859518 1:70 2:86 3:92 4:382 5:113 6:91 7:73 
0.6415873428239085 0.16855016452298827 1:58 2:83 3:112 4:407 5:111 6:118 7:79 
0.64252450891888324 0.16817290173930949 1:0 2:0 3:4 4:201 5:26 6:22 7:30 
0.64158602524457797 0.16802762618093281 1:90 2:83 3:150 4:517 5:145 6:108 7:76 
0.6415857374580235 0.16824795697320738 1:94 2:94 3:96 4:387 5:87 6:85 7:55 
0.64158571359632011 0.16887179616260495 1:30 2:53 3:77 4:345 5:95 6:97 7:99 
0.64158777052007943 0.1685504064705558 1:66 2:77 3:123 4:465 5:128 6:101 7:84 
0.6415877703297499 0.16872952672410868 1:61 2:96 3:87 4:424 5:120 6:119 7:89 
0.64158759278222255 0.16889051348399942 1:42 2:67 3:63 4:268 5:73 6:63 7:43 
0.64158734708085818 0.16816389320049629 1:124 2:156 3:189 4:718 5:209 6:153 7:134 
0.64159554301582555 0.16889272031128133 1:96 2:156 3:153 4:766 5:249 6:222 7:151 
0.64159202281084216 0.16801057053299512 1:113 2:122 3:168 4:631 5:156 6:136 7:109 
0.64159202281084216 0.16799455023911258 1:70 2:106 3:129 4:488 5:140 6:140 7:122 
0.64159016078318543 0.16797694646427536 1:76 2:87 3:118 4:487 5:146 6:133 7:90 
0.64159016078318543 0.16890628607848296 1:67 2:93 3:113 4:433 5:133 6:103 7:87 
0.641591615611385 0.16808962210594225 1:21 2:42 3:47 4:378 5:109 6:95 7:54 
0.64159073916168041 0.16887594610818935 1:139 2:146 3:447 4:632 5:184 6:129 7:102 
0.64158957174433484 0.16808949796092498 1:33 2:93 3:202 4:212 5:37 6:9 7:0 
0.64170310417128218 0.16881527832112975 1:18 2:26 3:36 4:250 5:91 6:79 7:87 
0.64170310981860645 0.16808917946795204 1:35 2:53 3:57 4:275 5:59 6:49 7:43 
0.64165964100441286 0.16876290515740877 1:66 2:100 3:116 4:488 5:144 6:99 7:96 
0.64165964100441286 0.16887181271568769 1:67 2:90 3:93 4:358 5:105 6:94 7:71 
0.6419824262951519 0.1686634604804913 1:60 2:72 3:103 4:413 5:105 6:105 7:83 
0.64233507587806971 0.16889270799885203 1:0 2:0 3:1 4:203 5:20 6:23 7:25 
0.6418253183437459 0.16845394316703205 1:84 2:86 3:139 4:497 5:149 6:109 7:82 
0.6418253183437459 0.1683193645324908 1:77 2:81 3:95 4:363 5:101 6:81 7:57 
0.6418253183437459 0.16799429497401897 1:31 2:58 3:79 4:337 5:90 6:91 7:88 
0.64252450956661655 0.1681729018685949 1:70 2:71 3:113 4:439 5:137 6:95 7:97 
0.64252450956840368 0.1679942799853042 1:75 2:90 3:105 4:407 5:97 6:97 7:82 
0.64252450965513142 0.16811154525192029 1:32 2:66 3:67 4:260 5:67 6:60 7:51 
0.64252545122073235 0.16797828205750875 1:111 2:146 3:168 4:706 5:204 6:157 7:132 
0.64252450701890051 0.16889272024110979 1:92 2:155 3:149 4:758 5:243 6:199 7:140 
0.64252450701890051 0.16889050998148064 1:104 2:119 3:161 4:619 5:153 6:128 7:100 
0.64252450701890051 0.16798178245541112 1:67 2:103 3:117 4:484 5:137 6:135 7:106 
0.64252450940680317 0.16811623544541748 1:75 2:103 3:103 4:486 5:152 6:106 7:73 
0.64252378041188618 0.16890628603261842 1:61 2:95 3:95 4:425 5:107 6:108 7:75 
0.64252378041188618 0.16808962210594236 1:21 2:42 3:47 4:392 5:109 6:95 7:54 
0.64252378041188618 0.16797740001818617 1:139 2:146 3:448 4:658 5:188 6:129 7:102 
0.64252378046975533 0.16804446090359276 1:6 2:37 3:111 4:195 5:182 6:31 7:7 
0.64252378040014113 0.16797691328673936 1:19 2:28 3:34 4:251 5:61 6:84 7:67 
0.64252378040014113 0.16801633328444621 1:40 2:50 3:53 4:263 5:73 6:58 7:54 
0.64252378040014113 0.16799569750438348 1:79 2:99 3:103 4:472 5:136 6:92 7:83 
0.64252378040207714 0.16799429497057711 1:66 2:81 3:83 4:369 5:91 6:82 7:70 
0.64247510025713084 0.16797727544363589 1:52 2:70 3:87 4:402 5:115 6:92 7:81 
0.63725260835434827 0.16698465687087993 1:0 2:0 3:5 4:195 5:23 6:29 7:27 
0.64248200953841117 0.16889270799885214 1:82 2:110 3:150 4:481 5:101 6:98 7:63 
0.64248200953841117 0.16797525222249743 1:86 2:73 3:82 4:368 5:79 6:76 7:67 
0.64248200953841117 0.16798178245541112 1:52 2:79 3:77 4:323 5:79 6:94 7:63 
0.64247510024215848 0.16876398574178098 1:60 2:64 3:114 4:458 5:120 6:90 7:77 
0.64247510024215848 0.16845394316706763 1:53 2:85 3:101 4:394 5:121 6:89 7:81 
0.64247510024215848 0.16797170779210557 1:34 2:38 3:59 4:266 5:79 6:45 7:40 
0.64247510024215848 0.16797694646427536 1:129 2:146 3:159 4:697 5:181 6:152 7:120 
0.64246686617006432 0.16876251974789458 1:89 2:133 3:150 4:721 5:222 6:206 7:144 
0.64246686617006432 0.167970677854762 1:111 2:119 3:140 4:629 5:130 6:130 7:85 
0.64246686617006432 0.16797727544363589 1:66 2:90 3:103 4:497 5:125 6:124 7:104 
0.64246686617006432 0.16855040647055586 1:74 2:81 3:110 4:462 5:138 6:124 7:71 
0.64233507589170891 0.16797525222249743 1:68 2:86 3:95 4:418 5:113 6:81 7:75 
0.64233507591735339 0.16855040647069486 1:21 2:42 3:47 4:406 5:109 6:95 7:54 
0.64233507591735339 0.16797128661138994 1:139 2:146 3:480 4:660 5:186 6:129 7:102 
0.64233507591735339 0.16890628510386618 1:33 2:82 3:189 4:196 5:34 6:10 7:0 
0.64233507589087024 0.16876398574179924 1:24 2:25 3:40 4:243 5:56 6:87 7:57 
0.64233507589087024 0.16862967039421933 1:34 2:42 3:55 4:264 5:68 6:52 7:36 
0.64233507589087024 0.16862941064843812 1:78 2:86 3:110 4:463 5:132 6:91 7:90 
0.64233507589087024 0.16797128661139005 1:49 2:59 3:82 4:351 5:86 6:94 7:76 
0.64230460772037912 0.16855016452298827 1:54 2:60 3:89 4:385 5:116 6:92 7:73 
0.64247507373974544 0.16824795026230421 1:0 2:0 3:4 4:192 5:21 6:20 7:22 
0.64230460776014242 0.16889050903222202 1:84 2:103 3:128 4:484 5:105 6:79 7:50 
0.64233507587807115 0.16801633328444626 1:61 2:81 3:86 4:356 5:84 6:85 7:68 
0.64233507587807115 0.16797128661138999 1:18 2:64 3:80 4:337 5:68 6:96 7:61 
0.64224922481576918 0.16872962763937654 1:62 2:60 3:93 4:442 5:111 6:92 7:77 
0.64224922481576918 0.16870190848997518 1:47 2:74 3:97 4:395 5:109 6:80 7:81 
0.64224922481576918 0.16876398610656479 1:27 2:45 3:67 4:258 5:54 6:59 7:47 
0.64227331683114919 0.16876299459867372 1:131 2:137 3:135 4:694 5:178 6:143 7:105 
0.64216707238917736 0.16876293628879108 1:77 2:130 3:138 4:744 5:203 6:188 7:131 
0.64216707238917736 0.16872962763937654 1:99 2:101 3:138 4:613 5:130 6:127 7:83 
0.64216707238917736 0.1680276261809327 1:62 2:75 3:99 4:477 5:112 6:122 7:105 
0.64216707410460061 0.16876398574178098 1:77 2:85 3:99 4:488 5:118 6:93 7:69 
0.64211387241729034 0.16881527839328675 1:54 2:80 3:100 4:427 5:103 6:84 7:73 
0.64211387241729034 0.168871744466909 1:21 2:42 3:47 4:420 5:109 6:95 7:54 
0.64211387241729034 0.16881528534674584 1:139 2:146 3:483 4:692 5:184 6:129 7:102 
0.64211387241731366 0.16881528534674589 1:5 2:28 3:92 4:194 5:176 6:27 7:7 
0.64211387241731366 0.1688152783211298 1:15 2:29 3:30 4:248 5:65 6:81 7:58 
0.64211387241731366 0.16887181708543919 1:34 2:49 3:52 4:254 5:60 6:50 7:39 
0.64211387241731366 0.16889272031128139 1:67 2:95 3:105 4:462 5:108 6:92 7:84 
0.64211387241735829 0.1688184513015748 1:56 2:54 3:73 4:347 5:92 6:101 7:65 
0.64211387241735829 0.16887181271512103 1:48 2:60 3:77 4:393 5:99 6:87 7:71 
0.64157545112316949 0.16888989043155089 1:0 2:0 3:2 4:192 5:13 6:18 7:25 
0.64160413963373297 0.16876398390833519 1:82 2:100 3:119 4:495 5:95 6:83 7:43 
0.64246686617006432 0.1679752522224976 1:75 2:68 3:81 4:356 5:83 6:66 7:49 
0.64178217694882755 0.16890628510386613 1:23 2:44 3:64 4:331 5:78 6:64 7:78 
0.64170310981860645 0.16890629447290556 1:54 2:60 3:84 4:403 5:112 6:102 7:81 
0.64158958503332575 0.16809012008993518 1:57 2:72 3:87 4:400 5:102 6:77 7:71 
0.6415873428239085 0.16799588362963458 1:31 2:47 3:52 4:261 5:54 6:50 7:45 
0.64158727218911882 0.16889050903222197 1:85 2:140 3:150 4:683 5:166 6:123 7:105 
0.64158640007418555 0.16889050998148064 1:84 2:125 3:128 4:723 5:195 6:171 7:127 
0.64159131993634988 0.16887594607756412 1:101 2:111 3:149 4:588 5:112 6:110 7:86 
0.64159154040768684 0.16889050892971635 1:54 2:64 3:99 4:456 5:123 6:115 7:99 
0.64159056947963411 0.1685503556345751 1:61 2:78 3:96 4:455 5:119 6:105 7:77 
0.64252450701890051 0.16876398872106846 1:55 2:95 3:90 4:413 5:85 6:73 7:64 
0.64252378040207714 0.16889051348399936 1:21 2:42 3:47 4:435 5:109 6:95 7:54 
0.64224922481576918 0.16889270799885225 1:139 2:146 3:499 4:708 5:186 6:129 7:102 
0.64230460776014242 0.16831936460720415 1:7 2:31 3:91 4:181 5:173 6:22 7:5 
0.64158571359632 0.16855016452298832 1:20 2:21 3:23 4:240 5:65 6:72 7:56 
0.64158913443209287 0.16887181511863697 1:30 2:41 3:52 4:255 5:57 6:34 7:44 
0.64252450701890051 0.16872952672410862 1:63 2:77 3:92 4:465 5:129 6:89 7:71 
0.64252450701890051 0.16845394316706769 1:51 2:67 3:77 4:358 5:71 6:63 7:72 
0.64252450701890051 0.16845394316706769 1:40 2:65 3:75 4:382 5:98 6:87 7:60 
0.63738625889024259 0.1669901481933907 1:0 2:0 3:3 4:196 5:22 6:29 7:25 
0.64252450953482521 0.16887181271512114 1:59 2:81 3:112 4:470 5:125 6:86 7:61 
0.64247510024215848 0.16808917946795199 1:67 2:66 3:84 4:346 5:74 6:65 7:56 
0.64169759751181354 0.16799569750438365 1:33 2:54 3:61 4:310 5:77 6:70 7:73 
0.64246686617192572 0.16862967039421939 1:58 2:65 3:95 4:422 5:109 6:85 7:49 
0.64195576362008966 0.16798178245541112 1:56 2:75 3:78 4:385 5:91 6:81 7:75 
0.64252450956661655 0.16811154474405493 1:29 2:42 3:57 4:236 5:70 6:54 7:37 
0.64216707410471896 0.16797740001818617 1:93 2:130 3:131 4:676 5:166 6:119 7:96 
0.64224922481576918 0.167970677854762 1:72 2:122 3:130 4:707 5:183 6:172 7:118 
0.64224922481576918 0.16889050892480972 1:88 2:103 3:136 4:590 5:116 6:107 7:77 
0.64195576362033702 0.16872962763937638 1:54 2:76 3:83 4:467 5:120 6:119 7:88 
0.64195576362033702 0.16855016452298821 1:65 2:57 3:97 4:454 5:131 6:96 7:58 
0.64195576362033702 0.16876299459867372 1:51 2:69 3:78 4:427 5:91 6:70 7:56 
0.64252378040014113 0.16881528534674578 1:21 2:42 3:47 4:450 5:109 6:95 7:54 
0.64159154086731518 0.16870937451379087 1:139 2:146 3:503 4:736 5:189 6:129 7:102 
0.64186652433625802 0.1686013437983549 1:24 2:74 3:171 4:188 5:27 6:6 7:0 
0.64164380552507227 0.16887181272006374 1:23 2:23 3:33 4:241 5:78 6:58 7:59 
0.64164380552506928 0.16887181272006363 1:26 2:49 3:54 4:242 5:52 6:38 7:33 
0.64164380552234879 0.16889051348399953 1:63 2:78 3:87 4:453 5:103 6:82 7:77 
0.64159154040768684 0.1688184513015748 1:38 2:63 3:70 4:340 5:75 6:78 7:71 
0.64252378040004965 0.16876398610656479 1:44 2:52 3:87 4:386 5:87 6:78 7:60 
0.64154201558262258 0.16871680433169811 1:0 2:0 3:0 4:189 5:19 6:15 7:20 
0.64249465058906863 0.16876398610656468 1:75 2:65 3:111 4:444 5:120 6:82 7:55 
0.64158898821945221 0.16801057053299506 1:51 2:59 3:71 4:342 5:76 6:84 7:54 
0.64159132131510654 0.16890629447290556 1:33 2:65 3:64 4:324 5:59 6:80 7:49 
0.64159131993634988 0.16889050892971641 1:52 2:53 3:92 4:414 5:107 6:78 7:61 
0.64158571359631988 0.16799429497057705 1:36 2:71 3:77 4:371 5:105 6:76 7:73 
0.64158640007418521 0.16890628510386607 1:22 2:50 3:48 4:243 5:62 6:39 7:37 
0.64158571359631988 0.16799569750438353 1:91 2:108 3:133 4:654 5:155 6:126 7:95 
0.64233507591735339 0.16866346048049125 1:91 2:117 3:133 4:708 5:170 6:155 7:108 
0.6415913045972006 0.16881844462157114 1:82 2:83 3:114 4:593 5:116 6:112 7:81 
0.64159015501666805 0.16860134379835479 1:44 2:89 3:104 4:449 5:118 6:96 7:79 
0.64158973605778313 0.16857676500916313 1:60 2:85 3:94 4:453 5:122 6:73 7:53 
0.64159132131510477 0.16887181511863691 1:47 2:67 3:89 4:421 5:66 6:74 7:46 
0.64246686617192561 0.16869185690163907 1:21 2:42 3:47 4:466 5:109 6:95 7:54 
0.64165964100441286 0.1688718127200638 1:139 2:146 3:513 4:761 5:189 6:129 7:102 
0.64159132129699969 0.16817290186859518 1:6 2:38 3:100 4:205 5:112 6:16 7:2 
0.6418253183437459 0.16889270210041718 1:17 2:22 3:24 4:255 5:73 6:60 7:54 
0.64252545122073235 0.16797727544915925 1:33 2:45 3:46 4:240 5:44 6:46 7:32 
0.64198826129516406 0.16808949799906386 1:57 2:83 3:95 4:462 5:85 6:86 7:62 
0.64252450953482521 0.1680276261809327 1:43 2:57 3:69 4:351 5:69 6:77 7:59 
0.64158759278222255 0.16799569750438353 1:33 2:50 3:70 4:378 5:97 6:63 7:63 
0.64154029983078698 0.16874997911756162 1:0 2:0 3:3 4:188 5:20 6:13 7:18 
0.64195576362012341 0.16797828205750864 1:59 2:89 3:110 4:460 5:86 6:64 7:53 
0.64252378046975533 0.16798178245541118 1:55 2:62 3:62 4:328 5:73 6:69 7:57 
0.64165964100441286 0.16890628602133606 1:25 2:53 3:52 4:306 5:73 6:64 7:67 
0.64252378040207714 0.16797740001818623 1:58 2:50 3:87 4:436 5:87 6:68 7:71 
0.64158958503332464 0.167970677854762 1:40 2:61 3:80 4:375 5:83 6:69 7:57 
0.64252378036991808 0.16860134379835479 1:25 2:41 3:54 4:247 5:52 6:41 7:24 
0.64159132131510654 0.16887594607756395 1:95 2:106 3:132 4:673 5:133 6:103 7:92 
0.64158633685658817 0.16876398266814752 1:68 2:107 3:107 4:688 5:179 6:167 7:100 
0.64247510024215848 0.16797694646427541 1:72 2:93 3:105 4:590 5:101 6:101 7:82 
0.64252450956661655 0.16876398574178109 1:44 2:64 3:85 4:460 5:100 6:97 7:84 
0.64246686617013815 0.16876251974789447 1:55 2:90 3:73 4:452 5:118 6:69 7:52 
0.64216707142440854 0.16876299167056552 1:47 2:57 3:64 4:404 5:76 6:92 7:57 
0.64233507591735339 0.1688152783211298 1:21 2:42 3:47 4:482 5:109 6:95 7:54 
0.64233507589108707 0.16881528534674595 1:139 2:146 3:533 4:775 5:192 6:129 7:102 
0.64233507589170891 0.16889272031128127 1:22 2:66 3:153 4:185 5:26 6:8 7:0 
0.64233507587807115 0.16889269009704966 1:9 2:22 3:29 4:238 5:48 6:62 7:54 
0.64252378040207714 0.16889051348399942 1:26 2:35 3:58 4:243 5:53 6:39 7:22 
0.64247510021253418 0.16889275729613457 1:48 2:89 3:82 4:441 5:102 6:67 7:71 
0.64227331683114919 0.16816389376848551 1:48 2:66 3:61 4:347 5:65 6:69 7:59 
0.64247510024215848 0.16845394316706763 1:41 2:57 3:73 4:374 5:94 6:64 7:55 
0.64154162263777093 0.16871693651031322 1:0 2:0 3:5 4:194 5:13 6:20 7:18 
0.64216707410460061 0.16876398266814757 1:59 2:65 3:111 4:441 5:100 6:70 7:62 
0.6425245070265857 0.16845394316703205 1:68 2:44 3:72 4:335 5:59 6:54 7:39 
0.64216707146417185 0.16890628510386613 1:39 2:42 3:49 4:304 5:59 6:69 7:61 
0.64233507589087024 0.16831936453249069 1:53 2:57 3:80 4:406 5:94 6:65 7:63 
0.64233507589104144 0.16862941064843806 1:52 2:62 3:79 4:371 5:75 6:84 7:50 
0.64247510024089682 0.16870190848997518 1:28 2:36 3:49 4:243 5:59 6:32 7:24 
0.64216707150393515 0.16816389320049629 1:76 2:109 3:111 4:650 5:156 6:117 7:91 
0.64216707150393515 0.16881844462157036 1:85 2:103 3:120 4:696 5:139 6:141 7:109 
0.64186652639888908 0.16881844462156831 1:79 2:83 3:108 4:556 5:105 6:94 7:70 
0.64195576362033702 0.16889050892480978 1:43 2:66 3:88 4:445 5:100 6:82 7:83 
0.64252378046975533 0.1680876256740802 1:45 2:55 3:64 4:417 5:117 6:103 7:64 
0.64186652639888908 0.16890628210762149 1:55 2:66 3:74 4:397 5:71 6:58 7:52 
0.64195576362008966 0.16808962210594242 1:21 2:42 3:47 4:498 5:109 6:95 7:54 
0.64186652433626057 0.1688152783211298 1:139 2:146 3:544 4:802 5:192 6:129 7:102 
0.64169759751181354 0.16866346048049125 1:26 2:86 3:150 4:160 5:19 6:3 7:0 
0.64169759751181354 0.16804446090359265 1:10 2:21 3:26 4:234 5:53 6:68 7:44 
0.64195576362033702 0.16845394316703216 1:17 2:31 3:37 4:245 5:46 6:46 7:33 
0.64195576362033702 0.16811153521499023 1:52 2:69 3:73 4:436 5:110 6:83 7:54 
0.64160413963373297 0.16799427998526201 1:52 2:58 3:61 4:326 5:67 6:60 7:55 
0.64211387241729034 0.16808762567408009 1:33 2:46 3:55 4:364 5:77 6:79 7:41 
0.639199849828611 0.16736369301833465 1:0 2:0 3:3 4:186 5:16 6:16 7:20 
0.64247510025713084 0.16799455023911253 1:55 2:61 3:84 4:451 5:98 6:73 7:51 
0.64216707238861992 0.16881528218906977 1:56 2:60 3:60 4:336 5:58 6:59 7:52 
0.64159154040770261 0.16804322837530178 1:26 2:44 3:56 4:305 5:60 6:70 7:52 
0.64216707410471896 0.16798076761333769 1:47 2:49 3:76 4:414 5:75 6:65 7:47 
0.64216707410471896 0.16797170779774301 1:58 2:59 3:72 4:375 5:77 6:67 7:42 
0.64159154032948085 0.16889050892971647 1:25 2:42 3:44 4:234 5:50 6:44 7:32 
0.64159154032948085 0.16889270210041718 1:86 2:103 3:118 4:636 5:139 6:102 7:78 
0.64227331683011646 0.16876398574179924 1:61 2:97 3:110 4:680 5:163 6:147 7:103 
0.64159132129699969 0.16797067785476205 1:75 2:82 3:113 4:580 5:98 6:91 7:52 
0.64159131991915008 0.16799569750438353 1:37 2:78 3:99 4:443 5:85 6:88 7:76 
0.64164380552234879 0.16824795710449403 1:62 2:66 3:64 4:448 5:100 6:77 7:41 
0.64246686617004101 0.16890628510386618 1:43 2:65 3:73 4:394 5:71 6:57 7:49 
0.6424668661719255 0.16890628603261831 1:21 2:42 3:47 4:515 5:109 6:95 7:54 
0.64186652433626057 0.16881845210321555 1:136 2:145 3:545 4:821 5:191 6:128 7:100 
0.64186652433626057 0.16889051348399942 1:7 2:36 3:87 4:188 5:100 6:16 7:2 
0.64186652433626057 0.16890628510386624 1:9 2:21 3:31 4:237 5:55 6:57 7:46 
0.64210671130880415 0.16889272031128122 1:26 2:41 3:40 4:234 5:37 6:40 7:35 
0.64224922481576918 0.16881528534674584 1:54 2:78 3:76 4:447 5:69 6:68 7:41 
0.64163024199020968 0.16876290515740872 1:47 2:33 3:57 4:326 5:77 6:61 7:52 
0.64160413963373297 0.16797067785476205 1:36 2:53 3:60 4:368 5:68 6:63 7:61 
0.64154243931770272 0.16875032556463443 1:0 2:0 3:4 4:193 5:16 6:18 7:20 
0.6419824262951519 0.16855040647069491 1:63 2:81 3:78 4:445 5:72 6:52 7:34 
0.64189218646147828 0.16799427998526201 1:47 2:60 3:71 4:331 5:57 6:39 7:39 
0.64164380552506928 0.16889269724274353 1:27 2:41 3:45 4:305 5:49 6:72 7:54 
0.64252378040014113 0.16797727544915941 1:47 2:57 3:71 4:401 5:82 6:67 7:53 
0.64252378041188618 0.16862967275226048 1:41 2:56 3:78 4:362 5:69 6:59 7:59 
0.64233507591735339 0.1686634604804913 1:17 2:33 3:44 4:228 5:51 6:34 7:36 
0.6418253183437459 0.16816389376850871 1:85 2:99 3:111 4:641 5:129 6:105 7:79 
0.64159154032948085 0.1680163332844461 1:74 2:89 3:109 4:673 5:133 6:140 7:99 
0.64159154040770261 0.16801633328444621 1:68 2:77 3:92 4:553 5:95 6:90 7:74 
0.64178217694958817 0.16801056729425096 1:38 2:53 3:61 4:424 5:97 6:90 7:69 
0.64159154040768684 0.16881528218903746 1:52 2:63 3:74 4:430 5:81 6:68 7:47 
0.64159132129687002 0.16797828205750914 1:45 2:61 3:67 4:391 5:66 6:58 7:41 
0.64170310981860645 0.16797694646427541 1:21 2:42 3:47 4:533 5:109 6:95 7:54 
0.64165964100441286 0.16866346048049141 1:134 2:139 3:534 4:816 5:186 6:125 7:96 
0.64252545122103 0.16889050891786406 1:25 2:70 3:141 4:159 5:19 6:4 7:0 
0.6416042433326663 0.16797170779774662 1:13 2:19 3:19 4:228 5:54 6:56 7:44 
0.64159132129687002 0.16808962210594225 1:26 2:34 3:32 4:230 5:42 6:27 7:28 
0.64159542252994961 0.16857991398813155 1:46 2:69 3:70 4:435 5:77 6:70 7:53 
0.64159206585668571 0.16876398872106851 1:40 2:43 3:58 4:334 5:64 6:60 7:48 
0.64159202281301497 0.16887174444691172 1:32 2:46 3:61 4:359 5:63 6:80 7:49 
0.6415751954872948 0.16888975496309167 1:0 2:0 3:4 4:193 5:11 6:15 7:23 
0.64159130459720881 0.16881845210321561 1:52 2:54 3:81 4:437 5:85 6:71 7:53 
0.64159130459720881 0.16890628210762526 1:46 2:48 3:58 4:330 5:66 6:60 7:31 
0.64158576329536476 0.16890628565050902 1:27 2:55 3:42 4:300 5:54 6:59 7:47 
0.6415913045972006 0.16876398266814752 1:36 2:48 3:53 4:396 5:67 6:83 7:58 
0.64159020923628285 0.16889050892971641 1:34 2:53 3:67 4:367 5:76 6:50 7:57 
0.64158576150406887 0.16801633329663263 1:20 2:24 3:38 4:234 5:49 6:45 7:37 
0.64158574694769599 0.16801633329663263 1:89 2:92 3:94 4:634 5:134 6:86 7:73 
0.64158898799716646 0.16890628817133291 1:53 2:96 3:98 4:662 5:142 6:142 7:86 
0.64158898821945221 0.16799455023911319 1:64 2:73 3:93 4:559 5:86 6:84 7:58 
0.64158898821944244 0.16799455023911319 1:41 2:65 3:69 4:449 5:76 6:78 7:60 
0.64158906828539908 0.16799429497401897 1:46 2:65 3:59 4:444 5:91 6:61 7:46 
0.64158759278222255 0.16799429497401897 1:37 2:60 3:65 4:376 5:68 6:50 7:49 
0.64158739975466195 0.16797828205750909 1:21 2:42 3:47 4:551 5:109 6:95 7:54 
0.64158777052007943 0.16797828205750909 1:124 2:133 3:524 4:805 5:180 6:116 7:90 
0.64158898799714437 0.16802764272187654 1:21 2:68 3:139 4:162 5:14 6:2 7:0 
0.64158759278222255 0.16797694646427547 1:10 2:18 3:20 4:232 5:40 6:51 7:52 
0.6415873428239085 0.16797694646427547 1:22 2:33 3:32 4:233 5:29 6:38 7:33 
0.64158644384733543 0.16797727544363589 1:46 2:49 3:67 4:429 5:76 6:64 7:55 
0.64159548427766055 0.16797727544738339 1:29 2:39 3:63 4:319 5:58 6:54 7:46 
0.64158732044600897 0.16797525222249748 1:36 2:41 3:55 4:351 5:83 6:56 7:43 
0.64151650531824411 0.16795043004667248 1:0 2:0 3:3 4:188 5:12 6:14 7:23 
0.64158633813437538 0.16797525222249943 1:48 2:61 3:82 4:436 5:82 6:62 7:44 
0.64158602529035702 0.16855040647069502 1:43 2:53 3:56 4:322 5:60 6:50 7:48 
0.64159015501616734 0.16797129142251771 1:6 2:33 3:47 4:296 5:54 6:56 7:61 
0.64159015501613359 0.16797128661138999 1:46 2:46 3:83 4:377 5:77 6:49 7:44 
0.64159516756820201 0.16797128661138999 1:28 2:58 3:58 4:356 5:70 6:59 7:61 
0.64159154086411818 0.16862967275226043 1:12 2:27 3:41 4:236 5:41 6:47 7:31 
0.64159154032948085 0.16862967275226043 1:67 2:88 3:106 4:639 5:112 6:90 7:81 
0.64159311850527501 0.16872962763937654 1:59 2:88 3:89 4:681 5:129 6:116 7:91 
0.64178217694825368 0.16870937451379103 1:75 2:68 3:86 4:554 5:81 6:81 7:58 
0.642466866170185 0.16876398874058818 1:39 2:52 3:74 4:425 5:93 6:72 7:59 
0.6415857374580235 0.16876398574179924 1:41 2:53 3:63 4:431 5:88 6:88 7:39 
0.64158571359631988 0.16876398574179924 1:41 2:62 3:68 4:370 5:76 6:52 7:43 
0.6415863562330133 0.16881528525348882 1:21 2:42 3:47 4:570 5:109 6:95 7:54 
0.64178217694825368 0.16881528218906983 1:117 2:127 3:520 4:794 5:170 6:111 7:90 
0.64252450956661655 0.16881527832112975 1:21 2:51 3:126 4:171 5:20 6:8 7:0 
0.64252450956661655 0.16881844462157131 1:10 2:21 3:23 4:226 5:50 6:40 7:38 
0.64159130459676383 0.16881844462145351 1:16 2:24 3:36 4:219 5:43 6:32 7:34 
0.64252450701890051 0.16887181511863697 1:50 2:44 3:81 4:417 5:65 6:57 7:56 
0.64252450953482521 0.16887174446690906 1:39 2:36 3:38 4:321 5:58 6:65 7:53 
0.64198826129516406 0.16887596184032971 1:34 2:42 3:59 4:353 5:67 6:59 7:36 
0.64144464010980595 0.16793101902112179 1:0 2:0 3:2 4:188 5:13 6:14 7:19 
0.64247510025713084 0.16881844463661033 1:56 2:46 3:83 4:419 5:83 6:56 7:39 
0.6424751002125193 0.16881845103386978 1:37 2:47 3:56 4:310 5:56 6:47 7:33 
0.64252378046975533 0.16890628565050902 1:15 2:31 3:41 4:291 5:60 6:40 7:66 
0.64252378046975556 0.16889050903222202 1:38 2:48 3:63 4:387 5:76 6:43 7:42 
0.64252378046975556 0.1688905089297163 1:39 2:58 3:60 4:350 5:51 6:57 7:43 
0.64252378040014113 0.16889050892480961 1:19 2:30 3:36 4:228 5:43 6:39 7:34 
0.64186652433626057 0.16890628603259089 1:75 2:85 3:103 4:624 5:97 6:98 7:62 
0.64195576362044804 0.16890628603261837 1:61 2:88 3:98 4:648 5:127 6:112 7:91 
0.64252378040014113 0.16855035563457521 1:57 2:68 3:81 4:550 5:89 6:75 7:56 
0.64159154040768684 0.1685502447935624 1:33 2:46 3:62 4:414 5:95 6:88 7:56 
0.64247510025878696 0.16870411588069822 1:39 2:42 3:53 4:400 5:83 6:84 7:61 
0.64186652639888908 0.16889050892480861 1:47 2:66 3:46 4:379 5:51 6:44 7:36 
0.64159798891504982 0.16889050885534745 1:21 2:42 3:47 4:589 5:109 6:95 7:54 
0.64158906828539908 0.16889270210041718 1:109 2:101 3:174 4:796 5:489 6:122 7:91 
0.6415913046342856 0.16811156131814242 1:17 2:57 3:117 4:172 5:17 6:6 7:0 
0.64178217694880546 0.1688905088553419 1:6 2:10 3:23 4:227 5:39 6:52 7:35 
0.6415913045972006 0.16811154474405493 1:27 2:34 3:37 4:226 5:34 6:31 7:19 
0.64159132129699969 0.16811154474405493 1:39 2:58 3:62 4:427 5:68 6:63 7:44 
0.64247510021253418 0.16811153729126216 1:36 2:36 3:57 4:321 5:54 6:58 7:39 
0.64159542252994961 0.16862940697983136 1:30 2:37 3:49 4:344 5:69 6:53 7:53 
0.63926634571220919 0.16736679251644154 1:0 2:0 3:3 4:185 5:16 6:13 7:19 
0.64247510018284881 0.16862940697983136 1:41 2:64 3:82 4:431 5:60 6:45 7:30 
0.64247510018284881 0.16855016452298816 1:45 2:37 3:53 4:319 5:52 6:49 7:41 
0.64247510018286969 0.16855016452298832 1:25 2:43 3:53 4:302 5:34 6:55 7:32 
0.64247510018286969 0.16870937451379087 1:31 2:41 3:48 4:383 5:76 6:66 7:47 
0.64247510018286969 0.16876398538519055 1:34 2:47 3:71 4:348 5:57 6:56 7:39 
0.6415920657928107 0.16876398390833447 1:22 2:37 3:48 4:231 5:35 6:26 7:19 
0.64252378041188618 0.16876398574178098 1:69 2:87 3:97 4:616 5:117 6:74 7:63 
0.64252450701890051 0.1688184513015748 1:60 2:74 3:85 4:662 5:119 6:115 7:85 
0.64252450701890051 0.16887180150422076 1:69 2:54 3:83 4:543 5:72 6:67 7:49 
0.64252378040207714 0.16887181511863686 1:29 2:49 3:62 4:418 5:88 6:59 7:53 
0.64252378040014113 0.16887181708543908 1:44 2:36 3:63 4:420 5:86 6:70 7:46 
0.64252378046975533 0.16889050891786966 1:38 2:59 3:39 4:387 5:51 6:50 7:38 
0.64216707238861992 0.16889268726399115 1:21 2:42 3:47 4:609 5:109 6:95 7:54 
0.64216707238861992 0.16889269726030598 1:104 2:113 3:492 4:782 5:164 6:99 7:83 
0.6421138724025216 0.16887180150041486 1:21 2:61 3:134 4:144 5:14 6:2 7:0 
0.64158898799714437 0.1680276427277887 1:10 2:10 3:23 4:222 5:43 6:54 7:34 
0.64195576362033702 0.16889269724274347 1:21 2:27 3:33 4:224 5:34 6:33 7:19 
0.64195576362033702 0.16890628602133606 1:41 2:46 3:62 4:433 5:70 6:54 7:52 
0.6424668661719255 0.16881526232319471 1:35 2:26 3:39 4:323 5:49 6:57 7:43 
0.64195576362034057 0.16885800704867915 1:25 2:41 3:58 4:338 5:76 6:47 7:51 
0.64195576362034057 0.16887594607756401 1:0 2:0 3:21 4:168 5:11 6:9 7:19 
0.6418665264712986 0.16881528515973043 1:47 2:68 3:79 4:423 5:59 6:51 7:31 
0.6418665264712986 0.16872952672410868 1:39 2:50 3:44 4:318 5:59 6:30 7:24 
0.64195576362044804 0.16869307824766128 1:15 2:37 3:45 4:275 5:50 6:48 7:48 
0.64195576362044804 0.16872961259436259 1:38 2:45 3:113 4:322 5:73 6:51 7:43 
0.64186652433626057 0.16872385444391813 1:22 2:46 3:54 4:350 5:58 6:48 7:39 
0.64186652433626057 0.16831135575394285 1:12 2:25 3:29 4:217 5:43 6:40 7:27 
0.64186652433626057 0.16824795710449397 1:59 2:78 3:93 4:620 5:86 6:75 7:74 
0.64186652433626057 0.16831936453249075 1:51 2:76 3:75 4:661 5:119 6:112 7:77 
0.64169759751181354 0.16831935220151001 1:59 2:62 3:81 4:546 5:79 6:70 7:44 
0.64169759751181354 0.16816389320049635 1:36 2:40 3:50 4:435 5:64 6:82 7:50 
0.64173760754904907 0.16811155387828081 1:30 2:37 3:48 4:420 5:80 6:76 7:37 
0.64181754870805041 0.16811154474395051 1:35 2:44 3:59 4:382 5:51 6:37 7:26 
0.64183410403157981 0.16857676501731772 1:21 2:42 3:47 4:630 5:109 6:95 7:54 
0.64183410403157981 0.16876290508476272 1:116 2:101 3:496 4:757 5:157 6:102 7:78 
0.64210671129408436 0.16831935219766386 1:19 2:60 3:129 4:147 5:11 6:1 7:0 
0.64184423188543838 0.16881527831259441 1:8 2:20 3:19 4:219 5:32 6:49 7:45 
0.64184423188543838 0.16811153522254046 1:23 2:21 3:27 4:233 5:45 6:24 7:20 
0.64160413963373297 0.16862940697983131 1:31 2:36 3:52 4:409 5:86 6:56 7:53 
0.64160413963373297 0.16855040505043029 1:35 2:39 3:41 4:318 5:38 6:56 7:44 
0.64160413963373297 0.16876398872106851 1:19 2:43 3:46 4:347 5:60 6:67 7:40 
0.64233509112128262 0.16881845130157491 1:0 2:0 3:1 4:180 5:8 6:14 7:15 
0.64160413963373297 0.16887181271512125 1:42 2:41 3:62 4:408 5:70 6:63 7:42 
0.64159154086411818 0.16889050891786972 1:40 2:54 3:52 4:305 5:48 6:50 7:32 
0.64159154086411818 0.16889275729613457 1:12 2:38 3:33 4:281 5:36 6:56 7:40 
0.64159154086411818 0.16890628602133612 1:35 2:47 3:126 4:332 5:56 6:43 7:27 
0.64159154086411818 0.16891336324892131 1:34 2:44 3:52 4:335 5:62 6:46 7:45 
0.64159132129655738 0.16881528534602747 1:19 2:22 3:32 4:219 5:40 6:29 7:31 
0.64159154032948085 0.16876299156201185 1:65 2:72 3:88 4:621 5:99 6:73 7:61 
0.64159154032948085 0.16872385444391819 1:50 2:74 3:79 4:636 5:126 6:99 7:64 
0.64159154032948085 0.16857676501707275 1:57 2:65 3:78 4:532 5:61 6:64 7:51 
0.64159154032948085 0.16824795680588556 1:31 2:53 3:65 4:423 5:67 6:57 7:38 
0.64159154032948085 0.16817290186817224 1:31 2:38 3:57 4:411 5:56 6:78 7:47 
0.64159154032948085 0.16811154474394646 1:32 2:40 3:42 4:371 5:51 6:53 7:48 
0.64159154040772237 0.16811623542394344 1:21 2:42 3:47 4:651 5:109 6:95 7:54 
0.64159154040772237 0.16808949796092498 1:105 2:105 3:480 4:762 5:151 6:89 7:75 
0.64159132129700103 0.16808917946795221 1:12 2:41 3:121 4:161 5:18 6:6 7:0 
0.64159132129700103 0.16802764272188242 1:11 2:11 3:14 4:223 5:33 6:37 7:38 
0.64159132129700103 0.16799455023911108 1:24 2:30 3:36 4:231 5:20 6:17 7:13 
0.64159132129700169 0.16799429497054036 1:38 2:45 3:58 4:400 5:83 6:47 7:42 
0.64159131993634988 0.16798178245541079 1:23 2:27 3:50 4:320 5:36 6:48 7:45 
0.64159131993634988 0.16797694646427536 1:25 2:42 3:47 4:344 5:50 6:60 7:38 
0.64252378025614898 0.16797524570972194 1:0 2:0 3:0 4:190 5:7 6:14 7:20 
0.64159131993634988 0.16797525222249743 1:37 2:61 3:68 4:424 5:53 6:34 7:31 
0.64159131993634988 0.16855040647069486 1:34 2:42 3:49 4:313 5:44 6:32 7:25 
0.64159130459720881 0.16797128661138999 1:14 2:21 3:33 4:289 5:43 6:41 7:48 
0.64159130459720881 0.16870190848997518 1:30 2:34 3:31 4:373 5:64 6:71 7:35 
0.64159130459720881 0.16876398610656479 1:28 2:40 3:56 4:338 5:56 6:33 7:44 
0.64159130459720881 0.16876399217362181 1:10 2:19 3:33 4:216 5:34 6:31 7:27 
0.64159130459720881 0.16881844569323096 1:46 2:73 3:80 4:607 5:92 6:83 7:59 
0.64159130459720881 0.16881844462157136 1:60 2:62 3:76 4:640 5:105 6:85 7:79 
0.64160413963373297 0.16887181511863703 1:53 2:56 3:83 4:527 5:68 6:63 7:45 
0.64211387241729034 0.16889272024110985 1:20 2:36 3:67 4:412 5:78 6:60 7:38 
0.64211387241722417 0.16887174446690889 1:32 2:54 3:49 4:414 5:61 6:54 7:31 
0.64186652433625802 0.16891336324892114 1:38 2:45 3:51 4:373 5:49 6:43 7:41 
0.64186652433625802 0.16889275731032855 1:21 2:42 3:47 4:673 5:109 6:95 7:54 
0.64195576362044804 0.16890628603261837 1:97 2:105 3:467 4:749 5:145 6:89 7:65 
0.64190918375178441 0.16816389320049058 1:16 2:46 3:105 4:158 5:18 6:5 7:0 
0.64195576362033568 0.16855024479356229 1:5 2:11 3:18 4:225 5:45 6:40 7:29 
0.64216707238861992 0.16862967039421939 1:18 2:27 3:43 4:212 5:36 6:24 7:20 
0.64216707150393515 0.1689133632489529 1:28 2:46 3:62 4:402 5:56 6:60 7:41 
0.64233507587807115 0.1688905150240903 1:24 2:26 3:33 4:318 5:40 6:52 7:43 
0.64233507587806971 0.16872952672410862 1:26 2:30 3:40 4:335 5:55 6:46 7:45 
0.64154362249705554 0.16871697875886746 1:0 2:0 3:1 4:189 5:9 6:7 7:13 
0.64247510018284881 0.1682479572156601 1:44 2:56 3:64 4:415 5:58 6:30 7:35 
0.64247510024089682 0.16824795729536424 1:42 2:36 3:37 4:303 5:41 6:37 7:40 
0.64252378040004965 0.16806807381282451 1:23 2:28 3:42 4:286 5:38 6:42 7:33 
0.64252378036991808 0.16799455023911275 1:34 2:23 3:60 4:382 5:59 6:43 7:39 
0.64252450701890051 0.16798178245574097 1:35 2:36 3:49 4:336 5:55 6:46 7:33 
0.64252450701890051 0.1679774000181804 1:13 2:33 3:30 4:220 5:37 6:24 7:18 
0.64198826129516406 0.167970677854762 1:60 2:68 3:75 4:604 5:88 6:68 7:60 
0.64173126879245701 0.16857991398813116 1:48 2:66 3:71 4:616 5:105 6:105 7:74 
0.64159963717630131 0.16876299167056552 1:54 2:59 3:88 4:515 5:63 6:55 7:34 
0.64159542252994961 0.1688152896952872 1:23 2:30 3:39 4:409 5:67 6:80 7:58 
0.64158739975466195 0.16887181272006374 1:29 2:46 3:58 4:398 5:67 6:48 7:32 
0.6415891882746263 0.16890629447290545 1:40 2:47 3:40 4:361 5:50 6:47 7:21 
0.6415913045972006 0.16887594610818946 1:21 2:42 3:47 4:696 5:109 6:95 7:54 
0.64159130459720881 0.16862967039421928 1:81 2:78 3:142 4:743 5:473 6:91 7:76 
0.64224922481576918 0.16811247394673962 1:22 2:39 3:130 4:136 5:15 6:1 7:0 
0.64159798891495146 0.16799427978751369 1:6 2:17 3:24 4:221 5:28 6:39 7:31 
0.64166144722917295 0.16857676500916313 1:33 2:46 3:61 4:401 5:48 6:50 7:41 
0.64198242629515234 0.16866346054666276 1:19 2:33 3:41 4:321 5:41 6:45 7:33 
0.64198242629515234 0.16816389320049629 1:24 2:30 3:41 4:342 5:56 6:52 7:35 
0.64906815101079718 0.16816389118114689 1:0 2:0 3:1 4:187 5:9 6:11 7:9 
0.64182712821963162 0.16808949799906386 1:36 2:50 3:58 4:412 5:67 6:39 7:37 
0.64182712821963162 0.16801057053299501 1:27 2:36 3:31 4:310 5:43 6:45 7:27 
0.64173509340620216 0.16799430357976153 1:16 2:40 3:31 4:288 5:41 6:47 7:29 
0.64173126879319753 0.16797691743018056 1:32 2:33 3:62 4:363 5:60 6:49 7:41 
0.64160424333558774 0.16797171019293533 1:24 2:43 3:45 4:342 5:61 6:31 7:43 
0.64160424335894151 0.16855016845864473 1:14 2:22 3:31 4:208 5:39 6:33 7:19 
0.64159307537108556 0.16876398610656485 1:57 2:69 3:74 4:591 5:86 6:66 7:60 
0.6415930753737753 0.16881845210321561 1:32 2:63 3:75 4:619 5:105 6:107 7:53 
0.641591615611385 0.1688184516384531 1:46 2:52 3:70 4:529 5:53 6:61 7:50 
0.64159052738569633 0.16887177568912948 1:35 2:48 3:55 4:406 5:63 6:43 7:55 
0.64158958503332575 0.16889051348399936 1:37 2:48 3:46 4:414 5:57 6:43 7:32 
0.64158913443209287 0.16857981735099448 1:43 2:42 3:62 4:342 5:50 6:23 7:25 
0.64158919062466446 0.16889268721899486 1:21 2:42 3:47 4:719 5:109 6:95 7:54 
0.6415891882746263 0.1683193645324908 1:86 2:91 3:459 4:740 5:138 6:79 7:71 
0.64158898821942034 0.16855040647054986 1:15 2:42 3:106 4:156 5:12 6:3 7:0 
0.64158734282331653 0.16876398872104248 1:6 2:12 3:22 4:217 5:31 6:38 7:33 
0.64158739975466195 0.16889050998148059 1:15 2:23 3:23 4:216 5:31 6:31 7:21 
0.64158739982802171 0.16890628232466059 1:33 2:41 3:50 4:419 5:50 6:38 7:39 
0.6415872721891297 0.16887594607756395 1:25 2:28 3:45 4:308 5:41 6:42 7:31 
0.64158727218911882 0.16872962763937638 1:30 2:25 3:42 4:332 5:38 6:52 7:33 
0.64154281498831522 0.16875037770491744 1:0 2:0 3:2 4:187 5:12 6:8 7:15 
0.64158602573703183 0.16810982763865001 1:36 2:43 3:64 4:409 5:43 6:36 7:26 
0.64158602524457797 0.16811154474394657 1:40 2:32 3:38 4:320 5:42 6:31 7:29 
0.64159154032947141 0.16808762567408009 1:18 2:34 3:36 4:280 5:31 6:43 7:26 
0.64159154032947141 0.16801057053299501 1:31 2:24 3:49 4:362 5:57 6:44 7:44 
0.64158734708085818 0.16799427998526195 1:21 2:38 3:43 4:334 5:54 6:52 7:37 
0.64158810951030232 0.16855035563457516 1:10 2:24 3:21 4:214 5:37 6:27 7:21 
0.64252450701890051 0.16890628817133302 1:42 2:66 3:69 4:603 5:77 6:62 7:54 
0.64159399544945894 0.1688905099814807 1:42 2:69 3:70 4:635 5:92 6:79 7:57 
0.64159798891504827 0.16876398574179924 1:50 2:55 3:60 4:522 5:53 6:56 7:54 
0.64158571359631966 0.16876398610656485 1:24 2:26 3:53 4:402 5:68 6:51 7:55 
0.64252378040978075 0.1679769132867393 1:33 2:30 3:43 4:409 5:64 6:36 7:29 
0.64252378041188618 0.16801633329663263 1:32 2:38 3:37 4:360 5:43 6:49 7:24 
0.64252450940680317 0.16866346048309916 1:21 2:42 3:47 4:744 5:109 6:95 7:54 
0.64252450956661655 0.16866346064311794 1:77 2:97 3:445 4:744 5:129 6:77 7:61 
0.64205773974393621 0.16887181249403921 1:10 2:22 3:55 4:177 5:50 6:17 7:0 
0.64216707410460061 0.16890628603261826 1:5 2:10 3:12 4:224 5:39 6:32 7:32 
0.64186652639888908 0.16891336324892126 1:36 2:43 3:57 4:418 5:37 6:42 7:31 
0.64186652639880926 0.16889270799885203 1:24 2:37 3:40 4:314 5:47 6:28 7:30 
0.6415873428239085 0.16881844462157131 1:24 2:27 3:46 4:336 5:43 6:38 7:39 
0.64158732044553091 0.16881845253353822 1:24 2:30 3:62 4:407 5:57 6:44 7:32 
0.64159132129699614 0.16870190848997518 1:36 2:39 3:34 4:307 5:48 6:25 7:31 
0.64159132129699614 0.16855035563457516 1:15 2:28 3:31 4:277 5:40 6:29 7:32 
0.64159052738569633 0.16797170779774306 1:19 2:37 3:49 4:356 5:66 6:37 7:40 
0.64158739975466195 0.16860131538619078 1:22 2:36 3:41 4:333 5:43 6:42 7:44 
0.64158898799716635 0.16845394319064572 1:54 2:67 3:63 4:594 5:67 6:63 7:52 
0.64158958503332464 0.16811623549307741 1:44 2:77 3:58 4:629 5:81 6:75 7:58 
0.64252450965513142 0.16799569750438353 1:54 2:61 3:60 4:522 5:58 6:56 7:36 
0.64252450965482821 0.16799455023911319 1:30 2:31 3:48 4:401 5:55 6:55 7:44 
0.64252378046975533 0.16797691340236254 1:31 2:30 3:47 4:397 5:54 6:56 7:33 
0.64252378046975533 0.16797740001818623 1:30 2:40 3:53 4:353 5:52 6:40 7:25 
0.64247510024089682 0.16797067785476194 1:21 2:42 3:47 4:769 5:109 6:95 7:54 
0.64247510025981069 0.16862967275232882 1:78 2:73 3:131 4:734 5:448 6:85 7:65 
0.64233507589104144 0.16876398574179913 1:6 2:21 3:55 4:140 5:87 6:13 7:1 
0.64247510018353648 0.16889050892480961 1:5 2:17 3:9 4:218 5:38 6:28 7:37 
0.64195576362033568 0.16889050998148053 1:36 2:39 3:54 4:390 5:55 6:40 7:29 
0.64205773974395197 0.16887594610819717 1:27 2:28 3:31 4:310 5:40 6:35 7:32 
0.64227331683026745 0.1688926872639912 1:17 2:30 3:40 4:336 5:42 6:41 7:26 
0.64158744115404009 0.16811154474394641 1:0 2:0 3:21 4:167 5:12 6:10 7:10 
0.64227331683011646 0.16808787212033344 1:35 2:51 3:59 4:394 5:41 6:28 7:29 
0.64230460763981911 0.16811623549307747 1:33 2:34 3:41 4:304 5:33 6:34 7:24 
0.64233507591735339 0.16808949799906386 1:15 2:13 3:26 4:275 5:27 6:37 7:41 
0.64233507591735339 0.16808949796092504 1:20 2:33 3:40 4:356 5:66 6:40 7:31 
0.64233507591735339 0.16802762621840611 1:21 2:44 3:48 4:330 5:42 6:31 7:32 
0.64186652433626057 0.1680105672942509 1:59 2:55 3:68 4:599 5:74 6:58 7:47 
0.6418665264712986 0.16801056727088087 1:37 2:55 3:62 4:622 5:85 6:80 7:57 
0.64164380552506928 0.16801633328444615 1:56 2:50 3:65 4:507 5:56 6:49 7:45 
0.64164380552506928 0.16799455023911247 1:20 2:27 3:36 4:398 5:62 6:70 7:50 
0.64159154086411818 0.16799424130152468 1:24 2:33 3:50 4:396 5:58 6:47 7:31 
0.64159154086411818 0.16799427978445819 1:22 2:28 3:39 4:351 5:66 6:27 7:38 
0.64159132131510477 0.16797828205750864 1:21 2:42 3:47 4:796 5:109 6:95 7:54 
0.64159132131510477 0.1679751742507718 1:58 2:96 3:499 4:669 5:104 6:70 7:61 
0.64159131993626617 0.16797828205614423 1:19 2:42 3:105 4:136 5:10 6:2 7:0 
0.64159131993626617 0.1685502447935624 1:19 2:35 3:35 4:403 5:43 6:42 7:38 
0.64158633685658817 0.16876397101547652 1:21 2:32 3:34 4:305 5:40 6:36 7:31 
0.64158633685658817 0.16890628510386607 1:17 2:25 3:40 4:351 5:48 6:36 7:24 
0.64158642933987142 0.16890628510386613 1:35 2:31 3:51 4:390 5:61 6:40 7:24 
0.64158640007418444 0.1689062860784829 1:32 2:34 3:41 4:301 5:29 6:20 7:29 
0.64158898821944244 0.16889268726399109 1:23 2:40 3:93 4:312 5:38 6:35 7:34 
0.64247510018286957 0.16890628565050891 1:27 2:33 3:33 4:331 5:37 6:34 7:35 
0.64158906828044859 0.16889050885534762 1:45 2:51 3:59 4:591 5:77 6:52 7:57 
0.64158906828539908 0.16889051504311564 1:49 2:53 3:68 4:609 5:83 6:69 7:60 
0.64158830030796121 0.16857981735099425 1:42 2:42 3:54 4:512 5:58 6:39 7:41 
0.64159311850527501 0.16881842587054385 1:27 2:28 3:39 4:416 5:37 6:43 7:46 
0.64159311850527534 0.16855016452298832 1:31 2:30 3:40 4:395 5:56 6:51 7:29 
0.64178217694825368 0.1687629777916167 1:29 2:34 3:32 4:352 5:41 6:31 7:24 
0.64178217694825368 0.16887181511863703 1:21 2:42 3:47 4:823 5:109 6:95 7:54 
0.64252545122073235 0.16881527832112969 1:81 2:82 3:427 4:700 5:118 6:77 7:65 
0.64252545122073235 0.1687296276393766 1:11 2:30 3:96 4:154 5:13 6:2 7:0 
0.64252450957928797 0.1687296276393766 1:29 2:32 3:37 4:395 5:45 6:50 7:20 
0.64246686617192528 0.16881845210321561 1:28 2:25 3:32 4:331 5:37 6:36 7:34 
0.64252450957928797 0.16881845163845266 1:35 2:44 3:45 4:391 5:42 6:41 7:18 
0.6425245070265857 0.16797694646427569 1:26 2:35 3:38 4:299 5:37 6:21 7:28 
0.6425245070265857 0.16797691340236215 1:25 2:23 3:32 4:357 5:48 6:46 7:32 
0.64252378040207714 0.1679782820575087 1:54 2:52 3:65 4:589 5:70 6:47 7:50 
0.64252378040207714 0.16797170779210546 1:32 2:57 3:70 4:609 5:82 6:69 7:53 
0.64252378036991808 0.16801056729425079 1:49 2:48 3:55 4:510 5:51 6:36 7:42 
0.64252378037009539 0.168010584697321 1:19 2:27 3:46 4:396 5:49 6:41 7:46 
0.64247510024215848 0.16805245957817988 1:22 2:32 3:50 4:397 5:49 6:37 7:29 
0.64247510025332843 0.1680444609035926 1:31 2:32 3:38 4:349 5:39 6:43 7:25 
0.64247510018353648 0.16872952672410862 1:21 2:42 3:47 4:851 5:109 6:95 7:54 
0.64247510021267085 0.1680896221059423 1:60 2:60 3:119 4:711 5:427 6:76 7:64 
0.64246686617192572 0.1680896221059423 1:14 2:31 3:105 4:138 5:8 6:2 7:0 
0.64246686617192572 0.16808949802981626 1:28 2:28 3:39 4:385 5:58 6:43 7:38 
0.64233507589108707 0.16808949802981632 1:18 2:17 3:34 4:330 5:47 6:36 7:30 
0.64233507589108707 0.16808949802981632 1:37 2:37 3:49 4:379 5:47 6:33 7:30 
0.64233507587807115 0.16808949802981621 1:44 2:52 3:58 4:587 5:73 6:56 7:39 
0.64233507587807115 0.1680891516154317 1:31 2:45 3:40 4:606 5:89 6:87 7:47 
0.64227331683114919 0.16889050998148053 1:35 2:40 3:55 4:503 5:47 6:41 7:30 
0.64227331683114919 0.16889050998148053 1:17 2:20 3:44 4:390 5:48 6:55 7:50 
0.64216707410472629 0.16889269009704971 1:27 2:26 3:45 4:402 5:47 6:25 7:30 
0.64216707410472629 0.16891335922185852 1:18 2:37 3:31 4:349 5:35 6:41 7:22 
0.64216707238861992 0.16890628603261831 1:21 2:42 3:47 4:881 5:109 6:95 7:54 
0.64216707238861992 0.16890628603261837 1:64 2:57 3:112 4:707 5:424 6:78 7:50 
0.6421670723898083 0.16890628603259089 1:13 2:32 3:80 4:155 5:15 6:1 7:0 
0.6421670723898083 0.16876397101679691 1:30 2:46 3:41 4:402 5:39 6:23 7:21 
0.6421670723898083 0.16891336324895284 1:18 2:25 3:37 4:386 5:55 6:49 7:35 
0.6421670723898083 0.16891336324895284 1:23 2:37 3:36 4:396 5:46 6:31 7:26 
0.6424668661719255 0.16891336356520886 1:28 2:27 3:35 4:350 5:38 6:30 7:24 
0.64195576362034057 0.16889275731033304 1:21 2:42 3:47 4:912 5:109 6:95 7:54 
0.64195576362034057 0.16889270799885209 1:58 2:79 3:420 4:688 5:104 6:72 7:42 
0.64195576362044804 0.16889270799885209 1:4 2:18 3:37 4:126 5:92 6:10 7:2 
0.64195576362044804 0.16889270799885209 1:29 2:29 3:33 4:337 5:35 6:32 7:23 
0.64186652433626057 0.1688717444493068 1:21 2:42 3:47 4:944 5:109 6:95 7:54 
0.64186652433626057 0.1688184495726775 1:56 2:55 3:108 4:695 5:414 6:68 7:55 
0.64186652433626046 0.1688184495726775 1:11 2:36 3:91 4:128 5:13 6:5 7:0 
0.64186652433626046 0.16881845117906097 1:21 2:42 3:47 4:977 5:109 6:95 7:54 
0.64186652433626046 0.16887181271568769 1:50 2:58 3:101 4:699 5:416 6:57 7:52 
0.64186652637452069 0.16889270896423436 1:9 2:32 3:88 4:135 5:11 6:1 7:0 
0.64186652433626046 0.16885803715204489 1:21 2:42 3:47 4:1012 5:109 6:95 7:54 
0.64164380552250311 0.16885800704867904 1:58 2:66 3:392 4:676 5:102 6:57 7:39 
0.64248200954151002 0.16885800704867915 1:5 2:17 3:39 4:124 5:82 6:4 7:2 
0.64164380552250311 0.1688184521032155 1:21 2:42 3:47 4:1049 5:109 6:95 7:54 
0.64159154086735737 0.16870190848997518 1:60 2:58 3:380 4:685 5:103 6:55 7:38 
0.64246686614590687 0.16881528218271591 1:7 2:35 3:85 4:131 5:8 6:2 7:0 
0.64159154086735737 0.16870411823879455 1:21 2:42 3:47 4:1087 5:109 6:95 7:54 
0.64159154040772237 0.16876398391102643 1:61 2:56 3:323 4:684 5:158 6:36 7:44 
0.64159154040772237 0.16855024479356234 1:21 2:42 3:47 4:1126 5:109 6:95 7:54 
0.64159154040772237 0.16855024502252608 1:57 2:46 3:77 4:667 5:399 6:49 7:50 
